~o
<STREAMINFO> 1 39
<VECSIZE> 39<NULLD><MFCC_E_D_A_Z><DIAGC>
~s "silst"
<NUMMIXES> 3
<MIXTURE> 1 2.944424e-01
<MEAN> 39
 5.558470e+00 4.862505e+00 4.642642e+00 -1.664866e+00 -2.831757e+00 -3.014842e+00 -3.723196e+00 -3.064076e+00 -5.864032e-01 -1.676808e+00 -2.000939e+00 -1.060619e+00 7.663326e-01 -5.721447e-01 6.600926e-01 1.304248e+00 2.042409e+00 1.279786e+00 1.332678e+00 2.386968e-02 2.699639e-01 -1.212589e-01 2.216884e-01 3.827059e-01 2.747562e-01 -6.174223e-02 -7.591953e-01 -5.396758e-01 -3.899440e-01 3.483436e-01 4.051813e-01 4.631487e-01 5.111530e-01 5.051500e-01 1.475210e-01 2.295642e-01 2.919856e-01 1.670282e-01 -2.200918e-02
<VARIANCE> 39
 1.671470e+01 4.120947e+01 2.873103e+01 3.783549e+01 3.284632e+01 3.964502e+01 5.044330e+01 4.240709e+01 4.481452e+01 4.488011e+01 3.621346e+01 4.056740e+01 1.253550e-02 2.202574e+00 2.373183e+00 2.183935e+00 2.795580e+00 2.862457e+00 3.562791e+00 3.704916e+00 3.709736e+00 3.686355e+00 3.627752e+00 3.092994e+00 3.050056e+00 1.148303e-03 2.705851e-01 3.543871e-01 4.305067e-01 5.927060e-01 5.205990e-01 5.906630e-01 7.240028e-01 7.248194e-01 7.735549e-01 7.079341e-01 6.023269e-01 5.941450e-01 1.540173e-04
<GCONST> 1.010944e+02
<MIXTURE> 2 4.296544e-01
<MEAN> 39
 1.145317e+00 -1.644199e+00 7.734368e-01 -2.308140e+00 -1.069203e+00 2.042803e-01 1.543995e+00 2.716548e-01 1.522506e+00 1.485707e+00 8.194660e-01 8.163525e-01 6.316999e-01 -1.335588e-01 7.121124e-01 1.147407e-01 -6.200794e-01 -3.315840e-01 5.366635e-02 -3.731663e-01 -1.857733e-01 1.526856e-01 -3.219878e-03 -5.266370e-02 2.369046e-02 9.713080e-04 -6.467050e-02 1.151056e-01 -3.196989e-02 2.770253e-01 1.620786e-01 -4.249636e-02 -1.000571e-01 5.865860e-02 -1.201823e-01 -1.504819e-01 -7.077090e-02 -3.435659e-02 1.007177e-03
<VARIANCE> 39
 3.313239e+01 7.356330e+01 5.472645e+01 5.942779e+01 5.250736e+01 6.022537e+01 6.773433e+01 6.320813e+01 5.481017e+01 5.566604e+01 6.008223e+01 5.308570e+01 9.202892e-02 2.822128e+00 4.804852e+00 5.105209e+00 4.990665e+00 3.918751e+00 5.191674e+00 5.633827e+00 5.461103e+00 5.600032e+00 4.920012e+00 4.922586e+00 4.516851e+00 5.183701e-03 4.024383e-01 5.341299e-01 7.463282e-01 9.513300e-01 8.199787e-01 9.363501e-01 9.627472e-01 1.023913e+00 9.616851e-01 9.237182e-01 9.234548e-01 8.317646e-01 7.179308e-04
<GCONST> 1.213492e+02
<MIXTURE> 3 2.758915e-01
<MEAN> 39
 6.699639e-01 3.998469e+00 6.870099e+00 5.541211e+00 2.806478e+00 2.984778e+00 -9.313290e-01 -5.665531e-01 -6.139324e-01 -5.101411e-01 6.201796e-02 1.310888e-01 5.328525e-01 -2.666209e+00 -1.425543e+00 -7.720364e-01 1.153256e+00 1.241832e+00 1.807342e+00 1.392302e+00 1.764903e+00 9.907836e-01 9.911828e-01 1.117933e+00 6.439682e-01 -1.109387e-01 -2.767227e-01 -3.946239e-01 -7.582766e-01 -6.925266e-01 -3.970071e-01 -3.106146e-01 1.872696e-01 3.102838e-01 3.632507e-01 2.178416e-01 9.927528e-02 2.875284e-02 2.232775e-03
<VARIANCE> 39
 2.878383e+01 4.327847e+01 2.398241e+01 2.962966e+01 2.790425e+01 4.087566e+01 4.128354e+01 4.240147e+01 3.758343e+01 3.508034e+01 3.131327e+01 2.883637e+01 2.488460e-02 2.083236e+00 2.441469e+00 3.114481e+00 3.159672e+00 3.051877e+00 3.706844e+00 4.013128e+00 4.104543e+00 3.678576e+00 4.186296e+00 3.298847e+00 3.051083e+00 2.394120e-03 4.365299e-01 5.507481e-01 3.970967e-01 4.576344e-01 4.649951e-01 6.776226e-01 6.661808e-01 7.435603e-01 6.849442e-01 6.389022e-01 5.510507e-01 5.225353e-01 5.411608e-04
<GCONST> 1.037422e+02
~h "#i"
<BEGINHMM>
<NUMSTATES> 5
<STATE> 2
<NUMMIXES> 2
<MIXTURE> 1 4.512141e-01
<MEAN> 39
 -8.686493e-01 1.141967e+01 -4.094190e+00 -2.601796e+00 -6.576093e+00 -6.063725e+00 -3.909589e+00 -1.706188e+00 -1.915184e+00 -1.137903e+00 -7.002756e-01 1.764875e+00 8.346701e-01 1.445573e-02 4.836363e-01 4.512223e-02 5.038354e-01 -1.708746e-01 1.428447e-01 -1.477295e-01 -8.610544e-02 -3.629588e-03 1.664268e-01 2.505172e-01 4.819949e-01 8.813876e-03 1.231517e-01 -1.531480e-02 1.476716e-01 -4.454414e-03 1.999062e-01 1.257980e-01 1.774163e-01 2.291810e-01 2.456075e-01 1.405405e-01 9.230962e-02 1.194928e-02 -1.804173e-03
<VARIANCE> 39
 1.713996e+01 2.865394e+01 2.890704e+01 2.368879e+01 2.474024e+01 2.869183e+01 3.987630e+01 3.612372e+01 5.303575e+01 5.923718e+01 8.027949e+01 7.951468e+01 9.877397e-03 6.283559e-01 9.756047e-01 9.283334e-01 1.322886e+00 1.361543e+00 1.535527e+00 1.937554e+00 1.783991e+00 2.024388e+00 2.404148e+00 2.885992e+00 3.372133e+00 3.851095e-04 1.028755e-01 1.310417e-01 1.779112e-01 2.595634e-01 2.624074e-01 3.303139e-01 3.104326e-01 3.327050e-01 3.713659e-01 4.372315e-01 5.206235e-01 5.166453e-01 5.516482e-05
<GCONST> 8.309326e+01
<MIXTURE> 2 5.487789e-01
<MEAN> 39
 2.627610e-01 1.266390e+01 -7.946485e-01 -2.764828e+00 -4.303008e+00 -4.940100e+00 -3.547425e+00 1.558904e+00 -3.670084e-01 8.808330e-03 8.835092e-02 7.148515e-01 7.779115e-01 -4.617709e-01 9.079247e-01 -6.240227e-01 3.609193e-01 -5.767661e-01 -5.355291e-01 -9.542630e-01 -7.462066e-01 -7.696303e-01 -7.983372e-01 -2.568980e-01 -2.762738e-01 1.690487e-02 1.316236e-02 -4.383605e-01 1.931194e-02 1.043932e-02 -9.473456e-02 1.263081e-01 3.989464e-02 -1.036344e-01 -1.251805e-01 -5.042767e-02 -1.023449e-01 -5.939974e-02 -3.661373e-04
<VARIANCE> 39
 1.243257e+01 3.353625e+01 2.168492e+01 2.780122e+01 1.995380e+01 2.424879e+01 4.995630e+01 2.681277e+01 2.862584e+01 2.861313e+01 3.554943e+01 3.576149e+01 1.228083e-02 6.505580e-01 2.126732e+00 1.082599e+00 1.938895e+00 1.675723e+00 2.108410e+00 1.796327e+00 2.160856e+00 2.086045e+00 2.441901e+00 3.210514e+00 2.275715e+00 7.220210e-04 1.252528e-01 2.472554e-01 2.064736e-01 3.567318e-01 3.476888e-01 3.904525e-01 3.728779e-01 3.662735e-01 3.751707e-01 3.933590e-01 3.978066e-01 4.051767e-01 1.460890e-04
<GCONST> 8.437698e+01
<STATE> 3
<NUMMIXES> 2
<MIXTURE> 1 4.649158e-01
<MEAN> 39
 -9.711379e-01 1.166618e+01 -2.851524e+00 -1.619355e+00 -5.953245e+00 -5.535079e+00 -5.588476e+00 -1.551351e+00 -2.727003e+00 -2.531143e+00 -1.355112e+00 -2.336805e-01 8.886200e-01 1.632882e-01 1.741512e-01 2.122305e-01 2.479790e-01 3.178061e-01 2.092721e-01 2.761440e-01 2.156856e-01 3.579341e-01 2.360333e-01 2.240570e-01 9.976615e-02 8.092429e-04 5.609456e-02 -1.736984e-02 8.212651e-02 -8.698465e-03 1.395360e-01 4.181704e-02 1.253118e-01 7.356638e-02 1.128769e-01 1.072097e-01 5.404405e-02 3.846054e-02 -2.195735e-03
<VARIANCE> 39
 1.188448e+01 4.591411e+01 1.943962e+01 1.600673e+01 2.137426e+01 2.616295e+01 3.380339e+01 2.756758e+01 2.763365e+01 2.998253e+01 4.606266e+01 3.841204e+01 6.003116e-03 2.040129e-01 3.386673e-01 4.639760e-01 6.123103e-01 7.137355e-01 7.524501e-01 8.893739e-01 8.482251e-01 8.454952e-01 8.243412e-01 8.200450e-01 7.694516e-01 9.317831e-05 4.142057e-02 7.642369e-02 1.089711e-01 1.240181e-01 1.515699e-01 1.583353e-01 1.850044e-01 1.919689e-01 1.773737e-01 1.553112e-01 1.713156e-01 1.534346e-01 9.738053e-06
<GCONST> 5.513206e+01
<MIXTURE> 2 5.350724e-01
<MEAN> 39
 -1.250926e+00 1.214298e+01 -1.613047e+00 -1.103321e+00 -4.207335e+00 -4.604890e+00 -5.141211e+00 -4.996935e-01 -1.621742e+00 -1.915696e+00 3.780060e-01 2.796365e-01 8.909312e-01 -4.403162e-02 -8.686508e-02 -1.528359e-01 -1.450314e-01 -9.750105e-02 -2.063587e-01 -9.766647e-02 -1.894422e-01 -7.403453e-02 -1.144591e-01 -1.029310e-01 -1.472565e-01 2.014670e-04 -1.453094e-02 -6.115801e-02 -2.615124e-02 -9.391717e-02 -3.494081e-02 -6.682429e-02 -2.360632e-02 -3.412972e-02 -2.265061e-02 -2.944121e-02 -3.657983e-02 -3.783551e-02 -1.058405e-03
<VARIANCE> 39
 1.000609e+01 4.731042e+01 1.393644e+01 1.292200e+01 1.661599e+01 2.160148e+01 3.140684e+01 1.954185e+01 2.303582e+01 2.966867e+01 4.074072e+01 3.491927e+01 6.563358e-03 1.024311e-01 2.012404e-01 2.623763e-01 3.423251e-01 3.948876e-01 4.176094e-01 4.589496e-01 4.737381e-01 4.734468e-01 4.551953e-01 4.324863e-01 4.416127e-01 3.754082e-05 1.631876e-02 3.164928e-02 4.474438e-02 5.498874e-02 6.710841e-02 7.192091e-02 7.893671e-02 8.217425e-02 8.293930e-02 8.000866e-02 7.239673e-02 7.778057e-02 3.730628e-06
<GCONST> 3.445280e+01
<STATE> 4
<NUMMIXES> 2
<MIXTURE> 1 4.536241e-01
<MEAN> 39
 -2.261767e-01 1.100175e+01 8.502626e-02 -5.806520e+00 -2.198221e+00 -6.160222e+00 -4.831289e+00 -2.178002e-01 -9.199715e-01 -2.146073e+00 7.603019e-04 -2.243890e+00 8.288336e-01 8.443232e-01 -9.794740e-01 1.201139e+00 2.205802e-01 8.890620e-01 1.224251e+00 7.788183e-01 4.272571e-01 1.973590e-01 2.100091e-01 -1.818363e-01 -8.465970e-02 -2.793804e-02 1.869911e-02 -9.722302e-02 6.421386e-02 6.840480e-01 5.417131e-04 4.162882e-01 1.061141e-01 -3.538819e-02 -8.446977e-03 7.786980e-03 3.967335e-02 1.591347e-01 -9.173210e-03
<VARIANCE> 39
 1.532012e+01 3.569570e+01 2.629930e+01 3.749345e+01 2.312466e+01 2.885196e+01 3.513661e+01 2.825874e+01 2.690162e+01 2.646361e+01 3.350171e+01 3.296916e+01 8.085238e-03 7.992307e-01 1.720357e+00 2.064746e+00 2.503296e+00 2.368361e+00 2.344654e+00 3.004141e+00 2.506177e+00 2.359689e+00 2.424609e+00 3.489438e+00 2.941666e+00 4.210479e-04 1.995521e-01 1.831343e-01 3.232378e-01 4.017779e-01 3.885383e-01 4.392524e-01 3.957682e-01 4.068342e-01 3.782611e-01 3.507327e-01 3.813545e-01 3.768914e-01 1.046760e-04
<GCONST> 8.696140e+01
<MIXTURE> 2 5.463706e-01
<MEAN> 39
 -1.410253e-01 1.282545e+01 -4.086624e+00 -1.757290e+00 -5.072292e+00 -6.752276e+00 -3.827667e+00 -1.812419e+00 5.896407e-01 -4.551628e-01 2.917369e-01 1.856304e+00 8.758659e-01 -2.944571e-02 -5.682390e-01 2.833555e-01 -8.901708e-01 5.503646e-01 -4.182140e-01 1.756223e-01 1.305032e-03 7.971632e-02 5.992528e-02 -2.246504e-02 -2.864226e-01 -6.412993e-03 9.652535e-02 -2.350017e-01 2.560657e-01 -1.082221e-01 9.700415e-02 1.484586e-01 1.116511e-02 9.750468e-02 -1.084871e-01 -3.552111e-02 -8.515623e-02 -1.176759e-01 -4.371408e-03
<VARIANCE> 39
 2.206520e+01 3.325971e+01 2.818583e+01 2.447052e+01 2.457967e+01 2.933633e+01 3.689479e+01 3.202924e+01 4.109170e+01 5.284924e+01 6.466329e+01 7.432066e+01 6.658393e-03 5.793546e-01 8.392593e-01 1.285081e+00 1.779099e+00 1.511575e+00 1.601147e+00 1.901201e+00 1.703932e+00 1.740905e+00 1.826182e+00 1.974814e+00 2.009832e+00 1.263026e-04 1.105321e-01 1.546415e-01 2.504468e-01 2.524447e-01 3.025138e-01 3.751400e-01 3.635823e-01 3.517178e-01 3.108650e-01 3.800804e-01 3.570319e-01 3.751492e-01 2.435038e-05
<GCONST> 7.950775e+01
<TRANSP> 5
 0.000000e+00 1.000000e+00 0.000000e+00 0.000000e+00 0.000000e+00
 0.000000e+00 8.276201e-01 1.723799e-01 0.000000e+00 0.000000e+00
 0.000000e+00 0.000000e+00 9.059881e-01 9.401188e-02 0.000000e+00
 0.000000e+00 0.000000e+00 0.000000e+00 7.952976e-01 2.047023e-01
 0.000000e+00 0.000000e+00 0.000000e+00 0.000000e+00 0.000000e+00
<ENDHMM>
~h "#u"
<BEGINHMM>
<NUMSTATES> 5
<STATE> 2
<NUMMIXES> 2
<MIXTURE> 1 5.804130e-01
<MEAN> 39
 8.742783e+00 -3.753395e+00 -9.706281e+00 4.049674e-01 3.410008e+00 -4.164688e+00 -4.225928e+00 2.898857e-01 1.989781e+00 1.524166e+00 -3.503309e+00 -3.770535e+00 8.676543e-01 8.980787e-01 9.004470e-01 -4.267356e-01 -7.617726e-01 5.877326e-01 1.278163e+00 -2.278485e-01 -1.213344e+00 1.279038e-01 1.412104e+00 8.428710e-01 -3.258439e-01 -5.353754e-03 -1.559735e-01 1.907606e-02 3.341553e-01 -9.094410e-02 -3.987505e-01 1.529078e-01 4.763938e-01 -4.762595e-02 -4.814670e-01 -1.654118e-01 3.359766e-01 3.057688e-01 -1.648064e-03
<VARIANCE> 39
 1.958730e+01 3.218426e+01 2.974156e+01 2.813077e+01 2.688858e+01 3.650982e+01 3.231452e+01 4.474018e+01 3.175150e+01 4.024959e+01 4.207468e+01 3.781591e+01 6.434200e-03 5.262469e-01 8.358439e-01 1.393425e+00 1.638630e+00 2.404582e+00 2.157316e+00 3.126927e+00 2.824803e+00 3.301639e+00 2.623418e+00 3.041261e+00 3.177187e+00 2.794494e-04 6.454624e-02 1.162823e-01 2.026380e-01 3.077020e-01 3.245783e-01 4.774729e-01 4.408938e-01 6.271193e-01 4.470967e-01 5.824441e-01 5.080057e-01 4.493681e-01 3.608355e-05
<GCONST> 8.470181e+01
<MIXTURE> 2 4.195803e-01
<MEAN> 39
 3.454442e+00 -5.658041e+00 -3.020532e+00 -6.725646e-01 -5.368612e+00 -5.226272e+00 5.454066e-02 -8.684598e-01 -3.753802e+00 -2.844736e+00 -1.833232e+00 -8.148394e-01 9.038782e-01 1.278406e+00 -2.564546e-01 -1.140892e+00 1.055021e+00 5.925844e-01 -1.039402e+00 -3.132589e-01 1.003411e+00 3.076449e-01 -3.121901e-01 -4.204535e-01 -3.565106e-01 -6.110089e-03 8.566160e-02 3.444487e-01 -1.423694e-01 -1.559683e-01 5.556760e-01 1.856740e-01 -4.048573e-01 -1.250342e-01 4.592001e-01 2.690240e-01 -6.087543e-03 -2.654696e-02 -1.575892e-03
<VARIANCE> 39
 2.986461e+01 4.334695e+01 4.758666e+01 5.315204e+01 4.433251e+01 5.277710e+01 5.704494e+01 6.307154e+01 3.638922e+01 4.425786e+01 4.900341e+01 5.832364e+01 4.454697e-03 9.794599e-01 2.327153e+00 2.585029e+00 4.463323e+00 4.856037e+00 3.658201e+00 5.450182e+00 4.102117e+00 4.295436e+00 3.202348e+00 3.060250e+00 3.949623e+00 1.302245e-04 9.949504e-02 2.617706e-01 4.303999e-01 8.141379e-01 6.464149e-01 1.092111e+00 8.117535e-01 1.094330e+00 6.024464e-01 6.904727e-01 5.643098e-01 6.483406e-01 1.609543e-05
<GCONST> 9.989149e+01
<STATE> 3
<NUMMIXES> 2
<MIXTURE> 1 5.687668e-01
<MEAN> 39
 1.043609e+01 2.391910e+00 -7.567820e+00 -1.933169e+00 2.213484e+00 1.022840e+00 -4.328004e-01 -8.122813e-01 -3.208550e-01 3.507161e+00 2.860343e+00 5.039889e-01 8.106071e-01 1.604709e-01 3.130193e-01 2.160710e-01 -5.626321e-02 4.134826e-02 3.647296e-01 2.643415e-01 -4.465612e-03 8.581389e-03 8.972590e-02 3.272326e-01 2.997408e-01 -8.397209e-03 -5.211860e-02 -5.743294e-02 3.297151e-02 1.877014e-02 -2.664276e-03 -4.018718e-02 -5.502250e-02 1.672032e-02 2.049507e-02 -3.453699e-02 -1.059961e-01 -8.319129e-02 -7.760501e-04
<VARIANCE> 39
 2.242324e+01 2.565089e+01 2.840867e+01 1.915678e+01 2.301075e+01 1.899123e+01 2.074979e+01 2.071898e+01 2.453343e+01 2.565093e+01 2.423640e+01 2.452292e+01 1.276877e-02 1.930805e-01 4.089575e-01 5.748484e-01 6.163995e-01 6.463436e-01 8.278552e-01 9.706853e-01 1.015748e+00 1.126354e+00 1.105703e+00 1.260214e+00 1.151939e+00 1.310136e-04 2.713575e-02 5.605218e-02 8.844831e-02 1.031567e-01 1.080215e-01 1.465818e-01 1.695986e-01 1.882679e-01 1.882681e-01 2.024454e-01 2.074793e-01 1.760290e-01 1.430177e-05
<GCONST> 5.587514e+01
<MIXTURE> 2 4.312188e-01
<MEAN> 39
 1.157229e+01 3.983680e-01 -7.303249e+00 -2.826190e+00 8.803145e-01 1.122179e+00 -1.305535e+00 -2.478015e+00 -1.985628e+00 2.105479e+00 9.838740e-01 -1.813277e+00 8.222550e-01 -4.043242e-02 -8.137676e-02 1.412728e-01 3.471594e-01 1.441466e-01 -1.064032e-01 -2.827703e-01 1.493003e-01 3.614552e-01 1.683764e-01 -1.217904e-01 -2.700325e-01 -4.607528e-03 -9.389659e-02 -7.378902e-02 6.517623e-02 1.978218e-01 5.741381e-02 -2.364534e-01 -9.566951e-02 2.246393e-01 2.523443e-01 -2.753458e-02 -1.423618e-01 -1.711203e-02 -1.316175e-03
<VARIANCE> 39
 2.004691e+01 3.090796e+01 2.823752e+01 2.008482e+01 2.822135e+01 2.763446e+01 2.513197e+01 2.901220e+01 3.127229e+01 3.599457e+01 4.115894e+01 5.182133e+01 1.029689e-02 3.550727e-01 7.317657e-01 1.130521e+00 1.261214e+00 1.339657e+00 1.460619e+00 1.996503e+00 1.992803e+00 2.302145e+00 2.182515e+00 2.136759e+00 2.369995e+00 2.225275e-04 5.867077e-02 1.151076e-01 1.807345e-01 2.031299e-01 2.366935e-01 3.512969e-01 3.361547e-01 4.351195e-01 3.676820e-01 4.028931e-01 4.426168e-01 4.324242e-01 1.916769e-05
<GCONST> 7.656155e+01
<STATE> 4
<NUMMIXES> 2
<MIXTURE> 1 5.618741e-01
<MEAN> 39
 1.148907e+01 -8.190559e-01 -6.703918e+00 2.826354e+00 4.863362e+00 -3.060108e+00 -4.789414e+00 2.190462e+00 5.481731e+00 5.119882e+00 -1.389877e+00 -3.238676e+00 7.708583e-01 -9.976039e-01 -5.828382e-01 1.536862e+00 1.366129e+00 -8.494468e-01 -2.011351e+00 6.007304e-01 2.293107e+00 6.303165e-01 -1.389432e+00 -8.188455e-01 5.241511e-01 -8.017653e-03 -3.307855e-01 1.346506e-01 6.688397e-01 -2.888411e-01 -6.825205e-01 1.681001e-01 7.972227e-01 -1.429960e-01 -7.254990e-01 -3.684134e-01 3.869199e-01 3.483637e-01 -1.467625e-03
<VARIANCE> 39
 1.306436e+01 3.372364e+01 3.105946e+01 2.447661e+01 2.110725e+01 4.624150e+01 3.218555e+01 4.044364e+01 3.419364e+01 4.124102e+01 4.244825e+01 4.078908e+01 1.257531e-02 6.077814e-01 1.109982e+00 2.613871e+00 1.845944e+00 3.820310e+00 3.426012e+00 4.459486e+00 3.212584e+00 4.186666e+00 3.725945e+00 3.297724e+00 3.617850e+00 3.446452e-04 1.080053e-01 2.589889e-01 3.652835e-01 4.871390e-01 4.565741e-01 8.905026e-01 5.328889e-01 1.011274e+00 5.629933e-01 7.874077e-01 6.410162e-01 5.524964e-01 4.307272e-05
<GCONST> 9.372823e+01
<MIXTURE> 2 4.381224e-01
<MEAN> 39
 6.450298e+00 -2.412205e+00 3.852089e+00 3.497700e+00 -5.243307e+00 -7.844995e+00 3.769998e+00 5.733123e+00 6.955198e-01 2.120749e-02 1.424791e-01 -4.352598e-01 7.862201e-01 -1.717822e+00 1.248112e+00 3.091441e+00 -1.396054e+00 -1.704266e+00 1.551565e+00 1.274826e+00 -1.644614e+00 -8.479283e-01 1.383487e-01 6.355039e-01 1.292023e-01 -1.236197e-02 -7.929114e-02 6.107621e-01 -4.685532e-01 -3.585024e-01 1.009200e+00 9.396976e-01 -8.956833e-01 -7.373643e-01 4.196338e-01 3.684374e-01 -1.452646e-01 -2.186492e-01 -6.968459e-03
<VARIANCE> 39
 1.817382e+01 3.289973e+01 6.114255e+01 3.895475e+01 3.726989e+01 5.196223e+01 4.941191e+01 5.244141e+01 3.401503e+01 3.924412e+01 4.251397e+01 4.415282e+01 1.068235e-02 1.393798e+00 3.327193e+00 4.332494e+00 4.222730e+00 5.451625e+00 5.336251e+00 6.185841e+00 4.893906e+00 4.466017e+00 3.852457e+00 3.978016e+00 2.932402e+00 3.840014e-04 3.006195e-01 4.238826e-01 1.113746e+00 9.367663e-01 8.822002e-01 1.113483e+00 8.892866e-01 1.448628e+00 7.132288e-01 8.824468e-01 7.245649e-01 6.507390e-01 1.123969e-04
<GCONST> 1.080375e+02
<TRANSP> 5
 0.000000e+00 1.000000e+00 0.000000e+00 0.000000e+00 0.000000e+00
 0.000000e+00 8.188282e-01 1.811718e-01 0.000000e+00 0.000000e+00
 0.000000e+00 0.000000e+00 9.190806e-01 8.091938e-02 0.000000e+00
 0.000000e+00 0.000000e+00 0.000000e+00 7.544209e-01 2.455792e-01
 0.000000e+00 0.000000e+00 0.000000e+00 0.000000e+00 0.000000e+00
<ENDHMM>
~h "ba"
<BEGINHMM>
<NUMSTATES> 5
<STATE> 2
<NUMMIXES> 2
<MIXTURE> 1 6.234397e-01
<MEAN> 39
 -1.506534e+00 -9.414528e-02 2.167768e+00 1.438227e+00 3.654283e+00 4.113341e+00 3.822161e+00 4.663117e+00 3.986279e+00 2.246564e+00 2.353971e+00 5.897351e-01 1.355244e-01 -1.190045e-01 -1.035967e+00 -3.982698e-01 3.254616e-02 1.911143e-01 4.114355e-01 6.130286e-01 5.081354e-01 3.484370e-01 5.064443e-01 3.649702e-01 3.628255e-01 3.552500e-02 5.185986e-01 -2.141852e-01 -1.112754e-01 1.861380e-01 2.157686e-02 -2.904997e-01 -2.287179e-01 -3.923805e-01 -5.258468e-01 -1.154138e-01 -1.438308e-01 1.162486e-01 5.134572e-02
<VARIANCE> 39
 1.289425e+01 5.195350e+01 2.563152e+01 3.344497e+01 3.339869e+01 3.545745e+01 3.549719e+01 3.825542e+01 3.158487e+01 3.380361e+01 3.211315e+01 2.433493e+01 4.106915e-02 2.535956e+00 4.057719e+00 2.530143e+00 2.393706e+00 2.597041e+00 3.038493e+00 3.042940e+00 4.105672e+00 4.134927e+00 3.547787e+00 2.870287e+00 2.461477e+00 1.552406e-02 3.151031e-01 7.394765e-01 5.266250e-01 4.371417e-01 5.373424e-01 5.525870e-01 5.694945e-01 8.307796e-01 8.054449e-01 6.784647e-01 5.986885e-01 4.732177e-01 1.201082e-03
<GCONST> 1.053913e+02
<MIXTURE> 2 3.765547e-01
<MEAN> 39
 4.220562e+00 -6.667440e+00 -2.931639e+00 2.939464e+00 5.357445e+00 3.096557e+00 4.517417e+00 4.380745e+00 -1.036467e+00 1.796353e+00 3.359749e+00 3.925207e+00 8.136129e-01 1.861877e-01 -3.699218e+00 -2.198342e+00 1.107125e+00 7.482224e-01 -9.364599e-01 -5.271362e-01 -1.409705e+00 -2.573429e+00 7.861237e-02 -6.235544e-02 6.170660e-01 1.554809e-01 -8.140863e-01 5.132073e-02 3.880174e-01 1.351076e-01 -2.003112e-01 -3.949579e-01 -5.263869e-01 -6.147084e-01 -8.738602e-03 -9.213156e-02 -3.274401e-01 -4.425444e-01 -4.111746e-02
<VARIANCE> 39
 1.148303e+01 4.165882e+01 3.681321e+01 2.334261e+01 2.447992e+01 3.023654e+01 2.512930e+01 2.817975e+01 5.394407e+01 6.508315e+01 3.309461e+01 2.353788e+01 1.114142e-02 2.528292e+00 3.687407e+00 3.393691e+00 2.521243e+00 3.005398e+00 4.177336e+00 3.943587e+00 5.971577e+00 6.166172e+00 4.739814e+00 4.297678e+00 3.672709e+00 5.255530e-03 2.805260e-01 7.036409e-01 6.396456e-01 3.938203e-01 4.812262e-01 5.658110e-01 5.714729e-01 7.024537e-01 1.039091e+00 1.179765e+00 9.306014e-01 5.900787e-01 6.292493e-04
<GCONST> 1.060701e+02
<STATE> 3
<NUMMIXES> 2
<MIXTURE> 1 6.513836e-01
<MEAN> 39
 -2.504283e+00 -1.446639e+01 -2.973356e+00 6.234442e+00 4.328164e+00 -2.276071e+00 -9.111140e-01 -3.400565e+00 -4.814491e+00 1.074398e+00 2.954109e-02 1.280491e+00 9.514017e-01 -9.649063e-01 -3.910075e-01 7.866151e-01 5.560942e-01 -5.523838e-01 -9.255668e-01 -6.564124e-01 -7.982076e-01 -5.689337e-02 -2.672899e-01 -3.760050e-01 -6.162325e-01 7.874222e-03 3.813419e-01 5.656189e-01 2.284692e-01 -1.474132e-01 -5.535776e-02 3.065495e-01 3.829040e-01 4.685592e-01 4.113365e-01 1.416707e-01 2.240887e-01 1.270800e-01 -1.240020e-02
<VARIANCE> 39
 1.308767e+01 2.945045e+01 4.218930e+01 2.454287e+01 2.583647e+01 2.765859e+01 2.454063e+01 2.825742e+01 5.140124e+01 2.630948e+01 3.546701e+01 3.353605e+01 1.846377e-03 4.865809e-01 5.208957e-01 9.014230e-01 1.060886e+00 1.583455e+00 1.341928e+00 1.499512e+00 2.034600e+00 1.683369e+00 3.260423e+00 2.059173e+00 1.363507e+00 1.347249e-04 1.172010e-01 1.481953e-01 2.239016e-01 2.027135e-01 2.652149e-01 3.087168e-01 3.150848e-01 3.349352e-01 3.966781e-01 3.802754e-01 4.880684e-01 3.732544e-01 1.022453e-04
<GCONST> 7.527921e+01
<MIXTURE> 2 3.486140e-01
<MEAN> 39
 2.144699e-01 -1.402647e+01 -2.208529e+00 5.421562e+00 5.798807e+00 1.541630e+00 1.964466e+00 -2.232487e+00 -1.860836e+00 5.716207e+00 1.902796e+00 3.781455e+00 9.224988e-01 -2.233034e+00 -2.468421e+00 2.167435e-01 7.888088e-01 -6.179947e-01 -1.876213e+00 -1.915429e+00 -2.259578e+00 -8.803042e-01 -1.017414e+00 -1.818917e+00 -9.076585e-01 4.496506e-02 -2.975222e-01 1.201506e+00 7.766165e-01 -1.659014e-01 -3.412184e-01 -6.411436e-03 -7.628661e-03 4.992447e-01 4.913199e-01 -5.244315e-01 -1.279075e-01 -4.102071e-01 -4.599114e-02
<VARIANCE> 39
 1.308814e+01 2.884925e+01 2.870932e+01 2.534517e+01 1.767435e+01 3.111017e+01 2.409646e+01 3.442077e+01 7.018347e+01 4.184563e+01 2.755723e+01 2.988236e+01 2.652666e-03 1.002758e+00 2.042120e+00 1.774697e+00 1.709420e+00 2.392293e+00 2.334269e+00 2.529453e+00 3.169516e+00 3.176836e+00 4.441534e+00 5.038354e+00 4.817107e+00 1.086115e-03 2.926087e-01 3.123853e-01 3.299980e-01 3.660905e-01 3.104044e-01 5.677807e-01 5.451753e-01 7.901559e-01 1.097831e+00 7.726117e-01 5.416619e-01 5.100746e-01 3.059338e-04
<GCONST> 9.400955e+01
<STATE> 4
<NUMMIXES> 2
<MIXTURE> 1 5.816744e-01
<MEAN> 39
 -2.223189e+00 -1.241489e+01 -1.370755e+00 6.749274e+00 2.994996e+00 -3.355501e+00 -4.267937e-01 -3.149539e+00 -4.788048e+00 3.379436e-01 -1.181823e-02 -2.030227e-01 9.289930e-01 1.357129e-01 1.709822e-01 2.478932e-01 1.085594e-01 -9.630710e-02 1.196377e-01 5.414251e-02 6.934382e-03 1.178673e-01 3.819856e-02 -3.898046e-02 2.167884e-02 -4.351583e-03 7.873465e-02 7.170404e-02 -1.326753e-02 -5.310892e-02 3.365950e-02 1.246297e-01 5.127604e-02 4.637840e-02 1.018964e-02 -4.273448e-04 5.584282e-03 5.658932e-02 -1.054140e-03
<VARIANCE> 39
 1.196635e+01 3.291354e+01 3.216647e+01 2.479618e+01 3.346445e+01 2.082926e+01 2.043822e+01 2.282650e+01 2.529383e+01 2.366843e+01 2.630561e+01 1.894785e+01 3.507821e-03 1.473339e-01 1.736947e-01 2.734136e-01 3.628681e-01 3.945974e-01 5.124215e-01 4.683915e-01 5.364301e-01 5.453989e-01 5.134439e-01 4.553747e-01 4.111620e-01 4.776108e-05 2.224301e-02 2.912313e-02 4.464050e-02 6.306274e-02 7.786959e-02 8.036495e-02 8.078058e-02 9.189248e-02 9.412638e-02 1.004802e-01 8.065449e-02 7.198171e-02 4.981727e-06
<GCONST> 3.691576e+01
<MIXTURE> 2 4.183182e-01
<MEAN> 39
 -3.792665e+00 -1.310379e+01 3.444985e+00 6.311173e+00 -1.214991e-01 -2.206772e+00 -1.497369e+00 -4.374304e+00 -1.428018e+00 -1.951547e-01 -1.765786e+00 8.282062e-01 9.146780e-01 7.738658e-02 3.099319e-01 -1.158856e-01 -5.976990e-01 -2.328853e-01 1.694986e-01 -2.863486e-01 -3.419255e-01 -1.462039e-01 -3.613715e-01 -8.691069e-03 -1.040802e-01 -5.028962e-03 9.114639e-02 8.916798e-02 -1.385444e-01 -2.077878e-01 3.027000e-03 2.753584e-02 -2.713324e-02 -5.163960e-02 -1.801229e-02 -2.797881e-02 1.712593e-02 -1.466960e-02 -1.315552e-03
<VARIANCE> 39
 1.598552e+01 3.538874e+01 3.835794e+01 2.600662e+01 2.811247e+01 2.986255e+01 3.044181e+01 3.322168e+01 3.682382e+01 2.892678e+01 3.830918e+01 4.466838e+01 4.562784e-03 3.763005e-01 6.986745e-01 1.095567e+00 1.368245e+00 1.593989e+00 1.769728e+00 1.757034e+00 1.573281e+00 1.351253e+00 1.372815e+00 1.404586e+00 1.153449e+00 5.150482e-05 6.831235e-02 1.226851e-01 1.659433e-01 1.941251e-01 2.306920e-01 2.685576e-01 2.918146e-01 2.660700e-01 2.696915e-01 2.563132e-01 2.361950e-01 1.963597e-01 6.295392e-06
<GCONST> 6.867517e+01
<TRANSP> 5
 0.000000e+00 1.000000e+00 0.000000e+00 0.000000e+00 0.000000e+00
 0.000000e+00 8.211407e-01 1.788593e-01 0.000000e+00 0.000000e+00
 0.000000e+00 0.000000e+00 7.345089e-01 2.654911e-01 0.000000e+00
 0.000000e+00 0.000000e+00 0.000000e+00 9.268677e-01 7.313227e-02
 0.000000e+00 0.000000e+00 0.000000e+00 0.000000e+00 0.000000e+00
<ENDHMM>
~h "qi"
<BEGINHMM>
<NUMSTATES> 5
<STATE> 2
<NUMMIXES> 2
<MIXTURE> 1 7.938284e-01
<MEAN> 39
 -1.158418e+01 7.786293e-02 -1.758333e+00 7.657139e+00 4.499422e+00 7.522406e+00 6.045134e+00 6.014478e+00 4.336603e+00 3.984893e+00 3.547908e+00 1.857217e+00 3.754624e-01 -7.059201e-01 4.096109e-01 -4.680184e-01 6.168593e-03 2.830273e-01 3.687083e-02 2.579082e-01 1.544780e-01 1.219850e-01 -5.930220e-02 7.305427e-02 -8.188592e-02 2.096676e-02 3.681473e-01 1.205195e-01 1.959256e-01 -1.539822e-01 -1.065687e-01 -1.958349e-01 -1.993121e-01 -1.806426e-01 -9.299408e-02 -1.148001e-01 -5.828737e-02 -2.976453e-02 3.991088e-03
<VARIANCE> 39
 2.317362e+01 3.346000e+01 3.001042e+01 2.173910e+01 2.364693e+01 2.775749e+01 2.606204e+01 3.166184e+01 2.629402e+01 2.839646e+01 3.130171e+01 2.901681e+01 2.597516e-02 1.457500e+00 1.379540e+00 1.388809e+00 1.635948e+00 1.647604e+00 1.803087e+00 2.082428e+00 2.181430e+00 2.287570e+00 2.274171e+00 1.984512e+00 1.890049e+00 9.796872e-04 1.945641e-01 3.339381e-01 2.654413e-01 3.001707e-01 3.518169e-01 4.102637e-01 4.769965e-01 4.723934e-01 4.945811e-01 4.940764e-01 4.405048e-01 4.085184e-01 3.421180e-04
<GCONST> 8.816052e+01
<MIXTURE> 2 2.061672e-01
<MEAN> 39
 -1.227637e+01 3.078606e+00 -2.777380e+00 6.418246e+00 5.265401e+00 6.422584e+00 6.210644e+00 5.655856e+00 4.537766e+00 2.656324e+00 3.668094e+00 1.018637e+00 4.664505e-01 2.272198e+00 2.055031e+00 8.491890e-01 -1.408762e+00 -1.885951e+00 -2.530720e+00 -2.391736e+00 -1.534298e+00 -6.654992e-01 -6.235194e-01 -1.812157e-01 -1.169465e-01 6.370784e-02 8.446307e-01 5.060969e-01 1.326261e-01 -7.647480e-01 -9.003703e-01 -9.297576e-01 -8.906413e-01 -4.550023e-01 -2.542228e-01 -2.378897e-01 -1.241892e-01 -2.648948e-02 2.822578e-02
<VARIANCE> 39
 1.715594e+01 2.608701e+01 2.267994e+01 2.167537e+01 2.036032e+01 3.271609e+01 2.786212e+01 3.987171e+01 3.147004e+01 3.518042e+01 3.619215e+01 3.206961e+01 1.158257e-02 2.006918e+00 1.394020e+00 1.965155e+00 2.593902e+00 3.266247e+00 3.404872e+00 3.254404e+00 2.690049e+00 3.126511e+00 3.377075e+00 3.162371e+00 3.918995e+00 1.844637e-03 1.884334e-01 1.962556e-01 3.407192e-01 3.150550e-01 3.667617e-01 5.290868e-01 5.322092e-01 6.037252e-01 6.493685e-01 5.804353e-01 6.602351e-01 7.916966e-01 1.226078e-04
<GCONST> 9.398058e+01
<STATE> 3
<NUMMIXES> 2
<MIXTURE> 1 5.442873e-01
<MEAN> 39
 -3.703753e-01 1.154285e+01 -1.149511e+00 -5.486553e+00 -6.673849e+00 -7.306371e+00 -6.272978e+00 -6.394640e-01 9.243462e-01 -1.295433e+00 2.031437e+00 7.381285e-01 8.858225e-01 2.049059e-01 3.195775e-01 -4.675565e-01 -1.317613e+00 -4.913045e-01 -7.543637e-01 -6.217426e-01 -2.410554e-01 -6.918693e-01 -8.858795e-01 -5.311998e-01 -1.396009e-01 3.767538e-02 -8.764811e-01 -5.328861e-01 -1.090196e-01 8.785589e-01 9.339628e-01 9.289289e-01 8.561981e-01 3.619066e-01 7.228230e-02 2.033092e-01 2.022109e-02 -1.651246e-02 -2.760633e-02
<VARIANCE> 39
 1.004800e+01 2.728052e+01 2.157472e+01 1.410249e+01 1.738757e+01 2.188741e+01 2.819755e+01 2.683896e+01 2.960844e+01 5.409161e+01 3.650038e+01 7.169526e+01 4.514039e-03 1.308421e+00 8.615170e-01 1.407583e+00 2.101148e+00 2.243018e+00 2.291330e+00 2.579445e+00 2.716721e+00 2.679254e+00 2.955475e+00 5.722269e+00 4.520726e+00 5.222489e-04 1.778391e-01 1.538607e-01 3.111944e-01 2.448539e-01 3.131120e-01 4.273744e-01 3.342012e-01 3.793610e-01 4.188955e-01 5.137750e-01 5.705087e-01 7.485493e-01 5.429451e-05
<GCONST> 8.552263e+01
<MIXTURE> 2 4.557084e-01
<MEAN> 39
 -2.496416e+00 1.107904e+01 6.025577e-01 2.068474e-01 -3.773886e+00 -4.589767e+00 -4.380324e+00 -9.523652e-01 1.653442e+00 2.687978e-01 2.996018e+00 6.211437e-01 7.644799e-01 3.268366e+00 2.287092e+00 4.747195e-01 -3.271021e+00 -3.229162e+00 -3.610317e+00 -3.351539e+00 -1.568860e+00 -8.974083e-01 -1.137176e+00 -4.488785e-01 -3.207316e-01 1.118293e-01 -6.916565e-01 -5.814760e-01 -4.201722e-01 5.428218e-02 4.677213e-01 5.966381e-01 6.079492e-01 4.668311e-01 6.406421e-02 -3.076902e-02 -7.315876e-02 -7.535689e-03 -1.110815e-02
<VARIANCE> 39
 1.800113e+01 2.718899e+01 1.492653e+01 2.642012e+01 2.877742e+01 2.493113e+01 2.494748e+01 3.347292e+01 2.430770e+01 5.177765e+01 4.086099e+01 3.823156e+01 7.940986e-03 1.192629e+00 1.309391e+00 3.523546e+00 1.771740e+00 2.215072e+00 3.574067e+00 2.676837e+00 3.604081e+00 3.706201e+00 4.168361e+00 5.490260e+00 7.190934e+00 6.533073e-04 2.494560e-01 1.775023e-01 1.897575e-01 4.423995e-01 5.213496e-01 4.902685e-01 5.483996e-01 5.145884e-01 5.246823e-01 5.743760e-01 8.802527e-01 6.205888e-01 1.776918e-04
<GCONST> 9.383590e+01
<STATE> 4
<NUMMIXES> 2
<MIXTURE> 1 5.015660e-01
<MEAN> 39
 -8.107875e-02 1.126462e+01 -2.373736e+00 -6.100593e+00 -5.144674e+00 -8.259371e+00 -5.668573e+00 -1.827152e+00 -1.588557e+00 -2.386549e+00 -7.641719e-01 -1.020123e+00 8.764158e-01 2.818764e-01 -2.420759e-01 2.460274e-01 -5.291457e-02 5.017744e-01 1.816723e-01 1.617129e-01 -8.695716e-03 -8.210917e-02 6.912446e-02 -2.493873e-01 -1.260988e-01 -8.528139e-03 7.859573e-02 -7.010414e-02 1.841117e-01 2.336125e-01 1.450482e-01 2.367311e-01 1.281565e-01 7.035512e-02 8.635101e-02 9.929188e-02 6.976216e-02 3.735805e-02 -6.204479e-03
<VARIANCE> 39
 1.608437e+01 2.942445e+01 2.959188e+01 2.372303e+01 2.243735e+01 2.708794e+01 3.954570e+01 2.805021e+01 3.327768e+01 3.562133e+01 5.083671e+01 6.890734e+01 6.012994e-03 5.007017e-01 7.630827e-01 1.142650e+00 1.584585e+00 1.455271e+00 1.664048e+00 1.666943e+00 1.598319e+00 1.616399e+00 1.604428e+00 1.764232e+00 1.972620e+00 2.293766e-04 9.544732e-02 1.194793e-01 1.876131e-01 2.960673e-01 2.783104e-01 3.087788e-01 3.021013e-01 2.937418e-01 2.990698e-01 2.896566e-01 3.587857e-01 3.586264e-01 4.056469e-05
<GCONST> 7.640355e+01
<MIXTURE> 2 4.984236e-01
<MEAN> 39
 -2.029354e-01 1.063413e+01 -1.583549e+00 -5.182636e+00 -4.886525e+00 -6.585195e+00 -5.213274e+00 -1.060480e+00 -1.198834e+00 -3.223217e+00 -2.480070e-01 -1.012078e+00 9.064227e-01 1.018646e-01 1.235162e-02 -8.141743e-02 -9.639244e-02 4.958193e-02 -7.150073e-02 7.778240e-02 -2.312776e-02 -6.702135e-02 1.790278e-02 -6.892977e-02 -4.844524e-02 -3.079114e-03 2.892772e-02 -6.031275e-02 1.520236e-02 -3.500352e-02 -1.068253e-02 -2.679392e-02 -2.450132e-02 -2.196325e-02 5.952572e-03 2.494723e-02 -3.385762e-02 -1.162358e-02 -1.523852e-03
<VARIANCE> 39
 1.060565e+01 2.871278e+01 1.885673e+01 1.281902e+01 1.300345e+01 1.630054e+01 2.928452e+01 1.750362e+01 2.564768e+01 2.597201e+01 4.103851e+01 3.994967e+01 4.592229e-03 1.132355e-01 2.070675e-01 2.916400e-01 3.858379e-01 4.195613e-01 5.041618e-01 5.477948e-01 5.188342e-01 5.132366e-01 5.321964e-01 5.247403e-01 4.580407e-01 3.754082e-05 1.936115e-02 3.815147e-02 5.492957e-02 7.505316e-02 7.813036e-02 9.706450e-02 1.119827e-01 9.978487e-02 1.041264e-01 9.494589e-02 1.037049e-01 8.774824e-02 5.232732e-06
<GCONST> 3.778285e+01
<TRANSP> 5
 0.000000e+00 1.000000e+00 0.000000e+00 0.000000e+00 0.000000e+00
 0.000000e+00 9.172540e-01 8.274604e-02 0.000000e+00 0.000000e+00
 0.000000e+00 0.000000e+00 7.417880e-01 2.582120e-01 0.000000e+00
 0.000000e+00 0.000000e+00 0.000000e+00 9.176143e-01 8.238571e-02
 0.000000e+00 0.000000e+00 0.000000e+00 0.000000e+00 0.000000e+00
<ENDHMM>
~h "sp"
<BEGINHMM>
<NUMSTATES> 3
<STATE> 2
~s "silst"
<TRANSP> 3
 0.000000e+00 7.747626e-01 2.252374e-01
 0.000000e+00 8.304788e-01 1.695212e-01
 0.000000e+00 0.000000e+00 0.000000e+00
<ENDHMM>
~h "sy"
<BEGINHMM>
<NUMSTATES> 5
<STATE> 2
<NUMMIXES> 2
<MIXTURE> 1 6.776733e-01
<MEAN> 39
 -1.072479e+01 -2.538448e+00 2.268727e+00 6.210787e+00 5.497930e+00 7.539339e+00 2.490800e+00 6.421828e+00 2.463079e+00 2.605123e+00 2.901173e+00 1.811812e+00 2.168532e-01 -1.937549e-01 -6.482951e-02 5.343255e-02 1.169207e-01 3.421170e-02 2.340931e-02 -2.626216e-02 -4.946036e-02 -3.213299e-02 -1.175052e-02 2.440585e-02 8.701188e-03 1.087571e-03 1.755630e-01 9.886581e-02 6.249718e-02 -4.433388e-02 -4.921189e-02 -6.243179e-02 -6.883122e-02 -7.660713e-02 -3.140433e-02 -2.331607e-02 -3.811147e-03 -6.146432e-04 5.503278e-03
<VARIANCE> 39
 1.950257e+01 2.341654e+01 2.372144e+01 2.259695e+01 2.506813e+01 2.329637e+01 3.099465e+01 3.159080e+01 3.089491e+01 2.777553e+01 2.678671e+01 2.226566e+01 1.928508e-02 3.254032e-01 5.883163e-01 8.026193e-01 1.148670e+00 1.396695e+00 1.588280e+00 1.791479e+00 1.978269e+00 1.883136e+00 1.945799e+00 1.853795e+00 1.609654e+00 3.481915e-04 8.673432e-02 1.405726e-01 1.844549e-01 2.481366e-01 3.233506e-01 3.534362e-01 3.964102e-01 4.626905e-01 4.265408e-01 4.455398e-01 4.171865e-01 3.485849e-01 1.365764e-04
<GCONST> 7.745252e+01
<MIXTURE> 2 3.223235e-01
<MEAN> 39
 -1.100209e+01 -2.649827e+00 2.449527e+00 6.263815e+00 5.478819e+00 8.178988e+00 2.305256e+00 5.973492e+00 3.189762e+00 2.715424e+00 3.443180e+00 2.256231e+00 2.699561e-01 7.554733e-01 2.890245e-01 -1.729262e-01 -9.365711e-01 -1.384343e+00 -1.183338e+00 -7.546326e-01 -5.743885e-01 7.426827e-02 1.307387e-01 1.344020e-01 1.902542e-01 2.989611e-02 9.038536e-01 3.304533e-01 8.085217e-02 -5.854876e-01 -9.611521e-01 -8.390693e-01 -3.846695e-01 -6.290588e-01 -1.908699e-01 -1.891192e-01 -2.899380e-01 -1.747316e-01 3.456163e-02
<VARIANCE> 39
 1.519929e+01 2.449677e+01 2.443102e+01 2.226370e+01 2.564074e+01 2.742534e+01 3.040260e+01 3.480474e+01 2.974357e+01 2.895345e+01 2.870768e+01 2.176457e+01 1.607406e-02 4.910338e+00 2.771365e+00 1.830864e+00 2.820585e+00 4.528737e+00 4.320434e+00 3.745235e+00 4.532158e+00 3.950244e+00 3.182979e+00 3.810716e+00 3.079345e+00 8.217993e-03 1.440542e-01 2.383345e-01 2.826531e-01 4.736532e-01 4.960771e-01 5.362747e-01 6.026886e-01 6.105172e-01 6.617370e-01 6.503531e-01 7.029427e-01 5.920745e-01 1.795210e-04
<GCONST> 9.868019e+01
<STATE> 3
<NUMMIXES> 2
<MIXTURE> 1 5.824097e-01
<MEAN> 39
 2.039061e+00 1.404533e-02 2.712439e+00 -4.270761e+00 -1.096913e+01 -4.752937e+00 -1.868879e+00 -3.954785e+00 2.015476e+00 1.306541e+00 4.350616e-01 1.216375e+00 8.160362e-01 5.835139e-01 -7.639730e-01 -2.444709e-01 -1.383281e+00 -1.388635e+00 -4.979264e-01 5.743074e-01 -1.394913e+00 1.596409e-01 -7.038754e-01 -4.363241e-01 1.293676e-01 5.656627e-02 -9.340788e-01 -1.218443e-01 1.580089e-02 6.493816e-01 1.156034e+00 9.189324e-01 2.846069e-01 5.668300e-01 2.158596e-02 -5.552507e-02 1.494980e-01 6.864254e-02 -3.064746e-02
<VARIANCE> 39
 9.989331e+00 2.003282e+01 1.563062e+01 3.120752e+01 2.052730e+01 3.456152e+01 3.691145e+01 5.861953e+01 5.714360e+01 5.086737e+01 1.006212e+02 6.471832e+01 7.994726e-03 1.461006e+00 1.017597e+00 1.388073e+00 2.831681e+00 3.057271e+00 2.998156e+00 4.083392e+00 3.516647e+00 3.412037e+00 8.157147e+00 5.971889e+00 5.569410e+00 9.511569e-04 1.574703e-01 2.093287e-01 2.152916e-01 4.095106e-01 3.321147e-01 4.407858e-01 5.881113e-01 5.711991e-01 7.714664e-01 8.233165e-01 8.698332e-01 9.080532e-01 9.296057e-05
<GCONST> 9.702900e+01
<MIXTURE> 2 4.175858e-01
<MEAN> 39
 -1.437138e+00 3.111438e+00 3.611419e+00 6.299096e-01 -5.647818e+00 -2.554755e+00 -4.700113e+00 -1.140091e+00 3.557482e-02 1.365131e+00 1.496799e+00 1.404361e+00 6.614373e-01 3.797561e+00 7.836749e-01 8.654847e-02 -2.657911e+00 -4.529122e+00 -3.567753e+00 -7.930279e-01 -2.582817e+00 -4.958328e-01 -3.566886e-01 -1.388950e+00 -6.757708e-01 1.458891e-01 -5.284857e-01 -7.098913e-01 -2.056283e-01 8.497253e-03 3.205173e-01 5.165679e-01 7.690374e-01 1.212299e-01 2.674316e-01 -3.248026e-02 -1.302362e-01 -3.884790e-03 -1.475737e-02
<VARIANCE> 39
 2.142105e+01 2.078651e+01 1.527147e+01 2.389505e+01 3.613160e+01 2.931762e+01 2.579973e+01 4.414779e+01 3.584952e+01 5.057336e+01 6.633985e+01 4.024175e+01 1.239324e-02 1.099049e+00 1.592641e+00 2.197663e+00 4.233529e+00 2.092781e+00 3.213033e+00 5.361651e+00 4.255904e+00 5.646345e+00 5.865247e+00 5.914356e+00 5.372835e+00 9.037139e-04 3.231623e-01 1.461001e-01 2.499408e-01 3.439129e-01 6.295799e-01 6.348948e-01 4.618314e-01 6.022486e-01 6.108247e-01 1.212344e+00 7.524903e-01 8.088745e-01 2.643748e-04
<GCONST> 9.971542e+01
<STATE> 4
<NUMMIXES> 2
<MIXTURE> 1 5.614697e-01
<MEAN> 39
 3.424782e+00 1.379613e+00 2.693864e+00 -4.161679e+00 -1.054227e+01 -3.840698e+00 3.165351e+00 -4.921677e+00 3.492488e+00 2.561859e+00 -4.673709e+00 -4.890921e-01 8.706658e-01 2.003933e-01 2.936560e-01 1.682838e-01 -3.826395e-02 4.942354e-01 6.627393e-01 2.977051e-01 3.974154e-01 5.719476e-01 1.960595e-01 1.778069e-01 3.992745e-01 -7.930213e-03 -4.840836e-03 5.554542e-02 2.714175e-02 8.663666e-02 1.527826e-01 9.272421e-02 -1.170958e-01 4.620554e-02 -8.830496e-02 -1.413139e-01 4.918145e-02 -3.000993e-02 -5.095704e-03
<VARIANCE> 39
 1.042616e+01 1.795488e+01 1.652765e+01 2.703121e+01 1.973949e+01 3.377322e+01 2.735103e+01 3.672779e+01 5.183733e+01 5.176357e+01 3.037701e+01 3.327741e+01 7.095952e-03 3.228703e-01 4.399378e-01 6.087732e-01 7.668210e-01 8.222142e-01 1.050078e+00 1.176304e+00 1.152922e+00 1.522711e+00 1.374335e+00 1.299659e+00 1.373932e+00 2.957990e-04 5.741651e-02 7.568654e-02 1.058167e-01 1.363212e-01 1.445045e-01 2.081336e-01 2.130788e-01 2.239542e-01 2.866279e-01 2.848440e-01 2.416242e-01 2.285656e-01 2.313130e-05
<GCONST> 6.462808e+01
<MIXTURE> 2 4.385222e-01
<MEAN> 39
 1.377054e-01 -5.711983e-01 1.426311e+00 -9.760364e+00 -9.067581e+00 -5.152559e-01 -4.128870e+00 -2.475381e+00 3.484719e+00 -6.510655e+00 2.135824e+00 -5.265818e-01 8.910761e-01 8.421834e-02 1.166867e-01 -1.996378e-01 -3.327208e-01 2.182493e-01 7.554262e-02 1.636312e-01 1.835468e-01 -2.075419e-01 -6.084410e-01 -7.740078e-01 -1.119789e+00 3.623444e-03 7.017520e-02 1.372550e-01 5.304686e-02 2.426424e-01 1.547849e-01 -2.230654e-02 4.795419e-02 1.391792e-01 -2.321347e-02 2.897127e-01 6.180078e-02 5.386214e-02 -6.109590e-03
<VARIANCE> 39
 1.288757e+01 2.478962e+01 2.102577e+01 2.445841e+01 2.971015e+01 3.952668e+01 3.849033e+01 5.687348e+01 4.906427e+01 5.549983e+01 9.365891e+01 1.076342e+02 5.197845e-03 4.540570e-01 9.617211e-01 1.103520e+00 1.335629e+00 1.686281e+00 2.468987e+00 2.233260e+00 2.425780e+00 2.673176e+00 2.862034e+00 3.257198e+00 4.191223e+00 2.780530e-04 8.521478e-02 1.494602e-01 2.120542e-01 2.823273e-01 3.453551e-01 4.786277e-01 4.159628e-01 5.240678e-01 4.593059e-01 4.779312e-01 5.857897e-01 7.731991e-01 3.352907e-05
<GCONST> 8.633732e+01
<TRANSP> 5
 0.000000e+00 1.000000e+00 0.000000e+00 0.000000e+00 0.000000e+00
 0.000000e+00 9.222263e-01 7.777369e-02 0.000000e+00 0.000000e+00
 0.000000e+00 0.000000e+00 7.550249e-01 2.449751e-01 0.000000e+00
 0.000000e+00 0.000000e+00 0.000000e+00 9.037117e-01 9.628826e-02
 0.000000e+00 0.000000e+00 0.000000e+00 0.000000e+00 0.000000e+00
<ENDHMM>
~h "jiou"
<BEGINHMM>
<NUMSTATES> 5
<STATE> 2
<NUMMIXES> 2
<MIXTURE> 1 6.258436e-01
<MEAN> 39
 -1.186118e+01 3.993763e+00 -7.211050e-01 7.094871e+00 1.846120e+00 6.300584e+00 3.012461e+00 5.264703e+00 3.945825e+00 4.077517e+00 4.141988e+00 1.869731e+00 2.899593e-01 -1.681633e+00 1.689020e+00 -9.772436e-01 -1.488847e-01 4.070941e-01 -2.890761e-01 2.775821e-01 4.864658e-01 4.279450e-01 7.879813e-02 2.858958e-01 -1.274673e-02 3.917924e-02 1.076327e+00 4.524629e-01 5.657935e-01 -1.033695e+00 -2.778121e-01 -8.146264e-01 -5.817448e-01 -5.497633e-01 -2.776000e-01 -4.071160e-01 -3.662744e-01 -1.917368e-01 3.197135e-02
<VARIANCE> 39
 3.078133e+01 4.685890e+01 3.044208e+01 2.622880e+01 2.727042e+01 2.646274e+01 2.807764e+01 3.697786e+01 2.350635e+01 2.639378e+01 2.875191e+01 2.362207e+01 2.379979e-02 4.114739e+00 3.859205e+00 3.139628e+00 4.467780e+00 2.869041e+00 4.364214e+00 3.726865e+00 4.117062e+00 3.039282e+00 3.070067e+00 3.118941e+00 2.645135e+00 4.765625e-03 7.093726e-01 8.339213e-01 7.005973e-01 1.007624e+00 7.128308e-01 7.873847e-01 6.493034e-01 6.448641e-01 5.851604e-01 5.705985e-01 6.395705e-01 5.719206e-01 7.156119e-04
<GCONST> 1.063690e+02
<MIXTURE> 2 3.741516e-01
<MEAN> 39
 -8.739400e+00 1.275566e+01 8.793558e-01 -1.494541e+00 1.221555e-01 -1.617173e+00 -1.340925e+00 1.963916e+00 3.319561e+00 1.434203e+00 2.573276e+00 7.381180e-01 6.492379e-01 3.492380e+00 8.018747e-01 1.441858e+00 -5.362760e+00 -1.939080e+00 -2.897396e+00 -1.905757e+00 -5.286803e-01 -2.976768e-01 -8.942827e-01 -1.471765e+00 -1.046787e+00 1.220494e-01 3.902587e-01 -1.322809e+00 8.740662e-02 -2.268114e-01 -2.635780e-01 6.604717e-01 3.721034e-01 3.315276e-01 -6.273061e-02 6.321219e-02 -4.051863e-01 -2.546740e-01 -5.969745e-03
<VARIANCE> 39
 4.561994e+01 3.152919e+01 2.993290e+01 6.189643e+01 4.167923e+01 4.493742e+01 3.680712e+01 3.455430e+01 2.325870e+01 2.967248e+01 3.786745e+01 2.899668e+01 2.579407e-02 2.103496e+00 3.524694e+00 4.852829e+00 3.258191e+00 2.838765e+00 5.696177e+00 2.982872e+00 3.243903e+00 2.811439e+00 2.999840e+00 4.254910e+00 3.067734e+00 1.073558e-03 1.065466e+00 4.776926e-01 5.953502e-01 1.433835e+00 1.032950e+00 1.177809e+00 8.741713e-01 6.194063e-01 4.990596e-01 7.345263e-01 9.742057e-01 6.637635e-01 4.140086e-04
<GCONST> 1.082382e+02
<STATE> 3
<NUMMIXES> 2
<MIXTURE> 1 5.071567e-01
<MEAN> 39
 1.073539e+00 -5.810917e+00 1.822733e+00 -5.832088e+00 -5.629839e+00 5.150369e+00 7.467513e+00 -1.855812e+00 -2.317892e+00 3.673996e-01 -5.369465e+00 -3.567386e+00 8.930842e-01 1.012387e+00 -2.227266e+00 -1.296920e+00 3.532290e+00 1.827220e-01 -5.999773e-01 2.322446e+00 -2.035560e-01 -2.234054e+00 1.052158e-01 8.531088e-01 4.236465e-02 -7.266873e-03 -2.047320e-02 6.515813e-01 -3.516072e-01 1.636759e-01 6.774935e-01 -9.250569e-01 -5.926537e-01 7.470869e-01 8.818662e-02 -3.817921e-01 4.615245e-01 3.058555e-01 -4.804403e-03
<VARIANCE> 39
 1.272233e+01 3.238316e+01 2.103278e+01 3.708939e+01 2.675751e+01 2.568607e+01 3.475045e+01 5.359577e+01 3.813104e+01 3.479963e+01 3.682854e+01 2.746247e+01 5.537900e-03 3.867144e-01 1.223429e+00 1.621993e+00 1.455645e+00 2.356071e+00 3.800302e+00 3.603154e+00 6.319363e+00 2.753731e+00 3.623468e+00 3.010615e+00 2.831817e+00 1.331242e-04 8.102345e-02 1.297396e-01 1.864623e-01 6.237868e-01 4.481142e-01 4.782864e-01 7.369062e-01 5.577322e-01 8.412325e-01 6.901019e-01 6.735204e-01 6.748875e-01 4.198524e-05
<GCONST> 8.773447e+01
<MIXTURE> 2 4.928393e-01
<MEAN> 39
 -1.741375e+00 6.938254e+00 3.028104e+00 -1.489943e+01 -3.038681e+00 -2.738291e+00 -2.015789e+00 4.443059e+00 2.332911e+00 -8.093125e-01 -3.202479e+00 -3.318395e+00 8.929455e-01 9.408068e-01 -3.270476e+00 3.090610e-01 -9.383109e-01 -6.226770e-01 2.135382e+00 1.314237e+00 -1.719016e-01 -3.221259e-01 -4.094042e-01 -1.461466e+00 -5.980535e-01 2.979470e-02 -4.223112e-01 -5.268199e-01 -4.094365e-01 1.784439e+00 1.760509e-01 6.598050e-01 8.621365e-01 -3.638481e-01 -3.126863e-01 2.171623e-01 2.996882e-01 2.869104e-01 -2.316077e-02
<VARIANCE> 39
 1.196572e+01 4.225989e+01 3.356284e+01 1.950458e+01 2.359162e+01 4.958727e+01 3.042955e+01 2.418414e+01 3.190561e+01 2.887628e+01 3.958008e+01 3.007619e+01 4.974731e-03 1.751711e+00 1.780054e+00 1.490065e+00 6.502251e+00 3.723998e+00 4.318420e+00 3.667634e+00 4.800786e+00 2.457743e+00 4.072945e+00 4.590056e+00 4.468855e+00 1.013798e-03 3.697816e-01 4.970468e-01 5.739726e-01 7.101825e-01 6.253806e-01 1.540189e+00 7.735041e-01 7.178050e-01 6.274534e-01 6.504773e-01 7.754859e-01 7.410654e-01 1.659092e-04
<GCONST> 1.007709e+02
<STATE> 4
<NUMMIXES> 2
<MIXTURE> 1 4.693869e-01
<MEAN> 39
 6.829684e+00 -5.825745e+00 -6.614450e+00 4.861557e+00 2.317996e+00 -3.509458e+00 7.277644e+00 7.531104e+00 -1.398118e+00 -2.427469e+00 -1.551214e+00 7.772337e-01 8.037179e-01 4.186457e-01 1.165745e-01 -3.379333e-01 7.152568e-01 8.704075e-01 -5.115326e-01 -3.950447e-01 3.782184e-01 4.384440e-01 -3.235474e-01 2.786962e-01 6.248168e-01 -1.456696e-02 -2.050958e-01 2.562834e-01 4.643975e-01 -4.705507e-01 -2.388495e-01 3.315198e-01 -3.074579e-01 -3.907908e-01 2.695468e-01 2.033194e-01 -1.675866e-01 -1.100613e-01 -1.080559e-03
<VARIANCE> 39
 1.364093e+01 2.279233e+01 3.118453e+01 2.184172e+01 3.999068e+01 2.446896e+01 4.151085e+01 3.486138e+01 5.423032e+01 2.208565e+01 2.970483e+01 2.868429e+01 1.068297e-02 6.444377e-01 8.025106e-01 3.957965e+00 2.412265e+00 4.333189e+00 2.518436e+00 2.636370e+00 3.833736e+00 2.886945e+00 3.414390e+00 2.712257e+00 3.043969e+00 1.771543e-04 6.880963e-02 1.747765e-01 2.151744e-01 3.044424e-01 3.880658e-01 3.030094e-01 7.178198e-01 4.820265e-01 9.576318e-01 3.959976e-01 5.575943e-01 4.222262e-01 2.622450e-05
<GCONST> 8.614839e+01
<MIXTURE> 2 5.306052e-01
<MEAN> 39
 5.427878e+00 -9.508728e+00 -6.425551e+00 6.380872e+00 2.440841e+00 -1.317425e+00 5.024795e+00 2.376868e+00 -4.348204e+00 -4.715230e+00 -2.512516e+00 -8.252193e-01 8.393587e-01 4.183997e-01 3.412021e-01 -4.974212e-01 3.132253e-01 5.144038e-01 -2.536201e-01 -6.942165e-01 2.451946e-01 8.643117e-01 -9.330198e-02 -2.321565e-01 -1.931001e-03 -1.093424e-02 -6.486147e-02 1.884957e-01 2.953363e-01 -3.349159e-01 -2.258103e-01 2.122088e-01 3.458693e-02 -2.054182e-01 1.190688e-01 2.409673e-01 -5.287677e-02 -1.670991e-01 -8.313553e-04
<VARIANCE> 39
 1.576084e+01 2.218389e+01 2.619931e+01 3.011424e+01 3.147492e+01 2.545047e+01 3.883689e+01 6.777986e+01 4.041961e+01 3.830781e+01 3.926914e+01 4.545424e+01 8.404277e-03 3.387722e-01 4.368547e-01 1.178452e+00 1.240484e+00 1.635910e+00 1.278095e+00 1.800722e+00 1.914694e+00 1.865062e+00 1.596802e+00 1.837635e+00 1.697880e+00 9.914849e-05 5.116057e-02 8.866493e-02 1.336132e-01 1.915486e-01 2.042126e-01 2.391943e-01 3.055339e-01 3.556656e-01 3.400434e-01 3.731170e-01 3.452219e-01 3.743049e-01 9.666211e-06
<GCONST> 7.231689e+01
<TRANSP> 5
 0.000000e+00 1.000000e+00 0.000000e+00 0.000000e+00 0.000000e+00
 0.000000e+00 8.532032e-01 1.467968e-01 0.000000e+00 0.000000e+00
 0.000000e+00 0.000000e+00 8.584046e-01 1.415954e-01 0.000000e+00
 0.000000e+00 0.000000e+00 0.000000e+00 8.810599e-01 1.189401e-01
 0.000000e+00 0.000000e+00 0.000000e+00 0.000000e+00 0.000000e+00
<ENDHMM>
~h "#er"
<BEGINHMM>
<NUMSTATES> 5
<STATE> 2
<NUMMIXES> 2
<MIXTURE> 1 4.901399e-01
<MEAN> 39
 -2.129606e+00 -1.265863e+01 -3.449978e+00 -5.548766e-01 -2.179355e+00 1.324494e+00 2.486355e-01 -4.915939e+00 -6.252431e+00 -1.929807e-01 -4.562355e-01 4.523444e-01 9.208981e-01 -9.300798e-02 -3.298571e-01 1.456191e-01 2.092191e-03 1.529237e-02 2.167248e-01 -1.100420e-01 -1.108652e-01 -3.064979e-01 -2.251182e-01 1.611997e-01 2.328411e-03 1.726159e-02 2.030830e-01 3.337013e-01 2.895733e-01 1.604052e-01 2.479304e-01 1.816555e-01 2.172668e-01 3.488861e-01 4.118385e-01 1.928793e-01 1.374710e-01 6.222225e-02 -8.886471e-03
<VARIANCE> 39
 1.819117e+01 3.601695e+01 3.384385e+01 4.129991e+01 3.347343e+01 5.503141e+01 6.430061e+01 5.298335e+01 6.291019e+01 6.310305e+01 6.117199e+01 6.271864e+01 2.994839e-03 6.478224e-01 1.100637e+00 1.327027e+00 2.156566e+00 2.196090e+00 2.497304e+00 2.801758e+00 2.282670e+00 2.771317e+00 2.593453e+00 3.081603e+00 3.232522e+00 3.787813e-04 9.116644e-02 1.452220e-01 1.642276e-01 2.317019e-01 2.672636e-01 3.953280e-01 3.947802e-01 3.798584e-01 3.862065e-01 3.820482e-01 4.975725e-01 4.984556e-01 1.459885e-04
<GCONST> 8.856995e+01
<MIXTURE> 2 5.098554e-01
<MEAN> 39
 6.537021e-01 -1.122469e+01 -2.247326e+00 3.496024e+00 1.823737e+00 3.375889e+00 4.271584e+00 -1.209164e+00 -4.388186e+00 1.611581e+00 1.762606e+00 1.978443e+00 7.872332e-01 -2.799388e-01 -5.862932e-01 -1.224382e-01 -2.071914e-01 -2.282583e-01 1.338009e-02 -4.196373e-01 -6.259758e-01 -7.102497e-01 -1.347855e-01 -1.015928e-01 -4.085316e-01 2.696113e-02 -1.029547e-01 6.664211e-02 -5.248559e-02 -2.372427e-01 -1.597803e-01 -1.985663e-01 -1.935287e-01 -4.840789e-02 4.176210e-02 -1.966731e-01 -1.822410e-01 -1.130878e-01 -7.800351e-04
<VARIANCE> 39
 1.420511e+01 2.897489e+01 3.471442e+01 3.851233e+01 2.695140e+01 5.702984e+01 4.055629e+01 4.743087e+01 6.077314e+01 5.446895e+01 4.873556e+01 3.649382e+01 1.673984e-02 7.998959e-01 9.793795e-01 1.190975e+00 1.690606e+00 1.589226e+00 2.125219e+00 2.274048e+00 2.163260e+00 2.750720e+00 2.942283e+00 3.047045e+00 2.357884e+00 1.626436e-03 1.176651e-01 1.704645e-01 1.641788e-01 1.895129e-01 1.907877e-01 2.741566e-01 3.072261e-01 3.454339e-01 4.691438e-01 3.969228e-01 4.253965e-01 4.051800e-01 3.308212e-04
<GCONST> 8.817503e+01
<STATE> 3
<NUMMIXES> 2
<MIXTURE> 1 6.728249e-01
<MEAN> 39
 1.077823e+00 -9.759345e+00 -3.325434e+00 -6.118908e-01 -2.023768e+00 1.299176e+00 5.651836e+00 -3.642673e-01 -6.982280e+00 -3.677106e+00 -1.280787e-01 -1.918226e+00 9.375013e-01 2.009997e-01 2.101032e-01 4.581124e-01 -3.975975e-02 -2.135051e-03 3.498958e-01 2.762636e-01 1.456003e-01 5.468219e-01 2.088832e-01 7.374008e-02 5.800417e-02 -2.956778e-03 3.661328e-02 7.037762e-02 6.631594e-02 -1.584027e-02 1.723379e-02 3.408745e-02 -1.169663e-02 -4.972542e-03 9.931810e-02 9.654866e-02 -1.206839e-02 3.416191e-02 -2.943146e-03
<VARIANCE> 39
 1.010369e+01 3.170119e+01 3.042759e+01 2.575401e+01 3.081473e+01 4.105219e+01 4.034469e+01 3.595426e+01 4.136159e+01 3.498851e+01 3.647672e+01 2.386249e+01 2.400126e-03 2.127580e-01 3.013527e-01 4.700433e-01 5.302323e-01 7.501550e-01 8.719608e-01 7.162057e-01 9.718441e-01 1.003106e+00 9.286246e-01 8.779171e-01 7.617369e-01 1.620222e-04 3.261973e-02 4.363213e-02 6.111737e-02 8.469085e-02 1.009894e-01 1.181649e-01 1.294032e-01 1.441628e-01 1.418609e-01 1.329619e-01 1.367856e-01 1.173729e-01 1.074194e-05
<GCONST> 5.265046e+01
<MIXTURE> 2 3.271654e-01
<MEAN> 39
 -2.186235e+00 -1.261435e+01 -3.304830e-01 7.493556e-01 9.419786e-01 5.255608e+00 -8.164670e-01 -5.778700e+00 -4.290583e+00 2.493173e+00 3.476929e-01 1.359183e+00 9.515369e-01 3.164680e-02 6.714515e-02 2.226617e-02 -6.566720e-01 -1.616080e-01 1.149862e-01 -3.113494e-01 -1.148554e-02 -3.922846e-01 -6.989896e-01 -4.377064e-01 -5.646835e-01 6.509246e-05 -1.249417e-02 1.151379e-02 -7.783106e-02 -1.527367e-01 -9.839148e-02 -8.288962e-02 -4.033379e-02 8.598030e-03 -2.211691e-02 -1.644929e-01 -1.164447e-01 -9.852906e-02 -2.912805e-03
<VARIANCE> 39
 1.285726e+01 3.198633e+01 2.872322e+01 3.567363e+01 2.201705e+01 4.187961e+01 5.986018e+01 3.380832e+01 4.532663e+01 3.616040e+01 3.750035e+01 4.502214e+01 1.742408e-03 2.566139e-01 4.701692e-01 5.605392e-01 1.108008e+00 8.216225e-01 1.274484e+00 1.747156e+00 1.190468e+00 1.284437e+00 1.417466e+00 1.656098e+00 1.685096e+00 1.021535e-04 4.392788e-02 7.672196e-02 9.437780e-02 1.397395e-01 1.326049e-01 2.113716e-01 2.741771e-01 2.042674e-01 2.219190e-01 2.277681e-01 2.356425e-01 2.753455e-01 1.073525e-05
<GCONST> 6.453243e+01
<STATE> 4
<NUMMIXES> 2
<MIXTURE> 1 4.910424e-01
<MEAN> 39
 3.084092e+00 -6.267797e+00 4.303841e+00 -3.696669e+00 -1.190981e+00 7.213273e+00 2.852139e+00 -6.146588e-01 -8.132106e-02 -7.235759e-01 5.413830e-03 -2.216186e+00 7.952998e-01 4.234652e-01 1.087498e+00 7.710524e-01 3.244227e-01 2.563306e-01 -1.311820e-01 -2.158774e-01 -1.425939e-02 8.560193e-01 5.286016e-01 1.709587e-01 5.043861e-01 -2.620710e-02 -6.851391e-02 8.223949e-02 -2.079928e-02 2.238453e-01 1.194688e-01 -7.163306e-02 -1.433184e-01 -8.225450e-02 -2.124614e-01 -1.418946e-02 -8.334225e-03 3.309967e-02 -2.883923e-03
<VARIANCE> 39
 1.021939e+01 3.878534e+01 2.837172e+01 3.565769e+01 4.006330e+01 5.861410e+01 6.094897e+01 3.370554e+01 4.407864e+01 4.179310e+01 4.522068e+01 2.946863e+01 1.123500e-02 5.284019e-01 9.921611e-01 1.003725e+00 1.286605e+00 1.149251e+00 2.005233e+00 1.885980e+00 1.783102e+00 2.114821e+00 1.728455e+00 1.629355e+00 1.645031e+00 1.914193e-04 8.752090e-02 1.242908e-01 1.644349e-01 2.464114e-01 2.285947e-01 2.675334e-01 2.578422e-01 2.924595e-01 3.716586e-01 2.869221e-01 2.598022e-01 2.523246e-01 4.126200e-05
<GCONST> 7.740670e+01
<MIXTURE> 2 5.089530e-01
<MEAN> 39
 -1.334108e+00 -9.885679e+00 4.847449e-01 -6.862654e+00 -8.993825e-01 6.832366e+00 -1.843744e+00 -3.384672e+00 -4.461019e+00 -3.765388e+00 -2.668179e+00 -2.226895e+00 9.178210e-01 2.654718e-01 1.243137e+00 3.418399e-01 -1.029665e+00 -4.203708e-01 -2.311421e-01 1.566638e-01 6.241698e-01 8.654141e-01 -6.242058e-01 -3.322581e-01 -6.743084e-01 -9.852473e-03 1.204711e-01 2.688200e-01 1.400238e-01 2.082880e-01 -4.095728e-03 -2.104383e-01 -2.078982e-02 1.020897e-01 2.364838e-01 2.144945e-01 1.598251e-01 9.954255e-02 -2.542332e-03
<VARIANCE> 39
 1.343585e+01 3.840481e+01 2.312062e+01 4.316103e+01 3.843111e+01 5.473734e+01 8.719038e+01 4.587020e+01 4.057260e+01 3.838794e+01 3.851278e+01 4.873915e+01 2.842629e-03 4.538788e-01 1.200267e+00 1.732150e+00 1.713851e+00 1.895409e+00 3.304062e+00 3.022157e+00 2.859937e+00 3.732589e+00 2.968708e+00 2.801325e+00 3.301797e+00 7.867940e-05 6.975352e-02 1.116656e-01 2.075717e-01 3.080814e-01 3.068997e-01 4.818504e-01 5.642928e-01 4.396583e-01 4.444151e-01 4.525816e-01 4.607921e-01 5.716851e-01 1.389570e-05
<GCONST> 8.441963e+01
<TRANSP> 5
 0.000000e+00 1.000000e+00 0.000000e+00 0.000000e+00 0.000000e+00
 0.000000e+00 8.099670e-01 1.900330e-01 0.000000e+00 0.000000e+00
 0.000000e+00 0.000000e+00 8.855692e-01 1.144308e-01 0.000000e+00
 0.000000e+00 0.000000e+00 0.000000e+00 8.223268e-01 1.776731e-01
 0.000000e+00 0.000000e+00 0.000000e+00 0.000000e+00 0.000000e+00
<ENDHMM>
~h "liou"
<BEGINHMM>
<NUMSTATES> 5
<STATE> 2
<NUMMIXES> 2
<MIXTURE> 1 4.333267e-01
<MEAN> 39
 -4.089044e+00 3.458759e+00 -3.911175e+00 -1.284634e+01 3.152379e+00 -3.148212e+00 2.456589e+00 2.374241e+00 -1.564643e+00 -3.781759e-01 1.015452e+00 1.459931e+00 9.162261e-01 -1.580224e-01 -1.094116e+00 1.682448e-01 1.262438e-02 5.132744e-01 1.190854e+00 8.061382e-02 -6.337634e-01 -2.041854e-01 -3.960979e-01 -1.426205e-01 6.134406e-01 5.054831e-03 2.061749e-01 -3.087939e-01 2.756843e-01 3.416603e-01 -3.852657e-01 3.453359e-01 -1.881852e-01 -3.479210e-01 1.777473e-01 -1.349785e-01 -6.978758e-02 1.808420e-02 -2.174607e-03
<VARIANCE> 39
 1.064965e+01 2.772235e+01 1.829024e+01 2.261692e+01 2.464335e+01 3.657278e+01 2.641167e+01 2.814336e+01 3.450219e+01 5.648872e+01 7.918319e+01 9.057196e+01 3.362208e-03 4.907431e-01 1.820165e+00 1.606108e+00 1.420905e+00 2.179959e+00 3.664326e+00 2.688939e+00 2.366964e+00 1.963812e+00 2.598187e+00 2.344172e+00 2.812221e+00 1.880297e-04 8.643866e-02 1.878021e-01 2.585024e-01 3.603129e-01 3.910302e-01 5.158558e-01 4.943445e-01 4.881529e-01 4.262854e-01 5.277207e-01 4.787474e-01 5.438548e-01 3.042831e-05
<GCONST> 8.438589e+01
<MIXTURE> 2 5.666655e-01
<MEAN> 39
 -3.363866e+00 5.664721e+00 1.350792e+00 -1.406062e+01 -3.577200e+00 -2.849736e+00 -4.380587e+00 3.148153e+00 2.867595e+00 -2.332680e+00 -1.749159e+00 -2.484011e+00 9.195476e-01 -5.463372e-01 -6.026749e-01 -8.188750e-01 -1.395912e+00 -4.694416e-02 2.636703e-01 1.177990e-01 9.597281e-01 -4.292355e-01 -5.927791e-02 -5.892113e-01 -6.111958e-01 1.974534e-02 2.963673e-01 -3.475076e-01 2.990415e-01 5.505087e-01 -7.829932e-02 2.535642e-01 2.611604e-01 -4.756363e-01 -2.215833e-01 1.327311e-01 -1.951399e-01 1.229873e-01 -5.428899e-03
<VARIANCE> 39
 1.110333e+01 2.285627e+01 2.029134e+01 1.917014e+01 1.973872e+01 3.299926e+01 3.392439e+01 2.804425e+01 2.536189e+01 2.346851e+01 2.297928e+01 2.189395e+01 3.169482e-03 7.878069e-01 1.431578e+00 2.046503e+00 2.502028e+00 2.053478e+00 2.898665e+00 2.842239e+00 3.180027e+00 2.333044e+00 2.356372e+00 2.428841e+00 1.847400e+00 3.462971e-04 1.167084e-01 2.134613e-01 2.882749e-01 3.850614e-01 2.802651e-01 5.180794e-01 5.159134e-01 4.894105e-01 4.522674e-01 3.924170e-01 4.239407e-01 3.669137e-01 4.792890e-05
<GCONST> 8.161369e+01
<STATE> 3
<NUMMIXES> 2
<MIXTURE> 1 4.833631e-01
<MEAN> 39
 -2.193439e-01 -8.963410e+00 -1.031597e+00 -2.325746e+00 -6.270138e+00 3.844234e+00 7.673470e+00 -3.370035e+00 -5.672776e+00 2.086069e+00 -4.033836e+00 -3.216285e+00 9.296715e-01 1.046240e+00 -1.257342e+00 -1.330508e+00 3.094580e+00 2.961120e-01 -1.722123e+00 1.778772e+00 1.118037e+00 -2.147008e+00 -1.109116e-01 1.381522e+00 -4.120338e-01 -5.663878e-03 1.917391e-02 4.809187e-01 -2.537423e-01 -2.686656e-01 6.516638e-01 -5.057366e-01 -7.621093e-01 7.932737e-01 4.075513e-01 -7.537058e-01 2.439403e-01 4.660643e-01 -1.596028e-03
<VARIANCE> 39
 1.199516e+01 2.601113e+01 1.626657e+01 3.621537e+01 2.762801e+01 2.736125e+01 2.930160e+01 5.499352e+01 2.935488e+01 2.162470e+01 3.635143e+01 3.846078e+01 3.124119e-03 3.139472e-01 8.197190e-01 1.037586e+00 1.349609e+00 1.765033e+00 1.845092e+00 2.597788e+00 2.943023e+00 2.217738e+00 3.096411e+00 2.287043e+00 3.051999e+00 1.215931e-04 4.850874e-02 9.498090e-02 1.579983e-01 2.339939e-01 2.775678e-01 4.302787e-01 4.293615e-01 4.322452e-01 6.337585e-01 3.391363e-01 5.610319e-01 4.631895e-01 1.592368e-05
<GCONST> 7.636864e+01
<MIXTURE> 2 5.166337e-01
<MEAN> 39
 -3.010016e+00 -3.938954e+00 8.930699e-01 -1.181083e+01 -3.045062e+00 5.378093e+00 -8.839377e-01 -1.649340e+00 9.422730e-01 -2.653543e+00 -4.241668e+00 8.864107e-01 9.421235e-01 6.809437e-01 -2.226260e+00 4.165201e-02 2.285236e+00 -1.425722e+00 1.271202e+00 1.909468e+00 -1.743836e+00 -6.458738e-01 9.763827e-01 -9.816437e-01 -1.518510e-01 -1.316923e-03 1.896222e-01 1.131868e-01 -3.460948e-01 6.857591e-01 8.989312e-02 -7.924536e-01 5.883918e-01 2.501785e-01 -5.729877e-01 3.152211e-01 3.564408e-01 -3.397515e-01 -2.122171e-03
<VARIANCE> 39
 1.106018e+01 3.184958e+01 1.708981e+01 3.109411e+01 3.767823e+01 3.022245e+01 3.353717e+01 4.556863e+01 2.298024e+01 3.069230e+01 4.597908e+01 5.161094e+01 2.215491e-03 2.854525e-01 9.646338e-01 8.974091e-01 1.641489e+00 1.252826e+00 2.523845e+00 3.158957e+00 2.620971e+00 3.121564e+00 2.415450e+00 2.527343e+00 3.328903e+00 1.281641e-04 4.158417e-02 1.619166e-01 1.473078e-01 2.997320e-01 3.050884e-01 4.441566e-01 3.738712e-01 5.839752e-01 3.607019e-01 4.742344e-01 5.219570e-01 4.372136e-01 2.267935e-05
<GCONST> 7.837682e+01
<STATE> 4
<NUMMIXES> 2
<MIXTURE> 1 4.570913e-01
<MEAN> 39
 6.511081e+00 -7.493925e+00 -8.878806e+00 8.537315e+00 4.652457e+00 -2.601000e+00 3.557412e+00 5.507780e+00 -7.374212e-01 -4.169160e+00 -2.602023e+00 1.283857e+00 8.082581e-01 5.632188e-01 6.652536e-01 1.273887e-01 2.776168e-01 6.727175e-01 2.758175e-01 -5.970248e-01 -2.022414e-02 9.763904e-01 5.550013e-01 -9.734589e-02 -1.165822e-01 -2.323201e-02 -1.641679e-01 5.327959e-02 4.160136e-01 -2.051060e-01 -2.992909e-01 1.615369e-01 1.718698e-01 -3.158059e-01 -3.081901e-01 2.535354e-01 1.924134e-01 -2.030814e-01 -2.285932e-03
<VARIANCE> 39
 1.276516e+01 2.360626e+01 2.782285e+01 2.941912e+01 2.515113e+01 2.391208e+01 3.152471e+01 3.744560e+01 3.232428e+01 3.168479e+01 4.039551e+01 4.772392e+01 1.138460e-02 4.187482e-01 4.835867e-01 1.320808e+00 1.008006e+00 1.548162e+00 1.135293e+00 1.912564e+00 2.136909e+00 2.211575e+00 1.873359e+00 1.934519e+00 1.960466e+00 1.825413e-04 6.566323e-02 7.900357e-02 1.896813e-01 1.693080e-01 2.243694e-01 2.233011e-01 2.808252e-01 3.342264e-01 3.152194e-01 3.455347e-01 3.662340e-01 3.514676e-01 2.436115e-05
<GCONST> 7.344374e+01
<MIXTURE> 2 5.429024e-01
<MEAN> 39
 2.565651e+00 -9.999639e+00 -5.812937e+00 3.578328e+00 -3.358321e+00 -2.783647e+00 7.681747e+00 3.174441e+00 -7.436506e+00 -2.795239e+00 -1.120740e+00 -9.047212e-01 9.171987e-01 5.938826e-01 3.366750e-01 -4.247294e-01 6.216740e-01 7.149334e-01 -7.809457e-01 -5.077705e-01 7.754584e-01 8.915107e-01 -6.199828e-01 -8.615417e-02 3.610599e-01 -9.334913e-03 -1.135059e-01 3.944754e-01 4.272995e-01 -5.916544e-01 -4.084762e-03 4.549193e-01 -4.267960e-01 -4.149460e-01 6.976757e-01 2.969112e-01 -3.518640e-01 -3.313846e-02 -2.522408e-03
<VARIANCE> 39
 1.100920e+01 2.241941e+01 2.167688e+01 2.688052e+01 2.523959e+01 3.059330e+01 2.995686e+01 6.938470e+01 2.791863e+01 3.085742e+01 2.902914e+01 3.568377e+01 3.068936e-03 5.499794e-01 7.081321e-01 3.328054e+00 2.571800e+00 3.439361e+00 2.152482e+00 2.420341e+00 3.729892e+00 2.839233e+00 3.372644e+00 2.690400e+00 3.189659e+00 9.129920e-05 5.876403e-02 9.959362e-02 2.144021e-01 2.321053e-01 2.847968e-01 3.107873e-01 4.667339e-01 4.656431e-01 4.273679e-01 4.744511e-01 3.874132e-01 4.526789e-01 1.489145e-05
<GCONST> 7.972746e+01
<TRANSP> 5
 0.000000e+00 1.000000e+00 0.000000e+00 0.000000e+00 0.000000e+00
 0.000000e+00 8.547660e-01 1.452340e-01 0.000000e+00 0.000000e+00
 0.000000e+00 0.000000e+00 8.251860e-01 1.748141e-01 0.000000e+00
 0.000000e+00 0.000000e+00 0.000000e+00 8.553760e-01 1.446240e-01
 0.000000e+00 0.000000e+00 0.000000e+00 0.000000e+00 0.000000e+00
<ENDHMM>
~h "liN"
<BEGINHMM>
<NUMSTATES> 5
<STATE> 2
<NUMMIXES> 2
<MIXTURE> 1 5.234523e-01
<MEAN> 39
 9.663858e-01 2.400641e+00 6.557339e+00 -5.567292e+00 -3.036299e+00 6.303225e-01 -1.999010e+00 -2.358409e+00 3.648315e+00 -1.910656e+00 -7.737080e-01 1.895981e-01 8.170687e-01 -7.084235e-01 1.489854e+00 -8.535746e-01 -9.527662e-01 5.151314e-01 -2.270057e-01 -4.835943e-01 1.474367e+00 5.879087e-01 -1.725979e-01 7.393613e-01 -2.301844e-01 6.457328e-03 -1.231359e-01 7.050236e-02 -6.446850e-01 -6.426157e-02 9.953819e-02 -3.485450e-01 3.306584e-01 3.038676e-01 -2.053540e-01 1.613797e-01 5.779548e-02 -3.352875e-01 5.379003e-03
<VARIANCE> 39
 1.693358e+01 4.326964e+01 3.431416e+01 4.044968e+01 3.289506e+01 3.430132e+01 3.635267e+01 4.411230e+01 3.864195e+01 3.869577e+01 3.483888e+01 3.586546e+01 6.987405e-03 1.736727e+00 2.591326e+00 4.230064e+00 4.265963e+00 3.577593e+00 3.755709e+00 4.993518e+00 5.330658e+00 4.406022e+00 4.219285e+00 3.472932e+00 3.412187e+00 6.722682e-04 2.515903e-01 2.643625e-01 7.525899e-01 8.500614e-01 6.141701e-01 6.957791e-01 7.524462e-01 1.048110e+00 7.418154e-01 7.731512e-01 6.923600e-01 5.378030e-01 9.706889e-05
<GCONST> 1.027332e+02
<MIXTURE> 2 4.765431e-01
<MEAN> 39
 -1.473076e+00 7.608207e+00 -1.470518e+00 -9.404590e+00 -3.135695e-02 -4.086434e+00 4.480420e-01 3.995695e+00 2.164515e+00 -4.664107e-01 -4.851671e-01 -4.501364e+00 8.808013e-01 -5.559635e-01 1.293106e+00 -1.638520e+00 -5.352561e-02 -1.951538e-01 -9.668056e-01 6.810652e-01 -6.737037e-02 9.576899e-02 5.006621e-01 -5.903984e-01 -5.474830e-01 1.421898e-02 3.170571e-01 -1.283098e-01 4.069446e-01 6.289504e-01 -2.246773e-01 1.580488e-01 -2.144145e-01 -5.828299e-01 -7.884172e-02 -1.481875e-01 -1.099342e-01 3.175802e-01 -6.630874e-03
<VARIANCE> 39
 1.005382e+01 3.245522e+01 2.201475e+01 1.945055e+01 2.061561e+01 3.033785e+01 2.832429e+01 2.474449e+01 2.798269e+01 2.390452e+01 3.726704e+01 3.512954e+01 4.462212e-03 9.274540e-01 1.296022e+00 2.191286e+00 3.091012e+00 2.464275e+00 2.544822e+00 3.173452e+00 3.464440e+00 2.562141e+00 2.828979e+00 3.484557e+00 2.776514e+00 4.058702e-04 1.359577e-01 2.456987e-01 2.925607e-01 3.775235e-01 4.738999e-01 4.863601e-01 5.391892e-01 5.860609e-01 5.111715e-01 5.373641e-01 5.432931e-01 4.217389e-01 5.702939e-05
<GCONST> 8.679781e+01
<STATE> 3
<NUMMIXES> 2
<MIXTURE> 1 5.108649e-01
<MEAN> 39
 -2.051079e+00 1.068114e+01 -8.036493e-01 -6.566786e+00 -1.266635e+00 -2.957226e+00 -2.083307e+00 2.820609e+00 4.736749e+00 8.378279e-01 3.535308e+00 -1.210404e+00 8.952208e-01 2.022606e-01 2.235654e-01 -2.710582e-01 2.650627e-01 3.432560e-01 -3.904952e-02 -1.849349e-02 -6.224028e-02 -3.248661e-01 -7.055709e-03 -1.016045e-01 -6.337724e-02 -1.592112e-03 1.318312e-01 -2.331876e-01 4.244013e-02 6.120472e-02 1.224619e-01 8.408556e-02 3.078155e-02 -5.942811e-02 -1.221803e-01 -6.714465e-02 -2.114550e-01 6.954717e-02 -1.674270e-03
<VARIANCE> 39
 9.371488e+00 2.743961e+01 1.677966e+01 1.775346e+01 1.598645e+01 2.392994e+01 2.071892e+01 2.041038e+01 2.371741e+01 2.349778e+01 2.158282e+01 1.668390e+01 5.630533e-03 2.450922e-01 5.795646e-01 5.169793e-01 7.347264e-01 7.392008e-01 9.291555e-01 7.763195e-01 7.686567e-01 8.871493e-01 1.083296e+00 1.159189e+00 7.900991e-01 6.029059e-05 4.058028e-02 6.661415e-02 9.675480e-02 1.301566e-01 1.239421e-01 1.661879e-01 1.507057e-01 1.577537e-01 1.655636e-01 1.708895e-01 1.641391e-01 1.414614e-01 1.349130e-05
<GCONST> 5.184097e+01
<MIXTURE> 2 4.891286e-01
<MEAN> 39
 -5.382279e-02 1.021438e+01 -8.089395e+00 -2.339869e+00 -1.707300e+00 -5.523179e+00 3.253277e+00 -9.851342e-01 9.886500e-01 -2.042021e+00 -6.360024e+00 -4.225965e+00 8.733414e-01 4.234384e-01 -1.585244e-02 -2.487208e-01 8.659034e-01 5.556005e-02 -1.167866e-01 2.083100e-02 -5.115233e-01 -1.710664e-01 -3.831730e-01 -1.833199e-01 2.196490e-01 -2.415225e-03 1.091570e-01 -2.329830e-01 2.812497e-01 -6.490301e-02 9.271361e-02 9.406685e-03 -8.374773e-02 4.660704e-02 -6.260293e-02 6.111173e-03 1.731785e-01 2.125728e-02 -2.864440e-04
<VARIANCE> 39
 1.218968e+01 2.959971e+01 1.643379e+01 2.802786e+01 3.292379e+01 2.724672e+01 2.396260e+01 2.740367e+01 3.151208e+01 3.022479e+01 3.239792e+01 3.462836e+01 5.711397e-03 2.609214e-01 7.883694e-01 8.664283e-01 1.303900e+00 1.597080e+00 1.483304e+00 1.397338e+00 1.649197e+00 1.973733e+00 1.634138e+00 1.635828e+00 1.623868e+00 6.233328e-05 4.772770e-02 9.683190e-02 1.709826e-01 1.889819e-01 2.510499e-01 2.561923e-01 2.617608e-01 2.686181e-01 2.788594e-01 2.735435e-01 2.521556e-01 2.620046e-01 7.936241e-06
<GCONST> 6.716130e+01
<STATE> 4
<NUMMIXES> 2
<MIXTURE> 1 4.803061e-01
<MEAN> 39
 3.214638e+00 6.937561e+00 -1.690875e+00 -1.891818e+00 1.689710e+00 -5.567810e+00 -1.410649e+00 -1.211484e-01 -1.008476e+00 -1.779825e+00 -2.402348e+00 -8.749380e-01 8.696686e-01 1.025929e+00 -1.427121e+00 1.297028e+00 3.836548e-01 2.242022e-01 -2.138583e-01 -2.842450e-01 -2.882645e-01 -5.954967e-01 1.563378e-01 -1.604048e-01 4.829500e-01 -1.525814e-04 -1.496358e-02 -6.755771e-02 1.994337e-01 -1.481207e-01 -1.602975e-01 -3.632259e-02 -4.523797e-02 -8.185612e-02 1.048569e-01 6.105662e-02 5.270457e-02 -2.516564e-02 2.247986e-04
<VARIANCE> 39
 1.702886e+01 3.792331e+01 4.150252e+01 4.409431e+01 3.897171e+01 4.914236e+01 5.153884e+01 4.830326e+01 3.935889e+01 4.039830e+01 4.643085e+01 4.115322e+01 6.973082e-03 5.352549e-01 1.358544e+00 2.829364e+00 2.698862e+00 2.897729e+00 3.494025e+00 3.208589e+00 3.502795e+00 3.278872e+00 3.020400e+00 3.763969e+00 2.582426e+00 1.091695e-04 1.011360e-01 2.732568e-01 4.458539e-01 4.602825e-01 4.746574e-01 5.867835e-01 5.327762e-01 5.220591e-01 5.057888e-01 4.753632e-01 4.697001e-01 4.181331e-01 1.144538e-05
<GCONST> 9.073035e+01
<MIXTURE> 2 5.196838e-01
<MEAN> 39
 6.998326e+00 2.128342e+00 4.422682e+00 -1.210048e+00 1.327326e+00 -7.047810e+00 -1.949197e+00 -3.553094e+00 -1.731975e+00 -1.998350e+00 -3.489987e+00 -1.368524e+00 8.592566e-01 2.551538e-01 -1.495391e-01 4.421787e-01 -4.988233e-02 -1.464783e-01 -7.508827e-02 -4.332151e-01 -3.360190e-01 -1.101060e-01 -4.471016e-02 4.251307e-02 2.469266e-02 -5.691613e-03 -1.549417e-01 2.606364e-01 -2.054491e-01 1.203405e-01 -7.777865e-03 1.658522e-01 -2.485355e-03 1.161867e-01 5.137303e-02 2.230566e-02 1.041215e-01 1.818934e-02 -2.961970e-03
<VARIANCE> 39
 1.096199e+01 3.142004e+01 3.258395e+01 2.945024e+01 3.109576e+01 3.984669e+01 4.118116e+01 4.540248e+01 4.281500e+01 4.655469e+01 4.249371e+01 4.128618e+01 8.172338e-03 3.377855e-01 8.636255e-01 1.324397e+00 1.276806e+00 1.333637e+00 1.563645e+00 1.870868e+00 1.759602e+00 1.796157e+00 1.825480e+00 1.891256e+00 1.659997e+00 1.264552e-04 8.667520e-02 1.417811e-01 2.446013e-01 2.578543e-01 2.535862e-01 2.977094e-01 3.397505e-01 3.445001e-01 3.524266e-01 3.657925e-01 3.713242e-01 3.231849e-01 1.994188e-05
<GCONST> 7.699443e+01
<TRANSP> 5
 0.000000e+00 1.000000e+00 0.000000e+00 0.000000e+00 0.000000e+00
 0.000000e+00 8.264301e-01 1.735699e-01 0.000000e+00 0.000000e+00
 0.000000e+00 0.000000e+00 8.745025e-01 1.254975e-01 0.000000e+00
 0.000000e+00 0.000000e+00 0.000000e+00 9.003718e-01 9.962814e-02
 0.000000e+00 0.000000e+00 0.000000e+00 0.000000e+00 0.000000e+00
<ENDHMM>
~h "san"
<BEGINHMM>
<NUMSTATES> 5
<STATE> 2
<NUMMIXES> 2
<MIXTURE> 1 7.151583e-01
<MEAN> 39
 -9.821260e+00 -3.356631e-01 2.331157e+00 5.865131e+00 3.477791e+00 7.057196e+00 4.080313e+00 7.925401e+00 4.579001e+00 3.141628e+00 3.283755e+00 1.959883e+00 1.674183e-01 -4.307766e-01 -4.521201e-01 -3.123018e-01 -1.931455e-01 9.811629e-02 1.628730e-01 2.087945e-01 1.265887e-01 2.441894e-01 1.090266e-01 2.030926e-01 1.727795e-01 -1.218387e-02 7.415974e-01 2.001287e-01 3.786150e-02 -3.845022e-01 -3.097389e-01 -2.588819e-01 -1.331020e-01 -4.622009e-01 -1.952067e-01 -2.135116e-01 -2.331047e-01 -8.019856e-02 3.337918e-02
<VARIANCE> 39
 1.983111e+01 2.613721e+01 2.334719e+01 2.032308e+01 2.578153e+01 2.658810e+01 3.645045e+01 3.761632e+01 2.611123e+01 2.754445e+01 2.587244e+01 2.283032e+01 2.139000e-02 1.706393e+00 1.616606e+00 1.501424e+00 1.648566e+00 1.902560e+00 2.338659e+00 2.378213e+00 2.867251e+00 2.397869e+00 2.300312e+00 2.249315e+00 1.928429e+00 4.085260e-03 3.521800e-01 2.519740e-01 3.188886e-01 5.296419e-01 5.018983e-01 4.980601e-01 5.595669e-01 6.508310e-01 5.415139e-01 5.107900e-01 5.959111e-01 4.496354e-01 7.407243e-04
<GCONST> 9.355925e+01
<MIXTURE> 2 2.848361e-01
<MEAN> 39
 -7.104220e+00 4.063267e-01 2.194573e+00 3.897868e+00 3.168747e+00 6.941709e+00 3.566473e+00 6.064791e+00 4.844287e+00 2.352776e+00 3.254445e+00 2.461007e+00 3.855951e-01 3.631880e+00 -5.772763e-01 -9.022250e-01 -3.081399e+00 -2.047031e+00 -9.514449e-01 1.504635e-01 -2.465697e+00 -9.335119e-01 -1.043494e+00 -9.275784e-01 1.887235e-01 1.749994e-01 3.035542e-01 -7.730860e-01 -3.717222e-01 -5.240995e-01 -2.809450e-01 -6.952440e-02 4.837756e-02 -8.459587e-01 -5.956074e-01 -3.557185e-01 -3.033707e-01 -3.011277e-02 2.726110e-02
<VARIANCE> 39
 2.863237e+01 2.739708e+01 2.178726e+01 2.753014e+01 2.896665e+01 2.774084e+01 3.147198e+01 4.542842e+01 2.352292e+01 3.248830e+01 3.542467e+01 2.504931e+01 4.639600e-02 1.260541e+00 2.023677e+00 2.337378e+00 4.436556e+00 2.631559e+00 2.214676e+00 4.782937e+00 4.424907e+00 4.480323e+00 3.126272e+00 6.207818e+00 3.690298e+00 1.431552e-03 6.869000e-01 2.948484e-01 3.028694e-01 7.280913e-01 6.238247e-01 5.177163e-01 6.937879e-01 6.901790e-01 5.903358e-01 7.343851e-01 7.052052e-01 5.834131e-01 8.073116e-04
<GCONST> 1.025411e+02
<STATE> 3
<NUMMIXES> 2
<MIXTURE> 1 5.459141e-01
<MEAN> 39
 -2.614055e+00 -1.156115e+01 -3.330258e+00 -2.815676e+00 2.406762e+00 6.422684e+00 4.926853e-01 -8.574821e+00 -3.840639e+00 -1.656380e+00 9.713977e-01 1.574718e+00 9.486019e-01 -1.202485e+00 -1.086404e+00 2.343085e-01 1.552681e+00 1.474811e+00 -3.137278e-01 -2.052568e+00 -8.783936e-01 -5.049595e-01 7.150293e-01 3.616177e-01 -7.386473e-01 1.134823e-02 1.099817e-01 6.580046e-01 4.332066e-01 2.275022e-01 -2.410702e-01 -3.222745e-01 -3.578486e-02 7.606500e-01 5.381387e-01 2.351637e-01 -9.906762e-02 -5.759635e-02 -1.805407e-02
<VARIANCE> 39
 1.140970e+01 2.622447e+01 1.422997e+01 2.956320e+01 2.798772e+01 2.831485e+01 6.308688e+01 3.312716e+01 4.805754e+01 3.442717e+01 4.949144e+01 2.752453e+01 1.840990e-03 7.592840e-01 8.635891e-01 9.351997e-01 1.438609e+00 1.693319e+00 2.820423e+00 1.806033e+00 2.198684e+00 2.057672e+00 2.006724e+00 3.348258e+00 2.402559e+00 1.781466e-04 2.667398e-01 1.287885e-01 1.741271e-01 5.921906e-01 4.356396e-01 3.699922e-01 6.774347e-01 4.840090e-01 4.344584e-01 5.789858e-01 5.725328e-01 4.857674e-01 1.623814e-04
<GCONST> 8.378961e+01
<MIXTURE> 2 4.540820e-01
<MEAN> 39
 2.729687e+00 -5.354125e+00 -2.023808e+00 -6.300513e+00 -4.021243e+00 4.104510e+00 5.407784e+00 -2.995011e+00 1.520409e-01 -1.751059e+00 -1.229851e+00 2.489286e+00 8.618298e-01 7.777531e-01 -2.845512e+00 -1.373690e+00 -1.615099e+00 -6.833892e-02 2.631708e-01 4.297826e-03 -3.138315e+00 -2.012547e+00 -1.152980e+00 -7.486922e-01 -2.864897e-03 1.146439e-01 -1.394066e+00 -1.665220e-01 2.383634e-01 1.267792e+00 1.116573e+00 3.385957e-01 -5.994343e-01 3.195829e-01 3.176815e-02 4.235542e-01 4.762692e-01 -1.612548e-01 -4.298374e-02
<VARIANCE> 39
 9.454031e+00 3.197023e+01 1.321431e+01 3.073695e+01 2.014591e+01 2.567701e+01 3.362111e+01 3.978573e+01 4.009742e+01 2.494813e+01 7.129996e+01 2.477075e+01 4.879694e-03 4.618863e+00 1.647211e+00 1.611816e+00 5.097819e+00 4.509608e+00 2.790545e+00 5.676268e+00 4.191865e+00 4.111166e+00 4.974855e+00 4.914700e+00 3.850964e+00 3.568141e-03 1.733307e-01 3.780928e-01 3.483096e-01 6.944982e-01 4.021020e-01 4.584714e-01 5.606336e-01 6.757834e-01 6.323556e-01 5.552858e-01 1.136948e+00 7.680385e-01 1.626817e-04
<GCONST> 9.935299e+01
<STATE> 4
<NUMMIXES> 2
<MIXTURE> 1 5.176284e-01
<MEAN> 39
 3.206099e+00 -1.904887e+00 2.857836e+00 -5.227331e+00 -4.549331e-01 -1.659016e+00 -5.333126e+00 -5.021398e+00 -1.583455e+00 -2.764482e+00 -1.893699e+00 -3.871484e-01 8.838800e-01 8.755433e-01 1.228720e+00 5.997434e-01 -2.059275e-01 -3.109277e-01 -1.005838e+00 -9.646376e-02 2.860473e-01 2.610910e-01 6.387830e-02 -7.144981e-02 -3.584869e-02 -6.874774e-03 -6.147366e-02 -1.744236e-02 -1.594590e-02 1.845109e-01 5.982804e-02 4.851200e-02 2.667274e-02 -3.812980e-02 -3.164547e-02 9.384307e-02 9.058066e-02 1.136752e-02 -1.248373e-03
<VARIANCE> 39
 2.698366e+01 4.841930e+01 2.806180e+01 2.657085e+01 3.020216e+01 5.385394e+01 4.560901e+01 4.294913e+01 4.489250e+01 4.684262e+01 4.823288e+01 3.919170e+01 5.744574e-03 6.693627e-01 1.060934e+00 1.371125e+00 1.754443e+00 1.813237e+00 3.106258e+00 2.215489e+00 2.257854e+00 2.279970e+00 2.402171e+00 2.051704e+00 1.986312e+00 1.127846e-04 1.202163e-01 1.807347e-01 2.350832e-01 2.906131e-01 3.163812e-01 6.255196e-01 4.027253e-01 4.023908e-01 4.286214e-01 4.473388e-01 3.684871e-01 3.462699e-01 1.705471e-05
<GCONST> 8.372415e+01
<MIXTURE> 2 4.823608e-01
<MEAN> 39
 -2.835349e+00 -1.019597e+01 -4.049517e-01 5.208167e-01 2.696575e+00 2.514623e+00 -3.932022e+00 -6.806055e+00 -2.718446e+00 -1.008873e+00 -5.273250e-01 -7.271067e-01 9.283867e-01 2.191813e-01 4.403836e-01 2.312006e-01 -1.940074e-01 -2.507322e-01 -1.245274e-01 -3.246530e-01 1.898386e-01 4.465020e-02 -2.408346e-01 -2.051009e-01 -3.413896e-02 -4.509555e-03 1.600687e-01 1.690352e-01 -2.851387e-02 -2.273588e-01 -1.526371e-01 1.199532e-02 1.390412e-01 5.479574e-02 1.012403e-02 -1.252855e-01 -3.199920e-02 5.541234e-02 -8.681312e-04
<VARIANCE> 39
 1.391598e+01 2.824344e+01 1.558748e+01 2.164352e+01 2.318983e+01 2.998783e+01 4.441078e+01 2.949021e+01 3.292884e+01 3.327385e+01 2.876895e+01 2.760494e+01 2.595699e-03 2.655185e-01 4.473842e-01 5.348799e-01 1.044606e+00 8.296694e-01 1.013846e+00 9.887379e-01 1.053316e+00 1.400549e+00 1.277035e+00 1.032267e+00 8.828923e-01 3.871250e-05 3.534969e-02 5.960958e-02 8.127794e-02 1.226426e-01 1.385739e-01 1.810920e-01 1.720682e-01 1.771578e-01 1.757177e-01 2.174490e-01 1.975725e-01 1.588444e-01 5.283678e-06
<GCONST> 5.557778e+01
<TRANSP> 5
 0.000000e+00 1.000000e+00 0.000000e+00 0.000000e+00 0.000000e+00
 0.000000e+00 8.625715e-01 1.374285e-01 0.000000e+00 0.000000e+00
 0.000000e+00 0.000000e+00 8.131728e-01 1.868271e-01 0.000000e+00
 0.000000e+00 0.000000e+00 0.000000e+00 9.378909e-01 6.210912e-02
 0.000000e+00 0.000000e+00 0.000000e+00 0.000000e+00 0.000000e+00
<ENDHMM>
~h "sil"
<BEGINHMM>
<NUMSTATES> 5
<STATE> 2
<NUMMIXES> 3
<MIXTURE> 1 5.347528e-01
<MEAN> 39
 5.750579e+00 1.570966e+00 3.118454e+00 3.543132e+00 2.728380e+00 2.939417e-01 -7.775909e-01 -1.302093e+00 1.751831e-02 -4.788808e-01 -3.591921e-01 -1.560021e-01 6.254219e-01 -2.193128e-01 3.161470e-01 8.857627e-01 6.672818e-01 4.993448e-01 3.680589e-01 -1.667245e-01 -2.157533e-01 -9.553047e-02 -1.873801e-02 -2.363592e-02 -2.241170e-02 -2.647981e-02 -2.351664e-01 -1.271324e-01 1.738567e-02 5.071037e-02 4.286820e-02 7.646337e-02 6.358986e-02 3.185615e-02 -9.668835e-03 -4.083480e-03 -7.697557e-03 -2.785259e-02 -4.677911e-03
<VARIANCE> 39
 2.038808e+01 5.010731e+01 4.231628e+01 4.757815e+01 4.208776e+01 4.214581e+01 4.318447e+01 4.256298e+01 4.308714e+01 3.494336e+01 3.439324e+01 3.095846e+01 4.387168e-02 7.502308e-01 9.064960e-01 1.237332e+00 1.316090e+00 1.593800e+00 1.674024e+00 1.963742e+00 1.954259e+00 1.973920e+00 2.033280e+00 1.928196e+00 1.885821e+00 5.404960e-04 9.616608e-02 1.348843e-01 1.938990e-01 1.952089e-01 2.433350e-01 2.778590e-01 3.140549e-01 3.132630e-01 3.370700e-01 3.450578e-01 3.096077e-01 2.850473e-01 6.312793e-05
<GCONST> 8.307669e+01
<MIXTURE> 2 2.664068e-01
<MEAN> 39
 -9.191651e-01 9.411274e-01 4.281621e+00 3.211894e+00 3.276261e+00 3.909256e+00 2.206974e+00 3.213366e+00 3.894879e+00 3.053957e+00 2.281374e+00 2.508028e+00 1.792435e-01 1.415225e+00 3.952329e-01 -9.000779e-01 -9.884099e-01 -1.075972e+00 -1.313544e+00 -1.074121e+00 -1.206071e+00 -9.720376e-01 -1.515953e-01 -5.675554e-02 -4.656546e-02 1.650716e-01 -9.711834e-02 -9.690959e-03 -2.137160e-01 -1.818271e-01 -1.012243e-01 -5.104278e-02 -7.082119e-02 -5.468567e-03 -1.320811e-01 -1.574020e-01 -9.083809e-02 -7.931215e-02 1.372674e-03
<VARIANCE> 39
 3.521303e+01 6.374090e+01 3.679092e+01 3.370210e+01 3.356471e+01 4.250082e+01 3.739281e+01 4.636449e+01 3.489145e+01 4.042502e+01 3.540770e+01 3.027692e+01 9.063330e-02 4.322397e+00 6.583406e+00 4.406065e+00 3.851254e+00 3.790198e+00 4.264641e+00 4.053366e+00 4.022013e+00 3.710930e+00 4.213034e+00 3.689932e+00 3.258409e+00 5.376413e-03 3.889295e-01 4.247664e-01 3.584582e-01 4.217173e-01 3.704500e-01 3.813596e-01 4.334106e-01 4.079982e-01 4.361579e-01 4.610467e-01 4.137534e-01 3.861887e-01 6.793184e-04
<GCONST> 1.067179e+02
<MIXTURE> 3 1.988320e-01
<MEAN> 39
 2.777701e+00 -6.333244e-02 7.686573e+00 1.031146e+01 9.453056e+00 6.063630e+00 3.215045e+00 -3.713703e-01 1.438439e+00 3.932710e-01 -5.069337e-01 -1.324328e+00 4.929001e-01 -1.109377e+00 -1.035826e+00 -2.675540e-01 -1.230784e-02 -1.481910e-01 2.747978e-01 1.346800e-01 9.990597e-02 4.247316e-01 3.888178e-01 3.992395e-01 1.968912e-01 -6.528512e-02 -9.345160e-02 -2.124878e-01 -5.009584e-01 -5.330433e-01 -5.139576e-01 -4.012605e-01 -2.354732e-01 5.451880e-03 1.318663e-02 1.078250e-01 1.700690e-01 2.017644e-01 -1.134535e-02
<VARIANCE> 39
 1.657935e+01 4.042947e+01 3.071798e+01 3.067855e+01 2.914923e+01 3.202167e+01 3.592655e+01 4.476670e+01 4.308296e+01 3.719532e+01 3.739840e+01 2.995021e+01 2.820299e-02 5.206130e-01 1.155274e+00 2.120203e+00 2.158391e+00 2.535518e+00 2.548287e+00 2.452003e+00 2.309743e+00 2.441779e+00 2.220046e+00 2.209443e+00 2.131752e+00 1.398803e-03 8.295858e-02 1.736342e-01 2.457486e-01 2.505546e-01 3.317961e-01 3.551361e-01 4.214593e-01 4.518864e-01 4.942409e-01 4.544313e-01 4.209943e-01 3.909898e-01 9.898978e-05
<GCONST> 8.802467e+01
<STATE> 3
~s "silst"
<STATE> 4
<NUMMIXES> 3
<MIXTURE> 1 2.593446e-01
<MEAN> 39
 -1.087649e+00 -1.285266e+00 6.461369e+00 6.332681e+00 6.068588e+00 4.397468e+00 9.488993e-01 2.588761e+00 3.268507e+00 3.268776e+00 1.660450e+00 1.518243e+00 1.816232e-01 -1.180793e+00 -1.055112e+00 -3.110971e-01 1.197200e-01 6.869515e-01 1.341616e+00 1.521310e+00 1.794587e+00 1.599398e+00 1.254762e+00 7.124048e-01 3.175114e-01 -8.884859e-02 2.537855e-01 1.940234e-01 -6.025100e-02 -1.100499e-01 -1.648851e-01 -2.469253e-01 -1.782390e-01 -1.740090e-01 -1.512399e-01 -1.668314e-01 -1.113080e-01 -8.925445e-02 1.270066e-02
<VARIANCE> 39
 1.840224e+01 3.559894e+01 2.743333e+01 3.224425e+01 3.159805e+01 3.851487e+01 4.348015e+01 4.013398e+01 4.164856e+01 3.874468e+01 4.084227e+01 3.371413e+01 2.606088e-02 9.245228e-01 1.135361e+00 1.610651e+00 1.730118e+00 2.194364e+00 2.631517e+00 2.562644e+00 2.754487e+00 2.806431e+00 2.974866e+00 3.477680e+00 3.409146e+00 2.573124e-03 7.590994e-02 1.298219e-01 1.685463e-01 1.740584e-01 2.637872e-01 3.173575e-01 3.695453e-01 4.033602e-01 4.238343e-01 4.446438e-01 4.059047e-01 3.552641e-01 1.499595e-04
<GCONST> 8.895263e+01
<MIXTURE> 2 3.209833e-01
<MEAN> 39
 4.425701e+00 2.652894e+00 1.473117e+00 -6.404901e-02 1.358313e-01 -1.678650e+00 -3.562030e+00 -2.541147e+00 -1.908654e+00 -4.828805e-01 -1.083380e-01 4.645972e-01 6.435905e-01 -6.726565e-01 -4.670649e-01 -6.239135e-01 -3.930552e-01 -5.230883e-02 1.993866e-02 1.517319e-01 2.646092e-01 -8.654618e-02 8.251399e-02 1.143181e-02 -1.335654e-01 3.211415e-02 -5.018790e-01 -2.476868e-01 3.891227e-02 1.441616e-01 2.326216e-01 3.703223e-01 4.424699e-01 4.708846e-01 4.455450e-01 2.125902e-01 1.171567e-01 7.399864e-02 -2.659827e-02
<VARIANCE> 39
 3.830529e+01 6.291277e+01 5.976426e+01 5.359441e+01 4.171836e+01 4.288630e+01 4.897823e+01 5.092324e+01 4.838987e+01 4.503347e+01 4.988545e+01 4.477412e+01 3.824267e-02 2.939844e+00 3.118019e+00 3.065829e+00 3.085457e+00 2.470485e+00 2.945019e+00 3.309067e+00 3.900756e+00 4.495219e+00 3.799308e+00 3.750499e+00 3.828203e+00 1.100155e-02 3.967566e-01 4.047224e-01 5.119132e-01 4.933441e-01 3.975629e-01 5.075080e-01 5.999911e-01 6.328561e-01 6.288080e-01 6.011609e-01 6.654577e-01 6.290399e-01 3.552081e-04
<GCONST> 1.094185e+02
<MIXTURE> 3 4.196692e-01
<MEAN> 39
 -4.314320e+00 -2.892345e+00 2.284161e+00 4.495588e+00 3.908411e+00 4.919965e+00 2.202313e+00 3.049601e+00 3.800630e+00 2.485591e+00 2.467864e+00 1.780633e+00 9.975073e-02 -7.145969e-01 -1.915531e-01 -4.672495e-01 -1.220918e-01 -3.151095e-01 -1.892555e-01 -2.372325e-01 -6.112258e-02 -7.359727e-02 2.158610e-02 1.715494e-01 1.235928e-01 -1.793262e-02 1.686054e-01 1.801238e-01 1.122688e-01 9.965566e-02 8.265061e-02 3.995291e-03 -1.404306e-02 -7.183565e-02 -6.155202e-02 -7.355308e-02 -8.467419e-02 -6.242734e-02 8.747509e-03
<VARIANCE> 39
 3.268359e+01 4.006958e+01 2.777077e+01 2.749927e+01 3.332612e+01 3.011549e+01 3.978035e+01 4.601100e+01 3.210963e+01 3.026212e+01 3.070519e+01 2.608369e+01 2.128934e-02 9.332791e-01 1.112455e+00 1.419419e+00 1.776520e+00 1.730464e+00 1.808953e+00 2.065817e+00 1.951816e+00 2.187213e+00 1.976689e+00 1.871842e+00 1.826091e+00 3.018396e-03 8.782730e-02 1.848422e-01 1.939709e-01 2.072189e-01 2.596098e-01 2.866437e-01 3.101164e-01 3.263771e-01 3.487883e-01 3.064241e-01 3.009695e-01 2.974520e-01 1.424648e-04
<GCONST> 8.429068e+01
<TRANSP> 5
 0.000000e+00 1.000000e+00 0.000000e+00 0.000000e+00 0.000000e+00
 0.000000e+00 7.161680e-01 8.580163e-02 1.980303e-01 0.000000e+00
 0.000000e+00 0.000000e+00 6.981197e-01 3.018803e-01 0.000000e+00
 0.000000e+00 1.414631e-02 0.000000e+00 6.671072e-01 3.187465e-01
 0.000000e+00 0.000000e+00 0.000000e+00 0.000000e+00 0.000000e+00
<ENDHMM>
