~o
<STREAMINFO> 1 39
<VECSIZE> 39<NULLD><MFCC_E_D_A_Z><DIAGC>
~s "silst"
<NUMMIXES> 3
<MIXTURE> 1 3.510669e-01
<MEAN> 39
 1.626174e+00 4.260639e+00 6.689629e+00 4.952921e+00 2.351102e+00 1.987782e+00 -1.500530e+00 -1.000323e+00 -8.155006e-01 -7.131433e-01 -2.617937e-01 -8.260019e-02 5.531748e-01 -2.429942e+00 -1.279249e+00 -3.600663e-01 1.372435e+00 1.329134e+00 1.865616e+00 1.325139e+00 1.580910e+00 8.650045e-01 9.515700e-01 1.005363e+00 6.040779e-01 -1.118882e-01 -3.756953e-01 -4.836788e-01 -7.183470e-01 -5.405433e-01 -2.721526e-01 -1.407464e-01 2.746184e-01 3.685809e-01 3.839230e-01 2.539130e-01 1.498953e-01 6.765943e-02 -5.023552e-03
<VARIANCE> 39
 2.939020e+01 4.364553e+01 2.431893e+01 3.284204e+01 3.139997e+01 4.475922e+01 4.337769e+01 4.298493e+01 3.935322e+01 3.547869e+01 3.223240e+01 3.130304e+01 2.625465e-02 2.053444e+00 2.328352e+00 3.235671e+00 3.246242e+00 3.028853e+00 3.424088e+00 3.685616e+00 4.088730e+00 3.806246e+00 4.121912e+00 3.272403e+00 3.019447e+00 1.651792e-03 4.510818e-01 4.834880e-01 3.838186e-01 4.799155e-01 5.189786e-01 7.315409e-01 6.933437e-01 7.261884e-01 6.757563e-01 6.225188e-01 5.516972e-01 5.270799e-01 5.163201e-04
<GCONST> 1.038808e+02
<MIXTURE> 2 4.263600e-01
<MEAN> 39
 4.132806e+00 6.138809e-01 3.739082e+00 -3.835201e+00 -4.152225e+00 -2.092608e+00 -2.504451e-01 -2.637460e+00 1.604032e-01 -7.261929e-01 -2.525890e+00 -1.483913e+00 8.168693e-01 -6.273374e-02 1.373046e+00 1.286884e+00 5.693731e-01 4.088526e-01 7.781890e-01 -5.520120e-01 -1.333818e-01 3.456989e-01 8.653884e-02 1.594989e-01 2.509573e-01 -3.271291e-02 -4.233103e-01 -9.470139e-02 -3.216011e-01 4.992061e-01 4.630045e-01 1.812171e-01 7.988340e-02 3.791705e-01 -3.112222e-02 -9.489788e-03 2.333363e-01 1.561673e-01 -1.164916e-02
<VARIANCE> 39
 2.111794e+01 5.675471e+01 4.593170e+01 4.470351e+01 3.912113e+01 4.651453e+01 6.912597e+01 5.210657e+01 4.720776e+01 4.974140e+01 3.734137e+01 3.859044e+01 9.133373e-03 1.894231e+00 2.788443e+00 3.269310e+00 5.635499e+00 3.734413e+00 4.481315e+00 4.673050e+00 4.712641e+00 4.414535e+00 3.830395e+00 3.483556e+00 3.400040e+00 8.593665e-04 3.521388e-01 4.614589e-01 7.505944e-01 7.902892e-01 6.684372e-01 8.321238e-01 9.911824e-01 8.953928e-01 8.804396e-01 8.434882e-01 6.757454e-01 6.275231e-01 2.345840e-04
<GCONST> 1.085971e+02
<MIXTURE> 3 2.225660e-01
<MEAN> 39
 9.496327e-01 1.240899e+00 2.562993e+00 -2.401771e-01 3.068523e-02 -1.481376e-01 -9.972013e-01 2.503713e-01 2.256346e+00 2.209643e+00 3.375102e+00 3.202072e+00 5.077092e-01 -5.390882e-02 6.542984e-01 -7.557305e-01 -8.452030e-01 -5.875300e-01 -5.612447e-01 -3.620936e-01 -2.893089e-02 -2.056144e-01 -9.492590e-02 -6.645225e-02 -2.471652e-01 2.988214e-02 -1.526328e-01 2.603270e-04 -1.381610e-01 -6.224249e-02 4.993809e-02 5.564693e-02 1.634555e-01 1.498422e-01 7.618384e-03 -1.084166e-01 -2.505125e-01 -2.659163e-01 2.840824e-03
<VARIANCE> 39
 4.141171e+01 6.764558e+01 5.586253e+01 4.934341e+01 4.601143e+01 5.780743e+01 6.004355e+01 5.795269e+01 5.116517e+01 5.690280e+01 6.246525e+01 5.744734e+01 9.231844e-02 4.735116e+00 4.306217e+00 4.435493e+00 4.792949e+00 4.491320e+00 5.294744e+00 5.692062e+00 5.151884e+00 4.943475e+00 4.765868e+00 5.017223e+00 4.621062e+00 9.807438e-03 6.598649e-01 6.056930e-01 7.460070e-01 9.572732e-01 8.672224e-01 9.527736e-01 1.023136e+00 9.975979e-01 8.995658e-01 8.940400e-01 9.337532e-01 8.468270e-01 9.810665e-04
<GCONST> 1.228507e+02
~h "#i"
<BEGINHMM>
<NUMSTATES> 5
<STATE> 2
<NUMMIXES> 2
<MIXTURE> 1 4.186544e-01
<MEAN> 39
 -1.470559e+00 1.159430e+01 -4.316622e+00 -2.977543e+00 -7.072311e+00 -6.995212e+00 -4.896871e+00 -2.505533e+00 -4.176662e+00 -3.047478e+00 -3.096634e+00 7.835338e-01 8.391358e-01 -2.409653e-01 2.154085e-01 -1.651527e-01 3.116205e-01 -2.753329e-01 -7.628502e-02 -4.072894e-01 -4.818660e-01 -4.008588e-01 -3.278418e-01 -5.394244e-02 2.547725e-01 1.441453e-02 2.048217e-01 1.262904e-02 2.339856e-01 1.001549e-01 2.857861e-01 2.566609e-01 2.992939e-01 3.455662e-01 3.901765e-01 3.187596e-01 2.484173e-01 1.175626e-01 -3.955205e-03
<VARIANCE> 39
 1.345533e+01 2.987877e+01 2.246354e+01 2.077257e+01 1.959731e+01 2.632697e+01 3.342162e+01 3.064308e+01 3.030590e+01 3.070756e+01 5.284406e+01 6.041682e+01 8.444899e-03 6.319683e-01 8.940792e-01 9.356398e-01 1.261074e+00 1.287354e+00 1.593165e+00 1.864054e+00 1.813128e+00 1.796218e+00 2.196263e+00 2.989643e+00 3.240325e+00 4.039216e-04 8.288829e-02 1.212570e-01 1.404880e-01 2.171512e-01 2.104231e-01 2.680777e-01 2.627122e-01 2.664428e-01 2.717565e-01 3.165315e-01 4.296499e-01 4.293777e-01 5.714423e-05
<GCONST> 7.694916e+01
<MIXTURE> 2 5.813417e-01
<MEAN> 39
 7.373537e-01 1.213528e+01 -9.215348e-01 -2.667089e+00 -3.924622e+00 -4.395649e+00 -2.594727e+00 1.971704e+00 3.164277e-01 7.027572e-01 6.924230e-01 9.419121e-01 7.585709e-01 -3.467577e-01 1.109293e+00 -4.698322e-01 4.651817e-01 -5.223861e-01 -4.220711e-01 -7.913586e-01 -5.564083e-01 -5.815966e-01 -5.185015e-01 -1.062575e-01 -5.876081e-02 1.674228e-02 -4.967222e-02 -4.823774e-01 1.607070e-02 1.219661e-02 -9.354309e-02 1.152490e-01 -1.673743e-02 -1.384848e-01 -1.609158e-01 -1.240055e-01 -1.650739e-01 -9.464445e-02 -1.110861e-03
<VARIANCE> 39
 1.318800e+01 3.428247e+01 2.254062e+01 2.984444e+01 2.173042e+01 2.493946e+01 5.186470e+01 2.828811e+01 3.065289e+01 3.358688e+01 3.638029e+01 4.282560e+01 1.355527e-02 7.950102e-01 1.998605e+00 1.244666e+00 1.984367e+00 1.753050e+00 2.261478e+00 2.162847e+00 2.459452e+00 2.545281e+00 2.934590e+00 3.512699e+00 2.851009e+00 1.016813e-03 1.389819e-01 2.874340e-01 2.312749e-01 4.006731e-01 3.981714e-01 4.493487e-01 4.196569e-01 4.068095e-01 3.906150e-01 4.373803e-01 4.581883e-01 5.122485e-01 2.858018e-04
<GCONST> 8.925140e+01
<STATE> 3
<NUMMIXES> 2
<MIXTURE> 1 5.876225e-01
<MEAN> 39
 -6.818397e-01 1.213815e+01 -2.311635e+00 -1.345281e+00 -5.541363e+00 -5.275690e+00 -5.383818e+00 -1.273261e+00 -2.222106e+00 -2.323617e+00 -1.089444e+00 -2.749932e-01 8.840278e-01 9.033184e-02 8.410681e-02 7.490797e-02 1.042052e-01 1.650585e-01 3.287590e-02 1.350103e-01 5.492152e-02 2.133379e-01 1.391647e-01 1.292695e-01 -3.324570e-03 7.930812e-04 2.888099e-02 -6.817675e-02 2.639536e-02 -6.899767e-02 7.993126e-02 -4.349693e-03 6.905656e-02 2.063680e-02 4.945506e-02 3.995334e-02 8.925404e-04 -4.118299e-04 -1.962188e-03
<VARIANCE> 39
 1.181800e+01 4.598709e+01 1.988847e+01 1.645084e+01 2.153221e+01 2.650651e+01 3.492946e+01 2.650707e+01 2.508640e+01 2.944420e+01 4.440042e+01 3.717783e+01 6.152056e-03 2.254280e-01 4.319200e-01 5.462358e-01 7.455758e-01 8.240708e-01 8.912088e-01 1.031906e+00 9.620992e-01 1.025488e+00 9.841869e-01 9.605877e-01 9.013169e-01 9.184087e-05 4.203605e-02 8.034983e-02 1.145985e-01 1.340552e-01 1.621310e-01 1.732833e-01 1.974419e-01 2.043667e-01 1.929392e-01 1.764341e-01 1.796686e-01 1.654582e-01 9.650214e-06
<GCONST> 5.779928e+01
<MIXTURE> 2 4.123659e-01
<MEAN> 39
 -1.490281e+00 1.202864e+01 -1.654014e+00 -1.275602e+00 -4.111287e+00 -4.697058e+00 -5.450502e+00 -5.343941e-01 -1.752635e+00 -2.132603e+00 6.341007e-01 2.368685e-01 8.920153e-01 -1.122482e-03 -2.386452e-02 -7.112078e-02 -7.142778e-02 -7.352179e-03 -1.021704e-01 -1.474339e-02 -9.396653e-02 1.091434e-02 -5.553710e-02 -4.055286e-02 -7.175043e-02 -5.990393e-05 -1.038350e-03 -3.772472e-02 8.836389e-04 -5.804199e-02 -1.576554e-02 -4.388710e-02 5.935524e-03 -8.541590e-03 7.130432e-03 2.530358e-03 -1.468821e-02 -1.860655e-02 -1.055971e-03
<VARIANCE> 39
 9.481729e+00 4.728872e+01 1.351682e+01 1.210600e+01 1.564148e+01 2.073867e+01 2.946253e+01 1.835782e+01 2.305722e+01 2.964983e+01 3.981985e+01 3.529974e+01 6.545600e-03 8.695457e-02 1.565749e-01 2.099597e-01 2.677116e-01 2.992769e-01 3.287881e-01 3.420241e-01 3.673138e-01 3.682979e-01 3.457104e-01 3.010431e-01 3.359841e-01 3.754082e-05 1.355568e-02 2.272017e-02 3.226886e-02 3.990827e-02 4.997569e-02 5.349567e-02 5.672854e-02 5.494236e-02 6.352036e-02 6.079419e-02 5.308731e-02 6.175604e-02 3.730628e-06
<GCONST> 2.738001e+01
<STATE> 4
<NUMMIXES> 2
<MIXTURE> 1 5.326151e-01
<MEAN> 39
 -5.152269e-01 1.129667e+01 -1.737507e-01 -6.063434e+00 -2.491698e+00 -6.770798e+00 -4.732749e+00 -3.426727e-01 -7.142840e-01 -1.906863e+00 1.175426e-01 -1.772046e+00 8.321895e-01 7.619257e-01 -1.094246e+00 1.247984e+00 1.147949e-01 9.004364e-01 1.178962e+00 7.630682e-01 4.760247e-01 1.363302e-01 1.995870e-01 -1.967667e-01 -1.910194e-01 -2.879901e-02 1.544887e-02 -1.547144e-01 7.571194e-02 6.935970e-01 7.151423e-04 4.899197e-01 1.137146e-01 2.933877e-03 -3.228296e-02 8.372826e-04 2.881857e-02 1.378991e-01 -1.049461e-02
<VARIANCE> 39
 1.702241e+01 3.505968e+01 2.807073e+01 3.362964e+01 2.262222e+01 3.055720e+01 3.502272e+01 2.994053e+01 2.926332e+01 2.891986e+01 3.466102e+01 3.765042e+01 7.982354e-03 8.807310e-01 1.833531e+00 2.036230e+00 3.222096e+00 2.560419e+00 2.506934e+00 3.035791e+00 2.477299e+00 2.490090e+00 2.487860e+00 3.477779e+00 3.161733e+00 5.359046e-04 2.501764e-01 2.086381e-01 3.491620e-01 4.099247e-01 4.301578e-01 4.476262e-01 3.956293e-01 4.354035e-01 4.066257e-01 3.711657e-01 3.833424e-01 3.982893e-01 1.163334e-04
<GCONST> 8.929160e+01
<MIXTURE> 2 4.673806e-01
<MEAN> 39
 -3.170879e-01 1.231590e+01 -4.912121e+00 -1.511382e+00 -5.503659e+00 -6.302073e+00 -2.668114e+00 -1.313850e+00 2.179872e+00 1.706065e+00 2.170257e+00 3.547529e+00 8.865234e-01 -3.420331e-02 -4.746256e-01 1.707387e-01 -7.771918e-01 4.792926e-01 -4.318156e-01 1.110638e-01 -1.315477e-02 6.135311e-02 6.586811e-02 -2.825477e-02 -2.953455e-01 -4.863888e-03 7.864121e-02 -1.965675e-01 2.457589e-01 -1.437734e-01 1.163064e-01 8.200733e-02 -1.399789e-02 7.894137e-02 -1.280994e-01 -7.377206e-02 -1.027872e-01 -1.326719e-01 -4.001776e-03
<VARIANCE> 39
 2.393618e+01 3.127583e+01 2.934527e+01 2.299928e+01 2.758816e+01 2.791237e+01 3.784122e+01 3.674741e+01 5.569362e+01 7.454572e+01 8.886725e+01 9.058604e+01 6.059478e-03 6.092931e-01 8.181196e-01 1.249254e+00 1.702062e+00 1.574455e+00 1.690596e+00 1.767736e+00 1.674837e+00 1.616080e+00 1.863064e+00 1.894429e+00 1.955101e+00 1.202435e-04 1.058727e-01 1.675170e-01 2.687057e-01 2.434005e-01 3.014166e-01 3.473307e-01 3.512271e-01 3.306996e-01 2.957886e-01 3.971567e-01 3.610435e-01 3.784187e-01 2.231384e-05
<GCONST> 8.040942e+01
<TRANSP> 5
 0.000000e+00 1.000000e+00 0.000000e+00 0.000000e+00 0.000000e+00
 0.000000e+00 8.221853e-01 1.778147e-01 0.000000e+00 0.000000e+00
 0.000000e+00 0.000000e+00 9.109759e-01 8.902412e-02 0.000000e+00
 0.000000e+00 0.000000e+00 0.000000e+00 7.939522e-01 2.060478e-01
 0.000000e+00 0.000000e+00 0.000000e+00 0.000000e+00 0.000000e+00
<ENDHMM>
~h "#u"
<BEGINHMM>
<NUMSTATES> 5
<STATE> 2
<NUMMIXES> 2
<MIXTURE> 1 5.023746e-01
<MEAN> 39
 8.346434e+00 -4.273572e+00 -1.002981e+01 8.806682e-01 3.930176e+00 -4.391159e+00 -4.639102e+00 2.566909e-01 2.603933e+00 1.793443e+00 -3.902112e+00 -4.198691e+00 8.721521e-01 9.778821e-01 1.044841e+00 -3.746543e-01 -9.383011e-01 5.297710e-01 1.422818e+00 -1.185120e-01 -1.348904e+00 5.738770e-02 1.595385e+00 1.027485e+00 -3.081226e-01 -9.306257e-03 -1.471572e-01 -1.535231e-03 3.305380e-01 -7.889548e-02 -4.655299e-01 1.021388e-01 5.411752e-01 2.127894e-02 -5.846977e-01 -2.460678e-01 3.605438e-01 3.598065e-01 -3.108424e-04
<VARIANCE> 39
 1.684694e+01 2.687608e+01 2.948504e+01 2.482490e+01 2.580388e+01 3.553944e+01 3.095217e+01 4.279331e+01 3.093645e+01 3.885359e+01 3.908429e+01 3.336275e+01 5.773798e-03 4.009500e-01 6.527343e-01 1.259442e+00 1.477517e+00 2.300167e+00 2.081251e+00 3.011955e+00 2.765446e+00 2.999864e+00 2.452159e+00 2.830487e+00 2.991364e+00 1.572251e-04 5.550515e-02 1.024831e-01 1.850241e-01 2.685191e-01 3.040547e-01 4.492982e-01 4.162035e-01 5.596324e-01 3.888214e-01 5.290141e-01 4.744291e-01 3.787454e-01 1.528478e-05
<GCONST> 7.984326e+01
<MIXTURE> 2 4.976203e-01
<MEAN> 39
 5.310921e+00 -4.728405e+00 -4.676879e+00 -1.952377e-01 -3.931392e+00 -5.493920e+00 -6.115536e-02 1.845460e-01 -3.234572e+00 -2.252819e+00 -1.753739e+00 -9.392392e-01 8.854866e-01 1.085917e+00 -2.294364e-02 -1.159470e+00 7.496159e-01 9.118364e-01 -8.830328e-01 -6.466118e-01 7.857914e-01 4.818299e-01 -2.695295e-01 -4.527881e-01 -4.215638e-01 4.807909e-04 -2.792971e-02 3.066764e-01 6.154735e-02 -2.696839e-01 4.329080e-01 3.933087e-01 -3.290861e-01 -2.764710e-01 4.041416e-01 3.270132e-01 3.050828e-02 -2.363106e-02 -4.003083e-03
<VARIANCE> 39
 3.262453e+01 4.462231e+01 3.920315e+01 4.293465e+01 4.680500e+01 5.126216e+01 5.071875e+01 5.749568e+01 3.410866e+01 4.368223e+01 4.622469e+01 5.212758e+01 6.573498e-03 1.179289e+00 1.682536e+00 2.459541e+00 3.740096e+00 3.878576e+00 3.533026e+00 4.660068e+00 4.076570e+00 4.101417e+00 3.101133e+00 3.095448e+00 3.986642e+00 4.069886e-04 1.256468e-01 2.517730e-01 4.042228e-01 6.620349e-01 6.191050e-01 8.138397e-01 8.043686e-01 1.004491e+00 5.809614e-01 6.636137e-01 5.935541e-01 6.657149e-01 6.734939e-05
<GCONST> 1.007767e+02
<STATE> 3
<NUMMIXES> 2
<MIXTURE> 1 5.219234e-01
<MEAN> 39
 9.861398e+00 2.359820e+00 -7.112589e+00 -1.866569e+00 2.001831e+00 9.035060e-01 -4.539342e-01 -9.008126e-01 -4.630356e-01 3.133864e+00 2.673507e+00 5.428430e-01 8.226716e-01 1.089779e-01 2.262988e-01 1.523870e-01 -1.392161e-02 4.696334e-02 2.530671e-01 1.465435e-01 -2.158023e-02 5.730532e-02 7.864281e-02 1.915192e-01 1.775459e-01 -7.308659e-03 -3.723399e-02 -4.701383e-02 2.447771e-02 5.242878e-03 7.728254e-04 -2.523007e-02 -5.115559e-02 8.847334e-03 1.500257e-02 -2.902799e-03 -7.450893e-02 -8.090018e-02 -9.557609e-04
<VARIANCE> 39
 2.425287e+01 2.422792e+01 2.979978e+01 1.813946e+01 2.259443e+01 1.720648e+01 1.961612e+01 1.971123e+01 2.277621e+01 2.595604e+01 2.341158e+01 2.279370e+01 1.259306e-02 1.746401e-01 3.641725e-01 5.084827e-01 5.481426e-01 5.746034e-01 7.685153e-01 8.961787e-01 9.437478e-01 1.056201e+00 9.915864e-01 1.155850e+00 1.039989e+00 1.053044e-04 2.428349e-02 5.090426e-02 8.167539e-02 9.085719e-02 1.020087e-01 1.338674e-01 1.646970e-01 1.737207e-01 1.752694e-01 1.782774e-01 1.938724e-01 1.666537e-01 1.035860e-05
<GCONST> 5.278490e+01
<MIXTURE> 2 4.780634e-01
<MEAN> 39
 1.229678e+01 7.023299e-01 -8.025999e+00 -3.147773e+00 1.016961e+00 1.261688e+00 -1.137268e+00 -2.344041e+00 -1.946316e+00 2.416186e+00 1.368200e+00 -1.566509e+00 8.065098e-01 8.132807e-02 7.692957e-02 2.197407e-01 2.061026e-01 1.235626e-01 1.547890e-01 -4.206807e-02 8.369755e-02 1.792429e-01 1.806445e-01 1.574876e-01 -3.670147e-02 -5.321768e-03 -1.034046e-01 -8.326872e-02 6.374487e-02 2.003306e-01 7.491362e-02 -2.077029e-01 -1.061851e-01 1.859101e-01 2.550884e-01 -2.582150e-02 -1.584120e-01 -3.642343e-02 -1.340219e-03
<VARIANCE> 39
 1.482877e+01 3.312659e+01 2.633340e+01 2.082290e+01 2.843919e+01 2.913971e+01 2.650656e+01 3.154172e+01 3.238586e+01 3.503288e+01 4.174463e+01 5.392418e+01 1.109707e-02 3.807024e-01 8.454469e-01 1.184276e+00 1.300156e+00 1.408957e+00 1.545074e+00 2.075171e+00 2.014180e+00 2.283312e+00 2.244851e+00 2.264918e+00 2.563113e+00 2.868454e-04 5.976122e-02 1.216250e-01 1.826508e-01 2.077880e-01 2.319974e-01 3.437557e-01 3.303317e-01 4.348300e-01 3.703954e-01 4.027583e-01 4.421119e-01 4.276903e-01 2.821882e-05
<GCONST> 7.791566e+01
<STATE> 4
<NUMMIXES> 2
<MIXTURE> 1 5.970621e-01
<MEAN> 39
 1.184002e+01 1.192579e-01 -7.000987e+00 1.288387e+00 5.135559e+00 -7.517627e-01 -4.227230e+00 1.604572e-01 4.239013e+00 6.137138e+00 -1.050268e-02 -3.372778e+00 7.603164e-01 -8.162795e-01 -5.591649e-01 1.103297e+00 1.410633e+00 -1.360651e-01 -1.712447e+00 -1.498823e-01 1.941522e+00 1.131797e+00 -9.773760e-01 -1.168094e+00 6.706384e-02 -1.067790e-02 -3.156008e-01 1.607326e-02 5.746432e-01 -3.180574e-02 -5.857039e-01 -1.661989e-01 6.636679e-01 2.409288e-01 -5.290942e-01 -5.863208e-01 1.675276e-01 4.275263e-01 -1.694499e-03
<VARIANCE> 39
 1.391726e+01 3.561195e+01 3.053461e+01 2.337156e+01 2.187006e+01 3.651158e+01 3.182356e+01 3.013648e+01 3.447727e+01 3.481483e+01 4.074586e+01 4.012709e+01 1.423959e-02 5.202544e-01 9.528517e-01 1.957294e+00 1.713579e+00 2.514863e+00 3.402153e+00 3.162053e+00 3.565532e+00 3.322040e+00 3.606775e+00 2.648699e+00 3.462591e+00 3.918161e-04 9.840029e-02 1.882791e-01 3.371149e-01 3.492795e-01 4.690465e-01 5.474647e-01 5.739602e-01 6.094975e-01 5.900226e-01 5.395501e-01 6.260122e-01 4.684273e-01 5.101053e-05
<GCONST> 8.938002e+01
<MIXTURE> 2 4.029334e-01
<MEAN> 39
 8.123249e+00 -3.366512e+00 2.891405e-02 5.921303e+00 -2.020945e+00 -1.021727e+01 8.323352e-01 8.630292e+00 2.998245e+00 -6.627352e-01 -1.470714e+00 -3.795710e-01 7.960965e-01 -1.773588e+00 4.566768e-01 3.425426e+00 -6.736670e-01 -2.930188e+00 1.250425e-01 2.530370e+00 -2.362692e-01 -1.541393e+00 -6.305372e-01 9.896491e-01 6.312106e-01 -6.038699e-03 -1.828936e-01 6.929577e-01 9.482022e-02 -8.166828e-01 4.057175e-01 1.362274e+00 -3.698989e-01 -1.373341e+00 -4.299686e-02 6.259575e-01 1.803916e-01 -3.010217e-01 -5.129294e-03
<VARIANCE> 39
 1.499128e+01 2.630469e+01 4.644835e+01 2.169351e+01 4.223211e+01 3.354721e+01 5.876631e+01 3.232648e+01 4.124432e+01 3.771126e+01 4.411210e+01 4.056725e+01 9.678691e-03 9.999794e-01 2.843604e+00 3.664247e+00 4.252873e+00 2.865530e+00 6.732099e+00 3.768824e+00 7.012877e+00 3.204754e+00 4.723847e+00 3.203737e+00 3.245197e+00 2.694828e-04 2.185810e-01 3.463952e-01 8.325893e-01 5.538707e-01 1.181862e+00 7.059473e-01 1.285156e+00 6.461129e-01 1.031122e+00 6.545153e-01 8.173573e-01 5.837938e-01 6.447625e-05
<GCONST> 1.019377e+02
<TRANSP> 5
 0.000000e+00 1.000000e+00 0.000000e+00 0.000000e+00 0.000000e+00
 0.000000e+00 8.065896e-01 1.934104e-01 0.000000e+00 0.000000e+00
 0.000000e+00 0.000000e+00 9.191179e-01 8.088207e-02 0.000000e+00
 0.000000e+00 0.000000e+00 0.000000e+00 7.429838e-01 2.570162e-01
 0.000000e+00 0.000000e+00 0.000000e+00 0.000000e+00 0.000000e+00
<ENDHMM>
~h "ba"
<BEGINHMM>
<NUMSTATES> 5
<STATE> 2
<NUMMIXES> 2
<MIXTURE> 1 6.392769e-01
<MEAN> 39
 -1.367056e+00 -8.646376e-02 2.273491e+00 1.484677e+00 3.800306e+00 4.262948e+00 3.919317e+00 4.833930e+00 3.994100e+00 2.202711e+00 2.340710e+00 5.589461e-01 1.524036e-01 -1.065369e-01 -1.104943e+00 -4.450093e-01 4.822131e-02 2.134317e-01 4.120952e-01 6.381747e-01 5.241207e-01 3.370998e-01 5.120147e-01 3.713559e-01 3.830126e-01 3.862169e-02 5.143847e-01 -2.287317e-01 -1.305794e-01 1.858506e-01 1.565845e-02 -3.017284e-01 -2.415381e-01 -4.056905e-01 -5.376641e-01 -1.113345e-01 -1.411392e-01 1.153664e-01 5.137116e-02
<VARIANCE> 39
 1.331417e+01 5.275563e+01 2.709165e+01 3.369380e+01 3.396023e+01 3.513948e+01 3.595467e+01 3.901756e+01 3.216460e+01 3.467989e+01 3.342420e+01 2.463459e+01 4.374758e-02 2.611272e+00 4.219841e+00 2.683358e+00 2.428396e+00 2.662212e+00 3.106561e+00 3.082488e+00 4.269969e+00 4.303965e+00 3.665275e+00 2.963968e+00 2.475851e+00 1.597144e-02 3.247557e-01 7.622368e-01 5.483356e-01 4.371153e-01 5.528226e-01 5.615486e-01 5.747567e-01 8.640236e-01 8.067037e-01 6.910200e-01 6.272719e-01 4.757650e-01 1.196870e-03
<GCONST> 1.063427e+02
<MIXTURE> 2 3.607197e-01
<MEAN> 39
 4.465477e+00 -6.768004e+00 -2.373927e+00 2.953112e+00 5.319959e+00 3.324051e+00 4.583019e+00 3.978114e+00 -2.368013e-01 2.945721e+00 3.474350e+00 4.030828e+00 8.135130e-01 1.520019e-01 -3.940734e+00 -2.241086e+00 1.025667e+00 6.181800e-01 -1.051283e+00 -6.669656e-01 -1.540768e+00 -2.498273e+00 -6.036472e-02 -3.186123e-01 6.200414e-01 1.614417e-01 -8.598992e-01 9.047303e-02 3.503459e-01 1.304454e-01 -1.998896e-01 -4.192847e-01 -5.369534e-01 -5.431179e-01 -8.727945e-02 -2.555540e-01 -3.761480e-01 -4.535102e-01 -4.298311e-02
<VARIANCE> 39
 1.083054e+01 4.172178e+01 3.161815e+01 2.421388e+01 2.355962e+01 2.943600e+01 2.456600e+01 3.038146e+01 4.892986e+01 6.811649e+01 3.249770e+01 2.403947e+01 8.987420e-03 2.736193e+00 3.515725e+00 3.523938e+00 2.618476e+00 3.278163e+00 4.426281e+00 4.195479e+00 6.524183e+00 6.691219e+00 4.784585e+00 4.682996e+00 4.041757e+00 4.468066e-03 2.653950e-01 7.454404e-01 5.540193e-01 4.078105e-01 4.788656e-01 5.717869e-01 5.744644e-01 7.693425e-01 9.512742e-01 1.218648e+00 9.188794e-01 5.905716e-01 6.165984e-04
<GCONST> 1.060407e+02
<STATE> 3
<NUMMIXES> 2
<MIXTURE> 1 5.515770e-01
<MEAN> 39
 -2.573917e+00 -1.462564e+01 -2.711582e+00 6.450080e+00 4.621951e+00 -2.247592e+00 -1.051528e+00 -3.723516e+00 -4.889791e+00 1.770979e+00 8.722521e-02 7.918915e-01 9.529451e-01 -8.709537e-01 -3.359997e-01 7.831134e-01 4.657951e-01 -6.150791e-01 -1.008630e+00 -6.810974e-01 -7.010571e-01 1.166978e-01 -3.408754e-01 -5.471436e-01 -6.756386e-01 5.599139e-03 4.184566e-01 5.050612e-01 1.215645e-01 -1.539272e-01 -5.457027e-02 2.976798e-01 4.063658e-01 5.226858e-01 3.031180e-01 4.404302e-02 2.190373e-01 2.033080e-01 -9.674178e-03
<VARIANCE> 39
 1.197964e+01 2.940971e+01 3.868275e+01 2.351905e+01 2.276924e+01 2.446522e+01 2.240608e+01 2.637633e+01 4.814431e+01 2.360494e+01 3.486748e+01 3.148032e+01 1.797774e-03 4.019962e-01 3.798667e-01 7.525080e-01 9.278571e-01 1.385871e+00 1.190117e+00 1.358261e+00 1.670433e+00 1.515568e+00 2.928374e+00 1.682308e+00 1.179968e+00 8.925808e-05 8.430486e-02 1.370968e-01 1.545746e-01 1.727649e-01 2.122660e-01 2.598147e-01 2.671532e-01 2.717788e-01 3.284015e-01 3.494846e-01 4.743643e-01 3.201042e-01 5.828714e-05
<GCONST> 6.930440e+01
<MIXTURE> 2 4.484192e-01
<MEAN> 39
 3.407061e-02 -1.362222e+01 -3.887181e+00 5.407261e+00 5.897331e+00 8.499365e-01 1.756772e+00 -1.134709e+00 -3.976153e+00 2.863549e+00 1.697685e+00 3.563210e+00 9.296565e-01 -1.969609e+00 -1.983198e+00 1.981153e-01 9.546276e-01 -2.576480e-01 -1.479997e+00 -1.500860e+00 -1.973301e+00 -1.009713e+00 -5.146537e-01 -9.904948e-01 -7.420049e-01 3.663621e-02 -2.163131e-01 1.052444e+00 8.369716e-01 -1.547382e-01 -3.380296e-01 3.203355e-02 5.778351e-03 2.988937e-01 6.648152e-01 -1.525562e-01 -3.109438e-02 -3.708363e-01 -4.119099e-02
<VARIANCE> 39
 1.229964e+01 2.785500e+01 3.611357e+01 2.344421e+01 1.952952e+01 2.912766e+01 2.466714e+01 3.564637e+01 6.751634e+01 4.719520e+01 2.789709e+01 2.724008e+01 2.372900e-03 9.737149e-01 1.523405e+00 1.795857e+00 1.548616e+00 2.422846e+00 2.315099e+00 2.522524e+00 2.711152e+00 2.973898e+00 4.794543e+00 5.577318e+00 3.830828e+00 5.697081e-04 2.650286e-01 3.118738e-01 3.165612e-01 3.287753e-01 3.030160e-01 4.914432e-01 5.019306e-01 8.260591e-01 9.406012e-01 8.037439e-01 5.267977e-01 4.806604e-01 2.893561e-04
<GCONST> 9.200546e+01
<STATE> 4
<NUMMIXES> 2
<MIXTURE> 1 4.955026e-01
<MEAN> 39
 -2.190469e+00 -1.233232e+01 -1.336885e+00 7.100870e+00 3.535074e+00 -3.064855e+00 -1.552548e-02 -2.775687e+00 -4.502385e+00 5.978805e-01 3.338449e-01 7.533014e-03 9.339186e-01 9.447449e-02 1.095247e-01 1.850257e-01 5.984454e-02 -1.459762e-01 4.660936e-02 -5.858317e-03 -4.764663e-02 7.944880e-02 -1.608152e-02 -8.034234e-02 -1.541520e-02 -3.816758e-03 4.970146e-02 3.397988e-02 -5.024084e-02 -9.167831e-02 -1.334736e-02 7.252112e-02 -1.960054e-03 -3.910343e-03 -4.363967e-02 -3.431532e-02 -2.292732e-02 2.758663e-02 -8.949593e-04
<VARIANCE> 39
 1.087074e+01 3.212081e+01 3.304012e+01 2.346741e+01 2.982340e+01 1.966775e+01 1.924307e+01 2.156883e+01 2.659038e+01 2.289526e+01 2.400264e+01 1.782385e+01 3.008635e-03 1.155485e-01 1.354840e-01 2.405088e-01 3.070002e-01 3.310389e-01 4.344510e-01 4.030181e-01 4.534802e-01 4.817632e-01 4.527516e-01 3.844347e-01 3.536401e-01 3.754082e-05 1.686057e-02 2.386515e-02 3.867574e-02 5.043363e-02 5.564620e-02 6.833076e-02 7.164060e-02 7.955502e-02 7.785837e-02 8.194953e-02 6.544611e-02 5.988142e-02 3.730628e-06
<GCONST> 3.125017e+01
<MIXTURE> 2 5.044925e-01
<MEAN> 39
 -3.991771e+00 -1.362614e+01 2.526523e+00 5.873956e+00 -1.668011e-01 -2.846952e+00 -1.885468e+00 -4.792926e+00 -2.085343e+00 -5.113169e-01 -1.993976e+00 6.989926e-01 9.187164e-01 1.574781e-01 3.881999e-01 -5.401279e-02 -5.425612e-01 -1.551019e-01 3.068658e-01 -9.775896e-02 -2.050692e-01 -6.651280e-02 -2.709448e-01 5.330720e-02 -3.820057e-02 -5.377168e-03 1.457077e-01 1.519137e-01 -6.805916e-02 -1.352151e-01 6.006012e-02 1.114531e-01 6.852938e-02 4.299418e-02 6.603029e-02 3.818239e-02 5.241913e-02 1.630891e-02 -1.638435e-03
<VARIANCE> 39
 1.543300e+01 3.205712e+01 4.248836e+01 2.691992e+01 3.137139e+01 3.179706e+01 3.140731e+01 3.252242e+01 3.805702e+01 2.908811e+01 3.859223e+01 4.389132e+01 4.011253e-03 4.142443e-01 7.032660e-01 1.217604e+00 1.600948e+00 1.638945e+00 1.720275e+00 1.825002e+00 1.692106e+00 1.452275e+00 1.457199e+00 1.495998e+00 1.248007e+00 5.970614e-05 7.267966e-02 1.236552e-01 1.779746e-01 2.126766e-01 2.632510e-01 2.835657e-01 3.028903e-01 2.854716e-01 2.846967e-01 2.774592e-01 2.473454e-01 2.160038e-01 9.421717e-06
<GCONST> 7.085992e+01
<TRANSP> 5
 0.000000e+00 1.000000e+00 0.000000e+00 0.000000e+00 0.000000e+00
 0.000000e+00 8.183276e-01 1.816724e-01 0.000000e+00 0.000000e+00
 0.000000e+00 0.000000e+00 7.444344e-01 2.555656e-01 0.000000e+00
 0.000000e+00 0.000000e+00 0.000000e+00 9.265075e-01 7.349250e-02
 0.000000e+00 0.000000e+00 0.000000e+00 0.000000e+00 0.000000e+00
<ENDHMM>
~h "qi"
<BEGINHMM>
<NUMSTATES> 5
<STATE> 2
<NUMMIXES> 2
<MIXTURE> 1 8.154600e-01
<MEAN> 39
 -1.159310e+01 1.053888e-01 -1.778958e+00 7.619946e+00 4.523565e+00 7.521855e+00 6.078295e+00 5.985519e+00 4.321057e+00 3.915035e+00 3.495979e+00 1.798977e+00 3.772482e-01 -6.667629e-01 4.122522e-01 -4.429695e-01 -4.453334e-03 2.779884e-01 2.424864e-02 2.377975e-01 1.435610e-01 1.126705e-01 -6.790183e-02 6.499372e-02 -8.250971e-02 2.009859e-02 3.804958e-01 1.324944e-01 1.994436e-01 -1.588519e-01 -1.210097e-01 -2.124279e-01 -2.202474e-01 -1.893465e-01 -9.802258e-02 -1.159897e-01 -5.928601e-02 -2.961731e-02 4.537538e-03
<VARIANCE> 39
 2.345021e+01 3.300377e+01 3.026919e+01 2.215897e+01 2.349217e+01 2.805853e+01 2.612799e+01 3.226681e+01 2.701178e+01 2.886101e+01 3.244333e+01 2.959405e+01 2.583374e-02 1.413452e+00 1.349390e+00 1.373069e+00 1.638412e+00 1.650866e+00 1.809587e+00 2.108591e+00 2.211817e+00 2.301823e+00 2.282341e+00 1.981885e+00 1.900773e+00 9.378965e-04 1.970135e-01 3.303661e-01 2.661149e-01 3.064127e-01 3.602045e-01 4.264981e-01 4.934061e-01 4.825251e-01 5.023548e-01 4.895784e-01 4.400922e-01 4.142081e-01 3.428675e-04
<GCONST> 8.840884e+01
<MIXTURE> 2 1.845368e-01
<MEAN> 39
 -1.224403e+01 3.080584e+00 -2.715055e+00 6.392380e+00 5.309182e+00 6.463864e+00 6.196643e+00 5.706031e+00 4.457539e+00 2.632706e+00 3.522789e+00 9.276595e-01 4.639059e-01 2.443401e+00 2.171207e+00 9.291808e-01 -1.470329e+00 -2.025966e+00 -2.688349e+00 -2.561942e+00 -1.648619e+00 -7.422745e-01 -6.703576e-01 -2.156718e-01 -1.332437e-01 6.813070e-02 8.507083e-01 5.065360e-01 1.158273e-01 -7.960574e-01 -9.252799e-01 -9.455398e-01 -8.920600e-01 -4.467058e-01 -2.392187e-01 -2.355579e-01 -1.123189e-01 -1.899168e-02 2.920779e-02
<VARIANCE> 39
 1.642578e+01 2.612452e+01 2.209502e+01 2.127831e+01 2.022498e+01 3.160041e+01 2.753531e+01 3.933813e+01 3.123487e+01 3.518891e+01 3.630493e+01 3.214275e+01 1.147978e-02 1.676652e+00 1.280373e+00 1.886952e+00 2.476505e+00 3.018974e+00 3.151814e+00 2.944647e+00 2.537951e+00 2.987220e+00 3.345358e+00 3.155926e+00 3.970863e+00 1.575423e-03 1.794478e-01 1.916724e-01 3.383012e-01 3.062913e-01 3.592973e-01 5.181882e-01 5.255165e-01 6.011567e-01 6.430655e-01 5.842111e-01 6.704244e-01 8.075143e-01 1.090146e-04
<GCONST> 9.269708e+01
<STATE> 3
<NUMMIXES> 2
<MIXTURE> 1 5.283332e-01
<MEAN> 39
 -4.002686e-01 1.163097e+01 -9.688369e-01 -5.424287e+00 -6.566694e+00 -7.229725e+00 -6.472730e+00 -8.361629e-01 8.280845e-01 -1.770931e+00 1.818031e+00 2.844917e-01 8.862624e-01 2.114695e-01 3.043657e-01 -4.235345e-01 -1.295663e+00 -4.564460e-01 -6.923020e-01 -6.173642e-01 -1.813733e-01 -6.714866e-01 -8.821236e-01 -5.404192e-01 -2.454493e-01 3.634160e-02 -8.764729e-01 -5.383471e-01 -1.247475e-01 8.682656e-01 9.193234e-01 9.139798e-01 8.611069e-01 3.695309e-01 9.419412e-02 2.382369e-01 4.831436e-02 2.295708e-02 -2.753954e-02
<VARIANCE> 39
 9.828769e+00 2.686985e+01 2.129234e+01 1.404064e+01 1.719351e+01 2.193029e+01 2.767335e+01 2.595671e+01 2.924343e+01 4.895456e+01 3.514036e+01 6.692597e+01 4.490223e-03 1.313643e+00 8.355467e-01 1.401414e+00 2.037648e+00 2.177941e+00 2.103734e+00 2.628901e+00 2.627691e+00 2.636700e+00 2.728397e+00 5.565863e+00 3.988271e+00 4.171837e-04 1.692240e-01 1.541200e-01 3.127043e-01 2.343119e-01 2.968414e-01 4.173728e-01 3.233680e-01 3.734355e-01 3.883547e-01 4.819133e-01 5.507761e-01 7.222534e-01 5.314337e-05
<GCONST> 8.407261e+01
<MIXTURE> 2 4.716612e-01
<MEAN> 39
 -2.506234e+00 1.091751e+01 4.149425e-01 1.753190e-01 -3.759168e+00 -4.530073e+00 -4.055801e+00 -6.755263e-01 1.729019e+00 6.572589e-01 3.086065e+00 8.801001e-01 7.621221e-01 3.222359e+00 2.275133e+00 4.152390e-01 -3.269368e+00 -3.225508e+00 -3.640172e+00 -3.297722e+00 -1.595418e+00 -8.615953e-01 -1.074539e+00 -3.963497e-01 -1.891279e-01 1.121426e-01 -6.828297e-01 -5.639496e-01 -3.952685e-01 7.181419e-02 4.798996e-01 6.028080e-01 5.888642e-01 4.383036e-01 3.453649e-02 -6.422922e-02 -9.594604e-02 -3.044075e-02 -1.098545e-02
<VARIANCE> 39
 1.882549e+01 2.733947e+01 1.585180e+01 2.851178e+01 3.045344e+01 2.649169e+01 2.629111e+01 3.506428e+01 2.522181e+01 5.491136e+01 4.179398e+01 3.942490e+01 8.712119e-03 1.320362e+00 1.319657e+00 3.614571e+00 1.832723e+00 2.232716e+00 3.495468e+00 2.785891e+00 3.555258e+00 3.894705e+00 4.523933e+00 5.716050e+00 7.734825e+00 6.401783e-04 2.633771e-01 1.794706e-01 2.011230e-01 4.918420e-01 5.628887e-01 5.221462e-01 5.719265e-01 5.342933e-01 5.576848e-01 5.971813e-01 8.881443e-01 6.333582e-01 1.955422e-04
<GCONST> 9.555936e+01
<STATE> 4
<NUMMIXES> 2
<MIXTURE> 1 5.391893e-01
<MEAN> 39
 -2.272143e-01 1.120989e+01 -2.492122e+00 -6.078663e+00 -5.164069e+00 -8.190225e+00 -5.533787e+00 -1.618091e+00 -1.561528e+00 -2.139502e+00 -5.526090e-01 -6.373368e-01 8.804931e-01 2.326392e-01 -2.442209e-01 1.735139e-01 -1.012946e-01 4.337954e-01 1.074488e-01 1.355920e-01 -3.767426e-02 -1.208495e-01 1.640788e-02 -2.632895e-01 -1.570339e-01 -7.418373e-03 7.730421e-02 -8.053432e-02 1.693463e-01 1.983615e-01 1.231894e-01 2.073880e-01 1.078034e-01 5.688183e-02 8.212344e-02 8.893174e-02 5.793484e-02 2.004106e-02 -5.821271e-03
<VARIANCE> 39
 1.544630e+01 3.014717e+01 2.901690e+01 2.326246e+01 2.182924e+01 2.657843e+01 3.998919e+01 2.747449e+01 3.260089e+01 3.739251e+01 5.212920e+01 7.608016e+01 5.729061e-03 4.650352e-01 7.403864e-01 1.071320e+00 1.502256e+00 1.423896e+00 1.585548e+00 1.587199e+00 1.543404e+00 1.549595e+00 1.588879e+00 1.695626e+00 1.849733e+00 2.051616e-04 8.895979e-02 1.172518e-01 1.823547e-01 2.857358e-01 2.746468e-01 2.989274e-01 3.012049e-01 2.821200e-01 2.896371e-01 2.760690e-01 3.481681e-01 3.516778e-01 3.839427e-05
<GCONST> 7.532540e+01
<MIXTURE> 2 4.608034e-01
<MEAN> 39
 -2.108076e-01 1.061114e+01 -1.438389e+00 -5.223050e+00 -4.884640e+00 -6.502154e+00 -5.391243e+00 -1.058653e+00 -1.178908e+00 -3.446820e+00 -2.570116e-01 -1.282628e+00 9.072905e-01 1.103438e-01 2.685460e-02 -6.949330e-02 -7.873537e-02 6.514034e-02 -4.507031e-02 8.988298e-02 5.513102e-03 -5.140660e-02 4.436055e-02 -5.637315e-02 -2.398154e-02 -3.088712e-03 2.789781e-02 -5.466404e-02 1.318071e-02 -3.161874e-02 -7.205838e-03 -2.394329e-02 -1.516195e-02 -2.062754e-02 2.424049e-03 2.580494e-02 -3.578513e-02 -7.409743e-03 -1.436439e-03
<VARIANCE> 39
 1.012610e+01 2.845478e+01 1.825548e+01 1.238191e+01 1.268641e+01 1.583588e+01 2.866175e+01 1.741472e+01 2.625822e+01 2.336958e+01 3.950858e+01 3.292878e+01 4.612045e-03 1.050705e-01 1.909608e-01 2.720382e-01 3.623767e-01 3.888667e-01 4.703000e-01 5.100943e-01 4.787818e-01 4.921555e-01 4.938664e-01 4.880713e-01 4.203520e-01 3.754082e-05 1.741036e-02 3.363542e-02 5.006123e-02 6.644245e-02 7.108163e-02 8.967015e-02 9.896090e-02 9.187410e-02 9.717534e-02 8.859995e-02 9.447909e-02 7.854849e-02 4.706237e-06
<GCONST> 3.513588e+01
<TRANSP> 5
 0.000000e+00 1.000000e+00 0.000000e+00 0.000000e+00 0.000000e+00
 0.000000e+00 9.170247e-01 8.297532e-02 0.000000e+00 0.000000e+00
 0.000000e+00 0.000000e+00 7.448177e-01 2.551824e-01 0.000000e+00
 0.000000e+00 0.000000e+00 0.000000e+00 9.167263e-01 8.327369e-02
 0.000000e+00 0.000000e+00 0.000000e+00 0.000000e+00 0.000000e+00
<ENDHMM>
~h "sp"
<BEGINHMM>
<NUMSTATES> 3
<STATE> 2
~s "silst"
<TRANSP> 3
 0.000000e+00 8.137975e-01 1.862025e-01
 0.000000e+00 8.226509e-01 1.773491e-01
 0.000000e+00 0.000000e+00 0.000000e+00
<ENDHMM>
~h "sy"
<BEGINHMM>
<NUMSTATES> 5
<STATE> 2
<NUMMIXES> 2
<MIXTURE> 1 6.634203e-01
<MEAN> 39
 -1.074601e+01 -2.477250e+00 2.236550e+00 6.184377e+00 5.484477e+00 7.567933e+00 2.471920e+00 6.436445e+00 2.452188e+00 2.580957e+00 2.865779e+00 1.792598e+00 2.173599e-01 -2.069766e-01 -6.647033e-02 4.865995e-02 1.316819e-01 3.472354e-02 1.571747e-02 -3.229678e-02 -5.484285e-02 -3.531742e-02 -4.754822e-03 3.445350e-02 6.203778e-03 1.973576e-03 1.595376e-01 8.179258e-02 5.847943e-02 -3.686310e-02 -3.225619e-02 -4.460847e-02 -5.195161e-02 -6.560410e-02 -2.540454e-02 -1.772585e-02 -2.028225e-03 1.853266e-03 4.416720e-03
<VARIANCE> 39
 1.965892e+01 2.367852e+01 2.379917e+01 2.302670e+01 2.571415e+01 2.333581e+01 3.168332e+01 3.176513e+01 3.110325e+01 2.799297e+01 2.691196e+01 2.247590e+01 1.917577e-02 3.353309e-01 5.927530e-01 8.211868e-01 1.159646e+00 1.404608e+00 1.594102e+00 1.801178e+00 1.978784e+00 1.888684e+00 1.930789e+00 1.867876e+00 1.630903e+00 3.450049e-04 7.810622e-02 1.341910e-01 1.837925e-01 2.456299e-01 3.157294e-01 3.462763e-01 3.925031e-01 4.558707e-01 4.224367e-01 4.414915e-01 4.143584e-01 3.453331e-01 1.124955e-04
<GCONST> 7.719985e+01
<MIXTURE> 2 3.365745e-01
<MEAN> 39
 -1.113977e+01 -2.797182e+00 2.346504e+00 6.232864e+00 5.458071e+00 8.231658e+00 2.395820e+00 6.018775e+00 3.158524e+00 2.651663e+00 3.368237e+00 2.194539e+00 2.624927e-01 6.077183e-01 2.287284e-01 -1.609316e-01 -8.054326e-01 -1.189161e+00 -1.020464e+00 -6.451920e-01 -4.930460e-01 6.875037e-02 1.220427e-01 1.077776e-01 1.731879e-01 2.254903e-02 9.055603e-01 3.656767e-01 1.000220e-01 -5.547924e-01 -9.353315e-01 -8.356378e-01 -4.139905e-01 -6.164910e-01 -1.958576e-01 -1.818535e-01 -2.818950e-01 -1.693740e-01 3.515701e-02
<VARIANCE> 39
 1.459424e+01 2.375023e+01 2.412055e+01 2.230701e+01 2.550423e+01 2.677675e+01 2.973011e+01 3.431817e+01 2.936605e+01 2.819104e+01 2.799027e+01 2.186043e+01 1.487908e-02 4.480952e+00 2.598589e+00 1.726230e+00 2.542564e+00 4.168550e+00 4.124599e+00 3.660047e+00 4.242775e+00 3.648126e+00 3.031028e+00 3.453401e+00 2.859606e+00 7.528313e-03 1.293537e-01 2.138459e-01 2.758775e-01 4.845848e-01 5.109130e-01 5.193286e-01 5.786439e-01 6.013318e-01 6.523005e-01 6.295215e-01 6.847724e-01 5.858232e-01 1.500444e-04
<GCONST> 9.692995e+01
<STATE> 3
<NUMMIXES> 2
<MIXTURE> 1 5.636655e-01
<MEAN> 39
 2.155339e+00 5.559286e-02 2.723720e+00 -3.884441e+00 -1.125113e+01 -5.111972e+00 -1.794391e+00 -4.687169e+00 1.346667e+00 7.516043e-01 -5.415413e-01 6.559705e-01 8.201389e-01 6.458792e-01 -7.676101e-01 -2.113079e-01 -1.274356e+00 -1.415257e+00 -5.887865e-01 7.825786e-01 -1.391152e+00 1.018321e-01 -5.812671e-01 -6.675546e-01 -6.708512e-02 5.516012e-02 -9.513867e-01 -1.368214e-01 -9.791519e-03 6.130937e-01 1.155917e+00 9.406714e-01 2.894887e-01 6.161166e-01 1.115024e-01 1.969535e-02 2.114057e-01 1.161811e-01 -3.106726e-02
<VARIANCE> 39
 9.796547e+00 1.966130e+01 1.531968e+01 3.077708e+01 1.966905e+01 3.375770e+01 3.678415e+01 4.971868e+01 5.262016e+01 4.618995e+01 9.108493e+01 6.232749e+01 7.022604e-03 1.595399e+00 1.018986e+00 1.394831e+00 2.426811e+00 3.016150e+00 3.399626e+00 3.554140e+00 3.435796e+00 3.281030e+00 8.145219e+00 4.937678e+00 5.163805e+00 7.768659e-04 1.580696e-01 2.250638e-01 2.175921e-01 4.111715e-01 3.172322e-01 4.232389e-01 5.996334e-01 5.077217e-01 7.160087e-01 7.612771e-01 8.228633e-01 8.895275e-01 8.988972e-05
<GCONST> 9.530121e+01
<MIXTURE> 2 4.363280e-01
<MEAN> 39
 -2.008833e+00 2.896455e+00 3.634122e+00 6.170540e-01 -4.921717e+00 -1.773943e+00 -4.469421e+00 7.417534e-02 1.092641e+00 2.109268e+00 2.595607e+00 1.965338e+00 6.408975e-01 3.728950e+00 8.210677e-01 2.886248e-02 -2.861342e+00 -4.548326e+00 -3.464257e+00 -1.130029e+00 -2.554665e+00 -3.190059e-01 -4.727567e-01 -9.858839e-01 -3.945016e-01 1.478983e-01 -4.529648e-01 -6.581190e-01 -1.662309e-01 1.090363e-03 2.661955e-01 4.548307e-01 7.130492e-01 6.976754e-03 1.375940e-01 -1.434953e-01 -1.759820e-01 -4.465745e-02 -1.196502e-02
<VARIANCE> 39
 2.287660e+01 2.178386e+01 1.647863e+01 2.997005e+01 3.968770e+01 3.109855e+01 2.720593e+01 5.009384e+01 4.190334e+01 5.456891e+01 6.870662e+01 4.098043e+01 1.496511e-02 1.323403e+00 1.559762e+00 2.155047e+00 4.306559e+00 2.100904e+00 3.307209e+00 5.266500e+00 4.425321e+00 6.118477e+00 6.025516e+00 8.020638e+00 6.275532e+00 8.344130e-04 3.414740e-01 1.619804e-01 2.624431e-01 4.283948e-01 7.139127e-01 6.629446e-01 5.100468e-01 6.429138e-01 7.155438e-01 1.269754e+00 7.662393e-01 8.000224e-01 2.898436e-04
<GCONST> 1.027044e+02
<STATE> 4
<NUMMIXES> 2
<MIXTURE> 1 4.817983e-01
<MEAN> 39
 3.120969e+00 1.010800e+00 2.657459e+00 -3.276845e+00 -1.161879e+01 -4.767802e+00 3.763981e+00 -6.236277e+00 2.514477e+00 3.941052e+00 -5.464944e+00 3.260055e-01 8.851414e-01 9.180303e-02 2.270118e-01 9.081160e-02 -1.986540e-01 3.356315e-01 6.406468e-01 2.683874e-01 3.970119e-01 6.459064e-01 1.498443e-01 4.654754e-02 3.950525e-01 -3.444483e-03 -4.611171e-03 6.344432e-02 2.767194e-02 6.984039e-02 1.698415e-01 1.099483e-01 -1.375945e-01 9.456784e-02 -4.436360e-02 -1.589648e-01 5.771267e-02 -6.837773e-02 -5.281470e-03
<VARIANCE> 39
 9.028338e+00 1.758266e+01 1.609064e+01 2.257891e+01 1.502212e+01 2.769004e+01 2.381826e+01 3.264783e+01 4.839631e+01 4.158829e+01 2.752181e+01 2.490081e+01 5.497038e-03 2.334584e-01 3.954787e-01 5.590452e-01 6.946015e-01 7.034276e-01 1.064473e+00 1.146664e+00 1.125003e+00 1.397078e+00 1.364355e+00 1.243730e+00 1.288520e+00 2.300826e-04 4.928112e-02 7.461575e-02 9.898248e-02 1.304719e-01 1.382013e-01 2.183879e-01 2.110608e-01 2.234893e-01 2.621272e-01 2.842881e-01 2.499088e-01 2.075348e-01 2.074279e-05
<GCONST> 6.078806e+01
<MIXTURE> 2 5.181952e-01
<MEAN> 39
 3.604955e-01 -1.585122e-01 1.630810e+00 -1.006274e+01 -8.727052e+00 -2.040532e-01 -4.155204e+00 -1.909944e+00 4.212007e+00 -6.654080e+00 1.985859e+00 -1.150994e+00 8.871994e-01 1.571741e-01 1.818280e-01 -1.251928e-01 -1.875962e-01 3.645684e-01 1.229568e-01 1.799138e-01 2.087295e-01 -1.886787e-01 -4.589510e-01 -5.565715e-01 -9.602034e-01 6.969889e-04 7.382292e-02 1.196497e-01 4.388266e-02 2.497243e-01 1.297459e-01 -3.100459e-02 6.238692e-02 9.588776e-02 -6.661919e-02 2.616894e-01 4.400688e-02 6.769477e-02 -6.035983e-03
<VARIANCE> 39
 1.343865e+01 2.498868e+01 1.975946e+01 2.115905e+01 2.833836e+01 3.686063e+01 3.524566e+01 5.321529e+01 4.931585e+01 5.133313e+01 8.820997e+01 1.062545e+02 5.483608e-03 4.855129e-01 9.682367e-01 1.115302e+00 1.359728e+00 1.733878e+00 2.387087e+00 2.150344e+00 2.396964e+00 2.691240e+00 2.900173e+00 3.449292e+00 4.277931e+00 3.304069e-04 8.394831e-02 1.425976e-01 2.021704e-01 2.644208e-01 3.259199e-01 4.451943e-01 3.912466e-01 5.095154e-01 4.664058e-01 4.633228e-01 5.556868e-01 7.338516e-01 3.512975e-05
<GCONST> 8.566405e+01
<TRANSP> 5
 0.000000e+00 1.000000e+00 0.000000e+00 0.000000e+00 0.000000e+00
 0.000000e+00 9.220428e-01 7.795718e-02 0.000000e+00 0.000000e+00
 0.000000e+00 0.000000e+00 7.622447e-01 2.377553e-01 0.000000e+00
 0.000000e+00 0.000000e+00 0.000000e+00 8.982123e-01 1.017877e-01
 0.000000e+00 0.000000e+00 0.000000e+00 0.000000e+00 0.000000e+00
<ENDHMM>
~h "jiou"
<BEGINHMM>
<NUMSTATES> 5
<STATE> 2
<NUMMIXES> 2
<MIXTURE> 1 5.728034e-01
<MEAN> 39
 -1.003534e+01 2.427176e+00 2.348926e-01 6.633521e+00 1.043486e+00 6.300616e+00 2.436495e+00 4.870193e+00 3.685813e+00 4.160658e+00 3.772043e+00 1.756120e+00 2.526447e-01 -2.491593e+00 1.266083e+00 -1.489589e+00 6.428111e-01 5.523367e-01 4.335840e-01 8.118352e-01 1.058392e+00 6.719101e-01 3.988649e-01 5.143942e-01 8.446851e-02 1.395899e-02 7.600324e-01 7.133145e-01 4.151552e-01 -7.423574e-01 -6.847740e-02 -7.225301e-01 -4.611121e-01 -5.411367e-01 -2.686342e-01 -4.168966e-01 -2.719277e-01 -1.419528e-01 3.456559e-02
<VARIANCE> 39
 2.799231e+01 4.611699e+01 2.927119e+01 2.578251e+01 2.484445e+01 2.575601e+01 2.670431e+01 3.604895e+01 2.377463e+01 2.608150e+01 2.719750e+01 2.160221e+01 2.280219e-02 2.419282e+00 4.456792e+00 2.427088e+00 2.814989e+00 2.514533e+00 3.175606e+00 3.277712e+00 3.932245e+00 3.191377e+00 3.080517e+00 3.042602e+00 2.763232e+00 4.840557e-03 6.031259e-01 7.179758e-01 6.476130e-01 9.276919e-01 6.179788e-01 7.734100e-01 6.472327e-01 6.449276e-01 5.949589e-01 5.548835e-01 5.805929e-01 5.387263e-01 7.680130e-04
<GCONST> 1.034393e+02
<MIXTURE> 2 4.271913e-01
<MEAN> 39
 -1.439738e+01 9.685000e+00 -1.352441e+00 5.452104e+00 3.621152e+00 3.840843e+00 2.436558e+00 3.939598e+00 3.980553e+00 2.731349e+00 4.224519e+00 1.751058e+00 4.741268e-01 2.114850e+00 2.047086e+00 1.102893e+00 -3.836554e+00 -1.011553e+00 -2.750674e+00 -1.721494e+00 -9.387147e-01 -2.498412e-01 -8.384513e-01 -8.156593e-01 -5.906081e-01 1.092249e-01 1.426118e+00 -6.925718e-01 5.850218e-01 -1.329791e+00 -7.904765e-01 -4.220366e-01 -4.416351e-01 -8.939383e-02 -1.864381e-01 -1.651857e-01 -5.549818e-01 -3.311345e-01 1.565625e-02
<VARIANCE> 39
 2.630873e+01 3.256953e+01 2.957459e+01 3.703257e+01 3.043326e+01 3.285756e+01 3.724837e+01 4.267323e+01 2.450130e+01 3.124155e+01 3.883753e+01 2.944368e+01 2.113748e-02 4.328128e+00 2.534410e+00 4.232009e+00 4.780589e+00 3.904372e+00 4.631965e+00 2.888830e+00 2.426980e+00 2.539257e+00 2.399186e+00 3.251639e+00 2.507959e+00 1.725397e-03 5.749398e-01 6.754404e-01 6.914015e-01 8.460266e-01 6.090007e-01 1.006626e+00 7.724341e-01 7.898066e-01 5.494848e-01 7.218615e-01 9.324898e-01 6.710291e-01 3.758238e-04
<GCONST> 1.055764e+02
<STATE> 3
<NUMMIXES> 2
<MIXTURE> 1 4.662398e-01
<MEAN> 39
 -1.801280e-01 -2.759429e+00 2.866712e+00 -1.066559e+01 -4.698127e+00 5.295915e+00 3.871128e+00 -5.010875e-01 6.187328e-01 -1.025559e+00 -6.537967e+00 -3.138790e+00 9.012514e-01 8.875176e-01 -2.918749e+00 -6.704288e-01 3.042197e+00 -6.152243e-01 1.050783e+00 2.676341e+00 -1.458955e+00 -1.733387e+00 4.922645e-01 -7.071087e-02 -6.544853e-02 -3.581608e-03 1.095127e-02 4.870490e-01 -4.625390e-01 8.440276e-01 4.456891e-01 -1.018038e+00 1.216684e-02 3.708952e-01 -4.168149e-01 -2.544243e-02 6.785269e-01 1.640161e-01 -7.985616e-03
<VARIANCE> 39
 1.243342e+01 3.678550e+01 2.309740e+01 3.286495e+01 3.228341e+01 2.598058e+01 3.461566e+01 5.115797e+01 3.358220e+01 4.161386e+01 3.565579e+01 2.816715e+01 5.121145e-03 4.531083e-01 1.157678e+00 1.600839e+00 2.276411e+00 1.541407e+00 4.894897e+00 3.782209e+00 5.066141e+00 3.582778e+00 2.975878e+00 3.282710e+00 3.407458e+00 1.493133e-04 1.213586e-01 1.815097e-01 2.240709e-01 7.227746e-01 6.582251e-01 4.813594e-01 6.996839e-01 9.705834e-01 5.554523e-01 9.016139e-01 6.321682e-01 7.181741e-01 7.428314e-05
<GCONST> 9.095855e+01
<MIXTURE> 2 5.337549e-01
<MEAN> 39
 -2.371680e+00 1.069187e+01 2.705067e+00 -1.233833e+01 -3.320866e+00 -5.149649e+00 -3.105636e+00 3.475754e+00 2.528659e+00 1.993377e-01 -1.297082e+00 -2.273609e+00 8.511647e-01 1.830791e+00 -2.254468e+00 6.404079e-01 -3.113590e+00 -1.024025e+00 4.256492e-01 1.995812e-01 2.964518e-01 -2.318930e-01 -5.954165e-01 -1.636861e+00 -1.058004e+00 6.555273e-02 -5.423521e-01 -1.044138e+00 -3.347884e-01 1.473824e+00 2.626171e-01 1.200455e+00 9.397378e-01 -5.486812e-02 -1.504696e-01 1.414111e-01 7.214872e-02 1.574920e-01 -2.540085e-02
<VARIANCE> 39
 1.361611e+01 3.907928e+01 3.404940e+01 3.309662e+01 2.278883e+01 3.858651e+01 2.916693e+01 2.704071e+01 2.709084e+01 2.350061e+01 3.761567e+01 3.099049e+01 7.667284e-03 3.545097e+00 4.022740e+00 2.712871e+00 7.353395e+00 4.421822e+00 8.787272e+00 4.518276e+00 3.599242e+00 2.599160e+00 4.333511e+00 5.189263e+00 3.912076e+00 2.354630e-03 3.380437e-01 5.046667e-01 6.163489e-01 1.040978e+00 6.789174e-01 1.033107e+00 7.430207e-01 7.741507e-01 5.636204e-01 6.049096e-01 8.338571e-01 7.567448e-01 1.487374e-04
<GCONST> 1.050879e+02
<STATE> 4
<NUMMIXES> 2
<MIXTURE> 1 3.513528e-01
<MEAN> 39
 3.356450e+00 -8.825370e+00 -1.543796e+00 1.768527e+00 -3.608149e+00 8.824936e-01 1.058198e+01 1.366805e+00 -7.265756e+00 -5.906914e-01 -1.074972e+00 -3.004553e+00 8.714703e-01 9.392104e-01 -7.912121e-01 -1.783648e+00 2.625016e+00 1.721072e+00 -1.833887e+00 1.368722e-01 1.848899e+00 -8.258356e-01 -1.403718e+00 1.070494e+00 1.146134e+00 -1.111602e-02 -1.100265e-01 6.036022e-01 3.593573e-02 -6.476359e-01 3.707106e-01 2.644812e-02 -9.804435e-01 1.861973e-01 1.003903e+00 -2.646937e-01 -4.034159e-01 3.242368e-01 -1.798244e-03
<VARIANCE> 39
 1.213939e+01 2.772012e+01 1.864724e+01 2.507614e+01 2.280988e+01 2.744893e+01 2.790430e+01 7.275333e+01 2.541207e+01 2.896507e+01 3.097863e+01 3.376503e+01 7.012190e-03 3.518627e-01 8.358221e-01 1.336416e+00 1.600333e+00 2.183370e+00 1.358317e+00 2.927557e+00 1.800411e+00 3.427962e+00 2.336216e+00 2.810097e+00 2.428906e+00 1.391315e-04 4.714433e-02 1.146030e-01 1.414250e-01 2.028061e-01 3.395350e-01 3.986589e-01 4.744359e-01 7.029925e-01 3.868761e-01 5.058805e-01 4.426574e-01 4.598954e-01 1.810472e-05
<GCONST> 7.768710e+01
<MIXTURE> 2 6.486441e-01
<MEAN> 39
 6.871576e+00 -7.384098e+00 -8.065292e+00 6.420867e+00 3.939622e+00 -3.203991e+00 5.017799e+00 6.364612e+00 -1.561958e+00 -4.524191e+00 -2.880645e+00 9.687307e-01 8.114031e-01 3.144827e-01 3.701423e-01 -2.009125e-01 1.282144e-01 4.340204e-01 -7.472039e-02 -5.657895e-01 -1.545254e-01 8.420254e-01 1.768676e-01 -1.977154e-01 -7.884751e-02 -1.243445e-02 -1.461608e-01 1.286455e-01 4.698051e-01 -3.310328e-01 -3.940356e-01 2.778405e-01 1.264913e-01 -3.803219e-01 -8.681232e-02 3.337957e-01 6.375486e-02 -2.756901e-01 -6.554507e-04
<VARIANCE> 39
 1.396605e+01 2.523771e+01 2.511582e+01 2.317696e+01 2.949335e+01 2.457141e+01 3.656287e+01 4.817116e+01 4.977626e+01 3.043067e+01 3.537158e+01 3.673018e+01 1.019745e-02 4.487589e-01 4.876387e-01 2.147993e+00 1.019182e+00 2.614647e+00 1.420546e+00 2.477067e+00 2.247472e+00 2.504909e+00 1.965254e+00 2.134493e+00 1.954135e+00 1.383935e-04 6.719276e-02 1.002805e-01 1.835111e-01 2.175664e-01 2.491114e-01 2.826032e-01 3.533905e-01 3.979890e-01 4.449616e-01 3.589275e-01 3.977573e-01 3.626718e-01 1.782181e-05
<GCONST> 7.676359e+01
<TRANSP> 5
 0.000000e+00 1.000000e+00 0.000000e+00 0.000000e+00 0.000000e+00
 0.000000e+00 8.292831e-01 1.707169e-01 0.000000e+00 0.000000e+00
 0.000000e+00 0.000000e+00 8.568583e-01 1.431416e-01 0.000000e+00
 0.000000e+00 0.000000e+00 0.000000e+00 8.861035e-01 1.138965e-01
 0.000000e+00 0.000000e+00 0.000000e+00 0.000000e+00 0.000000e+00
<ENDHMM>
~h "#er"
<BEGINHMM>
<NUMSTATES> 5
<STATE> 2
<NUMMIXES> 2
<MIXTURE> 1 4.956661e-01
<MEAN> 39
 -1.051975e+00 -5.656878e+00 -1.545662e+00 9.367721e-01 3.704168e+00 4.780300e+00 5.013109e+00 2.812584e+00 2.510646e+00 1.858575e+00 2.697401e+00 2.373645e+00 4.517502e-01 -2.747021e-01 -1.150515e+00 4.338741e-01 4.783860e-01 5.506845e-02 5.691359e-01 -1.335966e-01 -8.363456e-01 -6.052506e-01 4.845130e-01 3.007119e-01 2.464356e-01 6.458930e-03 1.042709e-01 1.197300e-02 -8.417477e-02 -5.548039e-02 -2.371760e-01 -3.191698e-01 -3.005916e-01 -2.804191e-01 -2.676883e-01 -6.175860e-02 -2.095595e-01 -1.753656e-01 1.610838e-02
<VARIANCE> 39
 1.575368e+01 5.993520e+01 3.448407e+01 8.593335e+01 3.599823e+01 5.999458e+01 5.308986e+01 5.677834e+01 5.393760e+01 6.924385e+01 5.902903e+01 4.772241e+01 1.152611e-01 1.264965e+00 3.432524e+00 1.958549e+00 3.425167e+00 2.862015e+00 4.969905e+00 4.728054e+00 5.322477e+00 5.502174e+00 5.844160e+00 6.298396e+00 5.195727e+00 7.303561e-03 1.918958e-01 3.936502e-01 3.001738e-01 5.883042e-01 4.288071e-01 7.227394e-01 7.507390e-01 8.634446e-01 9.582697e-01 1.106842e+00 1.093195e+00 9.157363e-01 8.333629e-04
<GCONST> 1.145582e+02
<MIXTURE> 2 5.043268e-01
<MEAN> 39
 5.257571e-01 -1.080107e+01 -2.928182e+00 5.629893e-01 -8.009718e-01 2.016456e+00 3.039035e+00 -2.699558e+00 -5.849546e+00 1.150469e+00 -4.096940e-01 5.038413e-01 8.062155e-01 -2.624550e-01 -9.714488e-01 -6.478508e-01 -2.526973e-01 -4.345434e-01 -5.994525e-02 -1.814009e-01 -6.535024e-01 -1.407389e+00 -7.559175e-01 -2.323407e-01 -3.938901e-01 4.949512e-02 -1.690629e-01 3.908596e-01 1.641343e-01 1.672642e-02 1.423195e-01 -3.164463e-02 -2.695683e-02 3.128617e-01 3.823907e-01 -3.835703e-02 1.145053e-01 6.827808e-02 -1.779535e-02
<VARIANCE> 39
 1.589525e+01 3.531036e+01 3.291995e+01 3.966367e+01 3.390642e+01 5.295266e+01 4.458829e+01 4.699554e+01 5.457073e+01 5.695724e+01 5.015797e+01 3.416635e+01 1.410002e-02 1.108852e+00 1.365802e+00 1.334026e+00 2.603384e+00 2.041575e+00 2.525185e+00 3.602801e+00 2.739517e+00 3.205625e+00 2.920121e+00 3.036376e+00 3.000686e+00 3.992374e-03 1.889018e-01 2.887738e-01 2.385560e-01 2.980728e-01 2.725632e-01 4.600354e-01 4.261897e-01 4.837360e-01 5.670639e-01 5.047069e-01 5.196085e-01 4.196701e-01 6.885853e-04
<GCONST> 9.679884e+01
<STATE> 3
<NUMMIXES> 2
<MIXTURE> 1 5.601238e-01
<MEAN> 39
 1.067569e+00 -9.455648e+00 -2.892297e+00 -6.817051e-01 -2.121897e+00 1.665896e+00 6.053852e+00 -4.695687e-01 -6.531060e+00 -3.540870e+00 2.194799e-01 -1.943401e+00 9.404572e-01 1.844265e-01 1.809011e-01 4.025424e-01 -7.638881e-02 -2.250476e-02 3.013793e-01 2.365696e-01 1.171470e-01 5.118672e-01 1.619536e-01 4.758998e-02 1.305966e-02 -3.479886e-03 1.624768e-02 4.985803e-02 3.065720e-02 -2.833998e-02 -4.174300e-03 3.131457e-03 -3.333018e-02 -1.330829e-02 5.562073e-02 4.374173e-02 -3.545690e-02 1.205470e-02 -2.592260e-03
<VARIANCE> 39
 8.877394e+00 3.156684e+01 2.801377e+01 2.594090e+01 2.917815e+01 3.905561e+01 3.484838e+01 3.298451e+01 4.050649e+01 3.201789e+01 3.345994e+01 2.137764e+01 2.158751e-03 1.716739e-01 2.568502e-01 3.938877e-01 4.610798e-01 6.011940e-01 7.608961e-01 6.203938e-01 8.301685e-01 8.796246e-01 8.082867e-01 7.805443e-01 6.813447e-01 1.209786e-04 2.650826e-02 3.751509e-02 4.894993e-02 7.193175e-02 8.628220e-02 1.020479e-01 1.067700e-01 1.255974e-01 1.247269e-01 1.159104e-01 1.085807e-01 9.309343e-02 8.813594e-06
<GCONST> 4.724696e+01
<MIXTURE> 2 4.398685e-01
<MEAN> 39
 1.943532e-02 -1.163764e+01 -5.425773e+00 1.276561e+00 -1.080337e+00 1.004690e-02 4.336048e+00 -2.612140e+00 -8.461174e+00 -1.680712e+00 -2.748315e-01 2.933101e-01 9.185488e-01 -1.157941e-01 -9.859443e-02 2.406578e-01 -2.302102e-01 -1.936492e-01 2.338460e-02 -4.634412e-02 -9.688723e-02 -1.477759e-01 -1.984114e-01 -1.700361e-02 -2.519987e-01 1.370647e-02 1.075325e-01 1.446341e-01 1.831800e-01 -4.011012e-02 3.745576e-02 1.183707e-01 3.754542e-02 1.032234e-01 2.754022e-01 1.095688e-01 -1.316505e-02 1.388932e-02 -5.105964e-03
<VARIANCE> 39
 1.503690e+01 3.253063e+01 2.845094e+01 3.047981e+01 3.121229e+01 4.204988e+01 5.372578e+01 5.188075e+01 4.472569e+01 4.999797e+01 4.628720e+01 3.725666e+01 4.494167e-03 4.276261e-01 5.663910e-01 1.009853e+00 1.250706e+00 1.382429e+00 1.554606e+00 1.757722e+00 1.524088e+00 1.819244e+00 1.886021e+00 2.003411e+00 1.603759e+00 3.526952e-04 7.640485e-02 1.008236e-01 1.202184e-01 1.837164e-01 2.066793e-01 2.300748e-01 2.841666e-01 2.740986e-01 2.707633e-01 2.841690e-01 3.025561e-01 2.988817e-01 4.914813e-05
<GCONST> 7.535824e+01
<STATE> 4
<NUMMIXES> 2
<MIXTURE> 1 5.036435e-01
<MEAN> 39
 2.900158e-01 -8.380525e+00 9.777762e-01 -6.623874e+00 -2.741536e+00 5.680657e+00 9.330066e-01 -2.200483e+00 -2.823419e+00 -3.760053e+00 -2.395541e+00 -3.558099e+00 8.925586e-01 3.972931e-01 1.347646e+00 7.048833e-01 -5.272875e-01 -2.688709e-01 -3.782024e-01 -7.895445e-02 4.652183e-01 1.400082e+00 1.116056e-01 -3.188218e-02 -7.371052e-02 -1.443642e-02 9.385144e-02 2.471554e-01 1.492673e-01 3.276957e-01 1.189790e-01 -1.318893e-01 -1.048200e-01 1.640788e-02 9.081221e-02 2.521929e-01 1.611168e-01 2.137872e-01 -3.363603e-03
<VARIANCE> 39
 1.406505e+01 3.902721e+01 2.666677e+01 4.069960e+01 3.544334e+01 5.597539e+01 8.338783e+01 4.975997e+01 5.307217e+01 4.319728e+01 3.981259e+01 3.690322e+01 4.980295e-03 5.110199e-01 1.175057e+00 1.573406e+00 1.922424e+00 1.935936e+00 3.355785e+00 2.808170e+00 2.944311e+00 3.109232e+00 2.954664e+00 2.713320e+00 3.348988e+00 1.432416e-04 8.137743e-02 1.202013e-01 2.062718e-01 2.888869e-01 2.921009e-01 4.493560e-01 4.853556e-01 4.771035e-01 5.574526e-01 4.066060e-01 4.239733e-01 4.621806e-01 2.526657e-05
<GCONST> 8.613885e+01
<MIXTURE> 2 4.963492e-01
<MEAN> 39
 -3.023178e+00 -1.320833e+01 2.058382e+00 -1.265253e+00 1.809250e+00 7.821257e+00 -4.342000e+00 -5.647836e+00 -2.796809e+00 2.449195e+00 2.121351e-01 1.608794e+00 9.411917e-01 1.578800e-01 3.129094e-01 2.352223e-02 -7.232006e-01 -1.776922e-02 3.302565e-01 -1.125266e-01 2.131325e-01 -2.546668e-01 -7.580832e-01 -4.325612e-01 -4.918478e-01 -2.992644e-03 9.099863e-03 5.961338e-02 -9.706875e-02 -9.321375e-02 -9.100530e-02 -1.263151e-01 2.588035e-02 3.360448e-02 -2.635765e-02 -1.384758e-01 -7.234700e-02 -1.425792e-01 -2.452380e-03
<VARIANCE> 39
 1.334262e+01 3.019504e+01 1.749751e+01 4.753242e+01 2.456553e+01 3.755793e+01 4.340517e+01 3.616474e+01 4.162922e+01 4.073021e+01 4.375644e+01 6.081823e+01 2.145479e-03 3.663291e-01 7.232202e-01 7.957695e-01 1.316718e+00 1.033090e+00 1.746467e+00 2.179972e+00 1.559419e+00 1.747806e+00 1.789640e+00 1.865983e+00 2.355313e+00 9.756526e-05 6.126893e-02 1.005007e-01 1.197696e-01 1.739947e-01 1.795152e-01 2.901810e-01 3.467277e-01 2.410075e-01 2.641377e-01 2.729033e-01 2.997183e-01 3.738061e-01 9.608329e-06
<GCONST> 7.091156e+01
<TRANSP> 5
 0.000000e+00 1.000000e+00 0.000000e+00 0.000000e+00 0.000000e+00
 0.000000e+00 8.135729e-01 1.864270e-01 0.000000e+00 0.000000e+00
 0.000000e+00 0.000000e+00 8.841216e-01 1.158784e-01 0.000000e+00
 0.000000e+00 0.000000e+00 0.000000e+00 8.585035e-01 1.414965e-01
 0.000000e+00 0.000000e+00 0.000000e+00 0.000000e+00 0.000000e+00
<ENDHMM>
~h "liou"
<BEGINHMM>
<NUMSTATES> 5
<STATE> 2
<NUMMIXES> 2
<MIXTURE> 1 5.995731e-01
<MEAN> 39
 -4.094233e+00 3.748159e+00 -1.587064e+00 -1.418692e+01 1.336115e-01 -2.625308e+00 -9.667925e-01 2.946481e+00 -2.464663e-01 -1.702120e+00 -1.495271e+00 -1.306539e+00 9.361551e-01 -2.794906e-03 -1.156264e+00 2.453397e-01 -8.222695e-02 1.439929e-02 1.133123e+00 3.847012e-02 -3.339122e-01 -2.358717e-01 -2.861722e-01 -4.575527e-01 1.423067e-01 4.485704e-03 1.965452e-01 -3.271505e-01 1.954926e-01 4.701177e-01 -2.935013e-01 3.695610e-01 1.515254e-01 -3.713915e-01 8.088241e-02 4.850953e-02 -4.402384e-02 1.100988e-01 -3.312350e-03
<VARIANCE> 39
 1.059070e+01 2.535235e+01 2.346004e+01 1.987854e+01 3.455752e+01 3.601442e+01 4.112450e+01 2.697260e+01 3.057612e+01 3.647604e+01 4.949915e+01 5.379937e+01 2.389245e-03 2.374436e-01 1.419727e+00 8.067896e-01 1.003759e+00 1.556735e+00 2.784530e+00 1.934054e+00 2.135253e+00 1.492803e+00 1.810983e+00 1.939893e+00 2.084947e+00 1.197337e-04 5.263264e-02 1.384562e-01 1.931079e-01 3.210540e-01 2.907376e-01 3.935204e-01 5.284004e-01 3.789961e-01 3.410333e-01 3.956580e-01 3.763127e-01 3.591080e-01 2.502846e-05
<GCONST> 7.529019e+01
<MIXTURE> 2 4.004193e-01
<MEAN> 39
 -2.431695e+00 6.113012e+00 1.220118e+00 -1.165593e+01 -2.643619e+00 -2.851876e+00 -2.935487e+00 2.149231e+00 2.963671e+00 -1.791692e+00 3.867085e-01 -2.379393e-01 8.789733e-01 -1.169310e+00 -2.311010e-01 -1.691506e+00 -2.083374e+00 4.167919e-01 -4.302884e-02 4.583346e-01 1.440077e+00 -2.938462e-01 3.746930e-02 -2.536762e-01 -3.958812e-01 3.061069e-02 3.183849e-01 -3.410212e-01 3.217655e-01 3.459198e-01 -2.225391e-02 4.883108e-02 4.972282e-02 -4.374953e-01 -3.177011e-01 5.766384e-02 -3.006881e-01 -9.957599e-03 -4.241449e-03
<VARIANCE> 39
 1.096605e+01 2.690828e+01 2.817493e+01 2.726745e+01 2.662068e+01 3.261034e+01 3.982716e+01 3.361893e+01 3.137032e+01 3.448476e+01 3.557008e+01 4.271477e+01 4.095099e-03 1.180885e+00 1.975121e+00 2.499423e+00 3.495573e+00 3.690094e+00 3.811850e+00 4.897403e+00 4.944832e+00 4.097521e+00 3.874093e+00 3.577065e+00 3.655907e+00 3.992661e-04 1.910663e-01 3.112776e-01 4.532146e-01 6.448216e-01 4.244352e-01 6.880360e-01 6.779586e-01 7.604398e-01 6.558224e-01 5.990637e-01 5.557680e-01 5.790210e-01 9.954884e-05
<GCONST> 9.591521e+01
<STATE> 3
<NUMMIXES> 2
<MIXTURE> 1 4.616454e-01
<MEAN> 39
 1.175333e-01 -9.255157e+00 -1.512756e+00 -1.436425e+00 -6.362514e+00 3.072631e+00 8.169772e+00 -2.790554e+00 -6.612299e+00 2.028837e+00 -3.456052e+00 -3.680408e+00 9.298451e-01 1.029609e+00 -1.086944e+00 -1.414534e+00 2.944199e+00 5.010573e-01 -1.887345e+00 1.479576e+00 1.423787e+00 -2.013916e+00 -4.540565e-01 1.465926e+00 -2.180076e-01 -5.928609e-03 5.444039e-04 4.960530e-01 -1.915462e-01 -3.560576e-01 6.303648e-01 -3.595378e-01 -8.374314e-01 6.855664e-01 5.921748e-01 -7.405133e-01 1.070191e-01 5.555655e-01 -1.579793e-03
<VARIANCE> 39
 1.166993e+01 2.595488e+01 1.629184e+01 3.543789e+01 2.662764e+01 2.702827e+01 2.833871e+01 5.691640e+01 2.750736e+01 2.132935e+01 3.452321e+01 3.525877e+01 3.042110e-03 3.205723e-01 7.710198e-01 1.056919e+00 1.499799e+00 1.688540e+00 1.734820e+00 2.598226e+00 2.484717e+00 2.193547e+00 2.741221e+00 2.155545e+00 3.003031e+00 1.152863e-04 4.880992e-02 9.397840e-02 1.628872e-01 2.169694e-01 2.839510e-01 3.959328e-01 4.123782e-01 4.591246e-01 5.456960e-01 3.495271e-01 5.284775e-01 3.817347e-01 1.508592e-05
<GCONST> 7.505728e+01
<MIXTURE> 2 5.383491e-01
<MEAN> 39
 -2.775566e+00 -4.972894e+00 7.884560e-01 -1.047849e+01 -3.375721e+00 6.038106e+00 3.509054e-01 -2.853982e+00 6.916854e-01 -1.918187e+00 -4.312371e+00 1.362905e+00 9.395719e-01 7.636861e-01 -2.200161e+00 -9.587416e-02 2.601625e+00 -1.391985e+00 9.119734e-01 2.137851e+00 -1.644970e+00 -9.483963e-01 1.115342e+00 -7.931843e-01 -3.934989e-01 -1.654240e-03 1.698759e-01 1.959703e-01 -3.820487e-01 5.771551e-01 1.990792e-01 -9.058172e-01 4.326919e-01 4.463936e-01 -5.857496e-01 1.743391e-01 4.514542e-01 -3.551449e-01 -2.084127e-03
<VARIANCE> 39
 1.116715e+01 3.173611e+01 1.747648e+01 3.470386e+01 3.879972e+01 2.799390e+01 3.571272e+01 4.563256e+01 2.363579e+01 3.302433e+01 5.185879e+01 5.774338e+01 2.389278e-03 3.115148e-01 1.019787e+00 1.041690e+00 1.517223e+00 1.292586e+00 2.931004e+00 3.143673e+00 2.809234e+00 3.484261e+00 2.519983e+00 2.916133e+00 3.498579e+00 1.449614e-04 4.641310e-02 1.574050e-01 1.479574e-01 3.564465e-01 3.268718e-01 4.180529e-01 4.532722e-01 5.829201e-01 3.658890e-01 5.663177e-01 5.409398e-01 4.761255e-01 2.432992e-05
<GCONST> 8.070992e+01
<STATE> 4
<NUMMIXES> 2
<MIXTURE> 1 3.958570e-01
<MEAN> 39
 2.773534e+00 -1.028948e+01 -6.623463e+00 5.071565e+00 -1.406824e+00 -2.991956e+00 7.930417e+00 4.387363e+00 -8.397525e+00 -3.965833e+00 1.764797e-01 5.897017e-01 9.068565e-01 9.006655e-01 1.261082e-01 -1.353002e+00 1.390878e+00 1.667985e+00 -1.243924e+00 -1.010237e+00 1.716808e+00 1.131213e+00 -1.460618e+00 -1.457160e-01 1.186648e+00 -1.112437e-02 -9.082789e-02 3.626007e-01 3.180832e-01 -5.867877e-01 -4.603991e-02 5.335362e-01 -3.964269e-01 -4.455360e-01 7.613276e-01 3.947455e-01 -5.345876e-01 -1.855111e-01 -2.461684e-03
<VARIANCE> 39
 1.117388e+01 1.993623e+01 1.757025e+01 2.682250e+01 2.376497e+01 2.257734e+01 2.812977e+01 5.378753e+01 2.178181e+01 2.505645e+01 2.895749e+01 3.313793e+01 4.830040e-03 3.340765e-01 4.760690e-01 1.097279e+00 1.012283e+00 1.819015e+00 1.404498e+00 1.713129e+00 1.868001e+00 2.312749e+00 1.724493e+00 2.472131e+00 2.164512e+00 1.371169e-04 4.537798e-02 8.966367e-02 1.398818e-01 1.637037e-01 2.228031e-01 2.253356e-01 3.754137e-01 3.651974e-01 3.969352e-01 3.571040e-01 3.013884e-01 3.839801e-01 1.495701e-05
<GCONST> 6.973491e+01
<MIXTURE> 2 6.041370e-01
<MEAN> 39
 4.842365e+00 -8.277486e+00 -8.272428e+00 4.991231e+00 4.100063e-01 -3.503770e+00 4.989793e+00 5.132108e+00 -2.329869e+00 -3.491778e+00 -3.519734e+00 1.995041e-01 8.784785e-01 3.816212e-01 7.477349e-01 4.877357e-01 -2.068999e-01 5.095265e-02 2.923669e-01 -2.815071e-01 -4.469301e-01 1.027840e+00 8.068255e-01 -1.560253e-01 -5.744198e-01 -1.564387e-02 -1.686986e-01 1.982564e-01 5.737655e-01 -3.641545e-01 -2.470043e-01 2.780472e-01 -9.826276e-03 -4.176968e-01 -4.643718e-02 3.105686e-01 1.755358e-01 -1.149219e-01 -2.818585e-03
<VARIANCE> 39
 1.466929e+01 2.418023e+01 3.296592e+01 2.948055e+01 4.250783e+01 3.135524e+01 3.632892e+01 5.763729e+01 3.710899e+01 3.311358e+01 2.942612e+01 4.147198e+01 6.057401e-03 5.118020e-01 5.833836e-01 2.389860e+00 1.640659e+00 2.569882e+00 1.421691e+00 2.575567e+00 2.480633e+00 2.820786e+00 2.284595e+00 2.382172e+00 2.019132e+00 1.417039e-04 7.073525e-02 1.259687e-01 2.278855e-01 2.656807e-01 3.275408e-01 3.219286e-01 5.171152e-01 4.514017e-01 5.570560e-01 4.719863e-01 4.105389e-01 4.510510e-01 2.047442e-05
<GCONST> 8.121574e+01
<TRANSP> 5
 0.000000e+00 1.000000e+00 0.000000e+00 0.000000e+00 0.000000e+00
 0.000000e+00 8.721672e-01 1.278328e-01 0.000000e+00 0.000000e+00
 0.000000e+00 0.000000e+00 8.216688e-01 1.783312e-01 0.000000e+00
 0.000000e+00 0.000000e+00 0.000000e+00 8.271102e-01 1.728898e-01
 0.000000e+00 0.000000e+00 0.000000e+00 0.000000e+00 0.000000e+00
<ENDHMM>
~h "liN"
<BEGINHMM>
<NUMSTATES> 5
<STATE> 2
<NUMMIXES> 2
<MIXTURE> 1 5.545285e-01
<MEAN> 39
 -8.736408e-01 6.500521e+00 3.985513e+00 -7.369127e+00 -2.190967e+00 1.340165e-01 -3.161798e+00 1.682593e+00 5.883688e+00 -1.497085e+00 2.326969e+00 5.586641e-01 8.445476e-01 -8.654348e-01 1.402864e+00 -1.596401e+00 -1.181223e+00 2.783282e-01 -5.685548e-01 -1.273521e-01 1.480138e+00 4.140459e-01 1.519482e-02 1.018892e+00 -8.244626e-01 2.040629e-02 1.758961e-01 -7.363632e-02 -7.602333e-02 2.618480e-01 3.493261e-02 -2.714334e-01 2.822319e-01 -3.061788e-01 -3.814965e-01 1.687214e-01 -2.530269e-01 -2.423019e-01 -1.109360e-03
<VARIANCE> 39
 1.133704e+01 3.208803e+01 2.255008e+01 2.770233e+01 2.238792e+01 2.600632e+01 2.376408e+01 3.081912e+01 2.732591e+01 2.355124e+01 2.816974e+01 2.712539e+01 5.846070e-03 1.230225e+00 2.067857e+00 2.098961e+00 3.280525e+00 2.752085e+00 3.062171e+00 3.324383e+00 4.139708e+00 3.594944e+00 3.305557e+00 2.825387e+00 2.438987e+00 4.914715e-04 1.797098e-01 2.356966e-01 4.708775e-01 6.463627e-01 4.234867e-01 5.764873e-01 4.894331e-01 7.237561e-01 4.433168e-01 4.751316e-01 5.555491e-01 4.473662e-01 1.111294e-04
<GCONST> 9.048811e+01
<MIXTURE> 2 4.454678e-01
<MEAN> 39
 -1.543963e+00 7.533242e+00 -3.031787e+00 -9.503400e+00 3.207445e-01 -5.475592e+00 2.217150e+00 3.799031e+00 6.629380e-01 -3.744808e-01 -2.647148e+00 -6.000393e+00 8.852031e-01 -5.438232e-01 1.232597e+00 -1.760841e+00 3.652558e-01 -3.683400e-01 -1.006883e+00 9.682469e-01 -4.962387e-01 9.347475e-02 5.568150e-01 -1.221139e+00 -2.067149e-01 1.155498e-02 3.156836e-01 -1.104886e-01 4.556522e-01 6.159956e-01 -2.795081e-01 2.690956e-01 -3.744643e-01 -5.079052e-01 5.472367e-02 -2.125658e-01 6.465105e-02 4.314641e-01 -6.543070e-03
<VARIANCE> 39
 1.088361e+01 3.219981e+01 1.875215e+01 1.893544e+01 2.107182e+01 2.898315e+01 2.296078e+01 2.513728e+01 2.318180e+01 2.435152e+01 3.286757e+01 3.148037e+01 4.718023e-03 7.516025e-01 1.004923e+00 1.967116e+00 2.524824e+00 2.432674e+00 2.430636e+00 2.838621e+00 2.990981e+00 2.546146e+00 2.784777e+00 2.450034e+00 2.670191e+00 3.043726e-04 1.284633e-01 2.264518e-01 2.990299e-01 3.298567e-01 4.954064e-01 4.324991e-01 4.953974e-01 5.962473e-01 5.150951e-01 5.207082e-01 5.058351e-01 3.795184e-01 5.482080e-05
<GCONST> 8.368942e+01
<STATE> 3
<NUMMIXES> 2
<MIXTURE> 1 4.733661e-01
<MEAN> 39
 -2.168770e+00 1.055691e+01 -1.020373e+00 -6.528497e+00 -1.303371e+00 -3.252143e+00 -1.746824e+00 2.858381e+00 4.525566e+00 1.072456e+00 3.287705e+00 -1.253162e+00 8.970979e-01 1.612326e-01 2.364184e-01 -2.326243e-01 2.270623e-01 2.868801e-01 -4.641679e-02 -1.243320e-03 -7.208940e-02 -2.797128e-01 -4.974309e-03 -8.895486e-02 -4.691376e-02 -1.914612e-03 1.170566e-01 -2.111617e-01 2.911713e-02 3.597579e-02 1.212331e-01 1.059480e-01 2.058016e-02 -4.522859e-02 -1.016010e-01 -8.255266e-02 -1.908800e-01 5.541947e-02 -1.557958e-03
<VARIANCE> 39
 8.805235e+00 2.841993e+01 1.666375e+01 1.736409e+01 1.463929e+01 2.255128e+01 1.961964e+01 1.982044e+01 2.292308e+01 2.175277e+01 2.295211e+01 1.674430e+01 5.402279e-03 1.980521e-01 4.888843e-01 4.018495e-01 6.133048e-01 5.929346e-01 7.592798e-01 6.598323e-01 6.465553e-01 7.253162e-01 9.581512e-01 9.345748e-01 6.862696e-01 4.960361e-05 3.554026e-02 5.832579e-02 8.551449e-02 1.142729e-01 1.068089e-01 1.364290e-01 1.245331e-01 1.367019e-01 1.415248e-01 1.473967e-01 1.478904e-01 1.294725e-01 1.175452e-05
<GCONST> 4.718201e+01
<MIXTURE> 2 5.266275e-01
<MEAN> 39
 1.078990e-01 1.045298e+01 -7.698105e+00 -2.419027e+00 -1.680059e+00 -5.224410e+00 2.919509e+00 -8.041636e-01 1.259506e+00 -1.978490e+00 -5.641544e+00 -4.114060e+00 8.732065e-01 4.519639e-01 -1.242607e-02 -2.325862e-01 8.788578e-01 1.231276e-01 -8.524204e-02 2.731773e-02 -4.616199e-01 -1.924114e-01 -3.390230e-01 -1.669704e-01 2.044645e-01 -2.544306e-03 1.053985e-01 -2.387229e-01 2.655902e-01 -5.610253e-02 9.354528e-02 -1.183519e-02 -7.363397e-02 3.105665e-02 -7.072257e-02 9.693963e-03 1.317672e-01 2.526762e-02 -3.065160e-04
<VARIANCE> 39
 1.293168e+01 2.723002e+01 1.827991e+01 2.703858e+01 3.213414e+01 2.901544e+01 2.567909e+01 2.816070e+01 3.308882e+01 3.110914e+01 3.828153e+01 3.383170e+01 5.970286e-03 2.579316e-01 7.936336e-01 9.200941e-01 1.302600e+00 1.620515e+00 1.524897e+00 1.395440e+00 1.646640e+00 1.986087e+00 1.651372e+00 1.666998e+00 1.619800e+00 6.524294e-05 4.907707e-02 9.534912e-02 1.670868e-01 1.922729e-01 2.444642e-01 2.544362e-01 2.622052e-01 2.680357e-01 2.850966e-01 2.742528e-01 2.637504e-01 2.577253e-01 7.539638e-06
<GCONST> 6.775504e+01
<STATE> 4
<NUMMIXES> 2
<MIXTURE> 1 4.621534e-01
<MEAN> 39
 2.470180e+00 7.860937e+00 -2.801996e+00 -2.094011e+00 1.388649e+00 -5.685007e+00 -1.116396e+00 -4.695827e-01 -6.229753e-01 -1.834671e+00 -2.595062e+00 -1.583628e+00 8.652997e-01 1.015056e+00 -1.481810e+00 1.163542e+00 4.228024e-01 2.599377e-01 -2.269591e-01 -3.699538e-01 -2.534319e-01 -7.424927e-01 3.492288e-02 -2.631313e-01 3.877287e-01 -4.545168e-04 4.571542e-02 -1.579493e-01 3.192454e-01 -1.505017e-01 -1.450010e-01 -1.901758e-02 -6.208849e-02 -2.087038e-02 6.946686e-02 6.452280e-02 5.975536e-02 3.437234e-02 4.910834e-04
<VARIANCE> 39
 1.643387e+01 3.714265e+01 3.834319e+01 4.752190e+01 4.001789e+01 5.009462e+01 5.026843e+01 5.023256e+01 4.051583e+01 4.226009e+01 4.997607e+01 4.123726e+01 7.006465e-03 5.680319e-01 1.336110e+00 3.070233e+00 2.874342e+00 3.036823e+00 3.517206e+00 3.177820e+00 3.451585e+00 3.106622e+00 3.013960e+00 3.671678e+00 2.598287e+00 1.151429e-04 9.339173e-02 2.608848e-01 3.833131e-01 5.022959e-01 5.034571e-01 6.109000e-01 5.387812e-01 5.465900e-01 5.121204e-01 4.848683e-01 4.900215e-01 4.260827e-01 1.213513e-05
<GCONST> 9.119753e+01
<MIXTURE> 2 5.378401e-01
<MEAN> 39
 6.956122e+00 2.113964e+00 4.384502e+00 -1.668214e+00 1.628676e+00 -6.751141e+00 -2.352535e+00 -2.690810e+00 -1.808444e+00 -1.876584e+00 -3.117364e+00 -8.529795e-01 8.736191e-01 3.789967e-01 -3.128709e-01 6.114392e-01 -6.338100e-02 -1.013428e-01 -1.046865e-01 -3.801667e-01 -3.779759e-01 -9.124452e-02 3.439916e-02 3.608346e-02 1.241618e-01 -3.460913e-03 -1.806956e-01 2.941562e-01 -2.807172e-01 1.015026e-01 -4.490740e-02 1.211296e-01 1.755809e-02 4.724794e-02 7.509129e-02 1.254823e-02 8.568622e-02 -2.589716e-02 -2.502013e-03
<VARIANCE> 39
 1.113494e+01 2.972851e+01 2.628106e+01 2.717055e+01 2.961807e+01 4.101270e+01 4.172144e+01 4.768834e+01 4.032214e+01 4.541481e+01 4.281867e+01 4.103860e+01 7.060374e-03 3.891998e-01 9.634231e-01 1.521190e+00 1.356055e+00 1.444739e+00 1.728883e+00 2.015259e+00 1.977371e+00 2.004008e+00 2.041846e+00 2.198584e+00 1.794920e+00 1.015046e-04 8.486710e-02 1.373478e-01 2.399637e-01 2.532663e-01 2.587553e-01 3.137709e-01 3.475968e-01 3.589757e-01 3.674176e-01 3.683296e-01 3.749495e-01 3.255084e-01 1.534154e-05
<GCONST> 7.737378e+01
<TRANSP> 5
 0.000000e+00 1.000000e+00 0.000000e+00 0.000000e+00 0.000000e+00
 0.000000e+00 7.690932e-01 2.309068e-01 0.000000e+00 0.000000e+00
 0.000000e+00 0.000000e+00 8.680304e-01 1.319696e-01 0.000000e+00
 0.000000e+00 0.000000e+00 0.000000e+00 8.948309e-01 1.051691e-01
 0.000000e+00 0.000000e+00 0.000000e+00 0.000000e+00 0.000000e+00
<ENDHMM>
~h "san"
<BEGINHMM>
<NUMSTATES> 5
<STATE> 2
<NUMMIXES> 2
<MIXTURE> 1 7.445482e-01
<MEAN> 39
 -9.943215e+00 -1.405845e-01 1.946651e+00 5.496524e+00 3.161492e+00 6.871682e+00 4.190633e+00 7.925539e+00 4.799479e+00 3.133594e+00 3.196007e+00 2.168489e+00 1.441986e-01 -4.960460e-01 -3.760044e-01 -2.516252e-01 -5.676613e-02 6.053490e-02 1.229810e-01 1.554153e-01 8.874602e-02 1.737073e-01 6.488819e-02 1.577884e-01 1.213014e-01 -1.032099e-02 6.054274e-01 1.750198e-01 7.183933e-02 -2.813204e-01 -2.116005e-01 -1.929290e-01 -1.005516e-01 -3.542474e-01 -1.504643e-01 -1.603567e-01 -1.896821e-01 -6.990366e-02 2.584664e-02
<VARIANCE> 39
 1.926004e+01 2.650251e+01 2.348240e+01 2.149575e+01 2.539697e+01 2.563672e+01 3.960076e+01 3.599408e+01 2.727977e+01 2.856883e+01 2.619874e+01 2.363689e+01 1.983469e-02 1.231754e+00 1.390613e+00 1.384269e+00 1.503521e+00 1.729367e+00 2.115325e+00 2.192176e+00 2.569483e+00 2.291037e+00 2.107646e+00 2.076308e+00 1.881739e+00 2.832500e-03 3.477762e-01 2.334096e-01 2.891952e-01 4.406831e-01 4.517582e-01 4.608971e-01 5.167304e-01 6.044466e-01 5.177331e-01 4.795175e-01 5.400224e-01 4.339541e-01 7.612476e-04
<GCONST> 9.108270e+01
<MIXTURE> 2 2.554483e-01
<MEAN> 39
 -8.109533e+00 5.843390e-02 2.420889e+00 4.751772e+00 3.801983e+00 7.383855e+00 3.856923e+00 6.620895e+00 4.956853e+00 2.537107e+00 3.248584e+00 2.280637e+00 3.370449e-01 3.480347e+00 -3.600735e-01 -7.819757e-01 -2.827677e+00 -1.884334e+00 -9.006531e-01 1.045292e-01 -2.208579e+00 -8.083336e-01 -8.963096e-01 -8.079262e-01 1.521899e-01 1.666859e-01 5.120254e-01 -6.984424e-01 -3.944076e-01 -6.814090e-01 -4.221617e-01 -1.444324e-01 4.962384e-02 -8.973256e-01 -5.774702e-01 -3.825572e-01 -3.218450e-01 -5.628115e-03 3.476934e-02
<VARIANCE> 39
 2.268695e+01 2.718954e+01 2.238789e+01 2.458516e+01 2.634104e+01 2.693050e+01 3.287663e+01 4.374660e+01 2.325694e+01 3.164077e+01 3.330650e+01 2.492239e+01 3.830922e-02 1.398835e+00 1.940225e+00 2.262514e+00 4.162785e+00 2.740331e+00 2.217206e+00 4.354861e+00 4.363674e+00 4.211951e+00 2.978050e+00 5.625945e+00 3.383766e+00 1.746156e-03 5.749482e-01 3.181735e-01 3.044876e-01 6.898429e-01 5.670564e-01 5.178300e-01 7.289069e-01 7.030919e-01 6.385357e-01 7.266467e-01 7.520756e-01 5.819925e-01 6.979291e-04
<GCONST> 1.014094e+02
<STATE> 3
<NUMMIXES> 2
<MIXTURE> 1 5.308497e-01
<MEAN> 39
 -2.590849e+00 -1.155645e+01 -3.342585e+00 -2.823205e+00 2.382523e+00 6.414281e+00 5.054904e-01 -8.571115e+00 -3.844657e+00 -1.686195e+00 9.573266e-01 1.567402e+00 9.485539e-01 -1.203277e+00 -1.095795e+00 2.261313e-01 1.548171e+00 1.477168e+00 -3.049234e-01 -2.047968e+00 -8.847924e-01 -5.144620e-01 7.119753e-01 3.592161e-01 -7.395077e-01 1.151143e-02 1.029691e-01 6.573547e-01 4.343531e-01 2.339371e-01 -2.320595e-01 -3.187388e-01 -4.051880e-02 7.623208e-01 5.390555e-01 2.411938e-01 -9.273588e-02 -5.807575e-02 -1.823792e-02
<VARIANCE> 39
 1.146524e+01 2.643500e+01 1.418969e+01 2.968852e+01 2.816929e+01 2.825702e+01 6.345508e+01 3.296022e+01 4.785450e+01 3.434911e+01 4.944791e+01 2.758475e+01 1.841766e-03 7.600613e-01 8.709393e-01 9.364799e-01 1.441484e+00 1.698604e+00 2.816745e+00 1.795658e+00 2.202508e+00 2.063885e+00 2.002961e+00 3.332288e+00 2.390355e+00 1.810504e-04 2.743872e-01 1.292708e-01 1.743804e-01 5.967619e-01 4.420407e-01 3.711890e-01 6.830768e-01 4.827671e-01 4.334605e-01 5.793301e-01 5.768118e-01 4.849959e-01 1.657357e-04
<GCONST> 8.391167e+01
<MIXTURE> 2 4.691456e-01
<MEAN> 39
 2.613052e+00 -4.736176e+00 -1.804171e+00 -6.031868e+00 -3.890397e+00 4.062565e+00 5.139016e+00 -2.531949e+00 4.035867e-01 -1.476563e+00 -8.633879e-01 2.536982e+00 8.504604e-01 9.900596e-01 -2.771973e+00 -1.394409e+00 -1.803950e+00 -2.473193e-01 1.705377e-01 2.411812e-02 -3.161048e+00 -1.965449e+00 -1.199024e+00 -7.748097e-01 4.455010e-02 1.209358e-01 -1.367698e+00 -2.305560e-01 2.101880e-01 1.214139e+00 1.081523e+00 3.395487e-01 -5.640042e-01 2.581584e-01 -1.178898e-02 3.775952e-01 4.326938e-01 -1.645979e-01 -4.112983e-02
<VARIANCE> 39
 9.984366e+00 3.544844e+01 1.393299e+01 3.067297e+01 2.046328e+01 2.549736e+01 3.324575e+01 4.229187e+01 3.921370e+01 2.642278e+01 7.158142e+01 2.506284e+01 6.226553e-03 4.866988e+00 1.727138e+00 1.665726e+00 5.517077e+00 4.669678e+00 2.867714e+00 5.828494e+00 4.273719e+00 4.266069e+00 4.944268e+00 5.305648e+00 3.967981e+00 3.761610e-03 1.831368e-01 4.062285e-01 3.504420e-01 6.979305e-01 4.213313e-01 4.513785e-01 5.680256e-01 7.061681e-01 6.284458e-01 5.820221e-01 1.114708e+00 7.611243e-01 2.026206e-04
<GCONST> 1.008820e+02
<STATE> 4
<NUMMIXES> 2
<MIXTURE> 1 5.239220e-01
<MEAN> 39
 2.645814e+00 -2.663863e+00 2.545297e+00 -5.024037e+00 -1.852456e-01 -1.291174e+00 -5.463382e+00 -5.073524e+00 -1.658479e+00 -2.755763e+00 -1.645757e+00 -2.466350e-01 8.911035e-01 8.957251e-01 1.231300e+00 5.783744e-01 -2.668657e-01 -3.445441e-01 -1.048939e+00 -7.575008e-02 3.030874e-01 2.428587e-01 3.964933e-02 -1.241696e-01 -3.836173e-02 -6.244316e-03 -4.366219e-02 -9.856707e-03 -2.268574e-02 1.632008e-01 4.694095e-02 2.723878e-02 2.891598e-02 -3.885975e-02 -3.072313e-02 9.365284e-02 8.232800e-02 8.432853e-03 -1.041661e-03
<VARIANCE> 39
 2.868073e+01 4.792588e+01 2.764455e+01 2.798996e+01 3.103510e+01 5.439859e+01 4.591449e+01 4.313487e+01 4.509855e+01 4.686497e+01 5.017551e+01 4.023640e+01 5.169066e-03 6.640428e-01 1.089321e+00 1.390096e+00 1.772330e+00 1.843137e+00 3.114375e+00 2.206206e+00 2.288630e+00 2.326950e+00 2.426691e+00 2.034059e+00 1.987242e+00 1.054965e-04 1.210305e-01 1.829140e-01 2.334802e-01 2.994555e-01 3.204851e-01 6.327606e-01 3.988223e-01 3.961229e-01 4.278069e-01 4.437782e-01 3.656269e-01 3.456849e-01 1.520601e-05
<GCONST> 8.375842e+01
<MIXTURE> 2 4.760709e-01
<MEAN> 39
 -2.893581e+00 -1.038669e+01 -5.627002e-01 6.511639e-01 2.669652e+00 2.644343e+00 -3.783773e+00 -6.950231e+00 -2.835216e+00 -9.376447e-01 -6.263834e-01 -7.733223e-01 9.295673e-01 2.125789e-01 4.370037e-01 2.374045e-01 -1.876483e-01 -2.313143e-01 -1.154358e-01 -3.332528e-01 1.970521e-01 6.422737e-02 -2.462564e-01 -2.025578e-01 -3.627407e-02 -4.410376e-03 1.613375e-01 1.725681e-01 -2.372510e-02 -2.284187e-01 -1.521518e-01 1.061001e-02 1.412107e-01 6.155669e-02 1.348539e-02 -1.312479e-01 -3.405848e-02 5.291290e-02 -8.766876e-04
<VARIANCE> 39
 1.244795e+01 2.579505e+01 1.458727e+01 2.132196e+01 2.279941e+01 2.920352e+01 4.426020e+01 2.867407e+01 3.235462e+01 3.297180e+01 2.755852e+01 2.671430e+01 2.548676e-03 2.546759e-01 4.365431e-01 5.106972e-01 1.026425e+00 7.966906e-01 9.812756e-01 9.667791e-01 1.023917e+00 1.389794e+00 1.254968e+00 1.010803e+00 8.543722e-01 3.792011e-05 3.341575e-02 5.719400e-02 7.652275e-02 1.173352e-01 1.319404e-01 1.728785e-01 1.667445e-01 1.686426e-01 1.714772e-01 2.118000e-01 1.933749e-01 1.550016e-01 5.168119e-06
<GCONST> 5.424777e+01
<TRANSP> 5
 0.000000e+00 1.000000e+00 0.000000e+00 0.000000e+00 0.000000e+00
 0.000000e+00 8.781970e-01 1.218031e-01 0.000000e+00 0.000000e+00
 0.000000e+00 0.000000e+00 8.195038e-01 1.804962e-01 0.000000e+00
 0.000000e+00 0.000000e+00 0.000000e+00 9.353623e-01 6.463765e-02
 0.000000e+00 0.000000e+00 0.000000e+00 0.000000e+00 0.000000e+00
<ENDHMM>
~h "sil"
<BEGINHMM>
<NUMSTATES> 5
<STATE> 2
<NUMMIXES> 3
<MIXTURE> 1 3.977413e-01
<MEAN> 39
 5.731396e+00 -1.638931e+00 1.202920e+00 3.160384e+00 1.658926e+00 6.084472e-01 5.761105e-01 -1.073605e+00 -1.861816e-01 -8.447934e-01 -9.399672e-02 -8.292580e-01 7.328560e-01 3.172994e-01 5.538581e-01 5.768029e-01 4.506677e-01 3.089656e-01 2.463096e-01 -2.132519e-01 -7.338981e-02 1.080998e-01 1.224772e-01 1.126911e-01 1.122545e-01 -2.312118e-02 -1.230433e-01 1.615218e-02 9.883731e-02 2.836524e-02 2.043930e-02 -1.695775e-02 -6.665516e-02 -6.694853e-02 -8.319474e-02 -4.441565e-02 -5.325511e-02 -2.085393e-02 -1.767131e-03
<VARIANCE> 39
 1.637313e+01 5.536145e+01 4.351991e+01 5.748445e+01 3.888753e+01 4.685546e+01 3.796521e+01 3.380556e+01 4.044881e+01 3.525293e+01 3.368287e+01 3.231866e+01 1.288032e-02 4.838191e-01 5.822904e-01 8.013147e-01 8.988374e-01 1.075222e+00 1.158308e+00 1.351433e+00 1.366306e+00 1.343193e+00 1.419747e+00 1.406528e+00 1.417202e+00 1.921369e-04 7.424484e-02 8.889206e-02 1.236256e-01 1.559183e-01 1.721567e-01 1.949921e-01 2.172737e-01 2.185427e-01 2.365126e-01 2.466493e-01 2.257204e-01 2.196258e-01 1.995004e-05
<GCONST> 7.081620e+01
<MIXTURE> 2 1.925036e-01
<MEAN> 39
 -2.519040e+00 2.025991e-01 4.821856e+00 3.817066e+00 4.182758e+00 5.402892e+00 3.157571e+00 4.620057e+00 4.433483e+00 2.337567e+00 1.917515e+00 2.069273e+00 -9.295903e-05 5.756786e-01 2.947479e-01 -4.197677e-01 -2.796074e-01 -5.659109e-01 -7.164313e-01 -5.808388e-01 -7.056375e-01 -5.687209e-01 -2.074084e-02 4.978915e-02 2.215061e-02 1.208221e-01 3.428753e-02 6.969193e-02 -2.331034e-01 -1.411781e-01 -1.229169e-01 -1.276951e-01 -1.288949e-01 -9.503389e-02 -1.473952e-01 -7.027663e-02 -2.512392e-02 -2.764478e-02 1.151915e-02
<VARIANCE> 39
 2.495379e+01 5.186469e+01 2.956725e+01 2.910402e+01 3.076957e+01 3.647996e+01 3.249345e+01 4.093288e+01 3.035196e+01 3.305750e+01 3.067416e+01 2.804350e+01 2.596366e-02 4.310161e+00 4.855836e+00 3.386166e+00 3.152725e+00 3.233491e+00 3.684762e+00 3.476214e+00 3.560723e+00 3.201874e+00 3.430159e+00 3.002970e+00 2.490844e+00 6.630416e-03 2.181373e-01 2.718169e-01 2.195136e-01 2.984678e-01 2.413892e-01 2.527338e-01 2.811987e-01 2.628653e-01 3.020278e-01 2.770865e-01 2.630244e-01 2.343732e-01 2.402620e-04
<GCONST> 9.507615e+01
<MIXTURE> 3 4.097468e-01
<MEAN> 39
 5.823698e+00 3.269252e+00 5.381531e+00 5.063278e+00 3.724389e+00 -7.625527e-01 -2.820916e+00 -3.255864e+00 -1.592763e+00 -1.643339e+00 -1.597160e+00 -9.025307e-01 6.332842e-01 -6.934632e-01 -1.013835e-01 9.798164e-01 7.989995e-01 6.353482e-01 5.586205e-01 2.985996e-02 -1.461154e-01 -5.662390e-03 1.183417e-01 4.856708e-02 3.501166e-02 -4.341226e-02 -2.810566e-01 -3.144723e-01 -1.898248e-01 -6.847541e-02 2.790761e-03 1.979767e-01 2.727036e-01 2.757385e-01 2.115916e-01 1.886515e-01 1.566063e-01 8.949345e-02 -1.224865e-02
<VARIANCE> 39
 1.509421e+01 4.373414e+01 4.106122e+01 4.705782e+01 4.486647e+01 4.891048e+01 5.117221e+01 4.385400e+01 4.599577e+01 3.712362e+01 4.194951e+01 3.736727e+01 1.726660e-02 5.896431e-01 1.124890e+00 1.553685e+00 1.605966e+00 1.934574e+00 2.034444e+00 2.424537e+00 2.368949e+00 2.495448e+00 2.506800e+00 2.434169e+00 2.371872e+00 6.259689e-04 1.026054e-01 1.447269e-01 2.781212e-01 2.886326e-01 3.680611e-01 3.917492e-01 4.462816e-01 4.674973e-01 4.809008e-01 4.780154e-01 4.571254e-01 4.396434e-01 8.543852e-05
<GCONST> 8.904107e+01
<STATE> 3
~s "silst"
<STATE> 4
<NUMMIXES> 3
<MIXTURE> 1 3.716660e-01
<MEAN> 39
 -3.406942e-01 -1.099532e+00 6.938135e+00 7.522565e+00 7.285274e+00 5.766062e+00 2.268641e+00 2.629686e+00 3.539831e+00 3.026292e+00 1.380339e+00 6.994374e-01 2.415944e-01 -1.085678e+00 -1.012937e+00 -3.978865e-01 -7.985135e-02 3.369049e-01 8.841719e-01 1.037745e+00 1.291324e+00 1.196549e+00 9.757186e-01 5.675314e-01 2.625352e-01 -8.129988e-02 1.810432e-01 1.181176e-01 -1.491719e-01 -2.295230e-01 -2.758009e-01 -3.604289e-01 -2.770317e-01 -2.157850e-01 -1.839811e-01 -1.481822e-01 -5.437627e-02 -1.315146e-02 7.352952e-03
<VARIANCE> 39
 1.931600e+01 3.480436e+01 2.657301e+01 3.436044e+01 3.315621e+01 3.713023e+01 4.290769e+01 4.104128e+01 3.918558e+01 3.757144e+01 4.051727e+01 3.497722e+01 3.651106e-02 7.308586e-01 1.084808e+00 1.640733e+00 1.759816e+00 2.403235e+00 2.927379e+00 2.911629e+00 2.982070e+00 2.927652e+00 2.888879e+00 3.080781e+00 2.928834e+00 2.141889e-03 7.027353e-02 1.150581e-01 1.733208e-01 2.067983e-01 2.814444e-01 3.048806e-01 3.551897e-01 3.623959e-01 3.877579e-01 4.017507e-01 3.837873e-01 3.605338e-01 1.878936e-04
<GCONST> 8.889523e+01
<MIXTURE> 2 2.962596e-01
<MEAN> 39
 2.572612e+00 1.246052e+00 -7.631114e-02 -1.715028e-01 1.644164e+00 2.269042e+00 1.117762e+00 2.401536e+00 2.098449e+00 2.753404e+00 1.963347e+00 1.220968e+00 5.477175e-01 -1.965851e-01 -2.946690e-01 -1.447071e+00 -6.382720e-01 -3.869065e-01 -4.054229e-01 -2.451388e-01 -3.448042e-01 -5.319911e-01 2.433068e-02 1.104460e-01 -6.260034e-02 9.886523e-02 -4.714821e-01 -8.907737e-02 1.689377e-01 1.883605e-01 1.104416e-01 6.841233e-02 7.161623e-02 4.457353e-02 4.729975e-02 -1.306232e-01 -8.419138e-02 5.813682e-03 -2.405010e-02
<VARIANCE> 39
 5.774375e+01 7.488914e+01 5.238271e+01 5.378091e+01 4.976487e+01 5.297623e+01 4.999424e+01 5.079210e+01 4.362194e+01 4.595589e+01 3.954784e+01 3.483350e+01 6.452706e-02 5.278609e+00 5.461638e+00 3.584125e+00 4.052491e+00 3.006582e+00 3.435766e+00 3.402411e+00 4.796264e+00 4.665239e+00 4.191265e+00 4.052737e+00 3.823503e+00 1.118570e-02 4.545006e-01 6.710981e-01 6.005763e-01 6.346664e-01 5.587232e-01 6.445588e-01 6.171037e-01 6.435118e-01 6.622959e-01 6.709208e-01 5.856901e-01 5.548354e-01 5.081398e-04
<GCONST> 1.145687e+02
<MIXTURE> 3 3.320615e-01
<MEAN> 39
 -2.216307e+00 -4.214328e+00 2.176825e+00 4.588083e+00 4.245841e+00 3.603646e+00 1.282952e+00 8.420950e-01 3.099311e+00 2.123048e+00 2.142227e+00 1.546845e+00 1.214362e-01 -6.374746e-01 -3.588663e-01 -5.126446e-01 -3.799373e-01 -4.467666e-01 -3.121055e-01 -3.587753e-01 -9.639987e-02 -2.247196e-02 2.600406e-02 2.027495e-01 2.048159e-01 -3.939921e-02 1.871875e-01 2.256911e-01 1.552342e-01 1.375404e-01 1.131034e-01 5.779350e-02 9.113553e-03 -3.664805e-02 -6.982698e-02 -9.009811e-02 -1.060171e-01 -9.340467e-02 1.200850e-02
<VARIANCE> 39
 2.514309e+01 3.706473e+01 2.786619e+01 2.894913e+01 3.292865e+01 2.743109e+01 3.305307e+01 3.834631e+01 3.351189e+01 2.982988e+01 3.150774e+01 2.508375e+01 2.727516e-02 7.791139e-01 1.112623e+00 1.456215e+00 1.690258e+00 1.893134e+00 1.928745e+00 2.153212e+00 2.034320e+00 2.354660e+00 2.152902e+00 2.062678e+00 1.933759e+00 2.736635e-03 7.993266e-02 1.337871e-01 1.671933e-01 1.640337e-01 2.435278e-01 2.732013e-01 2.805804e-01 3.124920e-01 3.456764e-01 3.039422e-01 2.813572e-01 2.748246e-01 1.297931e-04
<GCONST> 8.273102e+01
<TRANSP> 5
 0.000000e+00 1.000000e+00 0.000000e+00 0.000000e+00 0.000000e+00
 0.000000e+00 7.537269e-01 1.067590e-01 1.395141e-01 0.000000e+00
 0.000000e+00 0.000000e+00 6.185258e-01 3.814742e-01 0.000000e+00
 0.000000e+00 8.564061e-03 0.000000e+00 6.493412e-01 3.420947e-01
 0.000000e+00 0.000000e+00 0.000000e+00 0.000000e+00 0.000000e+00
<ENDHMM>
